
/* Species #1 : (Size 29) (AF 7.05094) (Age 10)  */


/* Organism #0 Fitness: 9 Error: 1 */
genomestart 0
trait 1 0.1 0.0510765 0 0 0 0 0 0.0325408 
trait 2 0.352344 0 0 0.0458599 0.134 0 0 0 
trait 3 0.3 0 0 0 0 0 0 0 
node 1 3 1 3
node 2 1 1 1
node 3 3 1 1
node 4 1 0 2
gene 1 1 4 -3.65117 0 1 -3.65117 1
gene 1 2 4 8 0 2 8 1
gene 3 3 4 -8 0 3 -8 1
genomeend 0

/* Organism #1 Fitness: 8.99954 Error: 1.00008 */
genomestart 1
trait 1 0.1 0.0510765 0 0 0 0 0 0.0325408 
trait 2 0.352344 0 0 0.0458599 0.134 0 0 0 
trait 3 0.3 0 0 0 0 0 0 0 
node 1 3 1 3
node 2 1 1 1
node 3 3 1 1
node 4 1 0 2
gene 1 1 4 -1.92428 0 1 -1.92428 1
gene 1 2 4 4.86775 0 2 4.86775 1
gene 2 3 4 -8 0 3 -8 1
genomeend 1

/* Organism #2 Fitness: 8.99999 Error: 1 */
genomestart 2
trait 1 0.1 0.0510765 0 0 0 0 0 0.0325408 
trait 2 0.2 0 0 0 0 0 0 0 
trait 3 0.3 0 0 0 0 0 0 0 
node 1 3 1 3
node 2 1 1 1
node 3 3 1 1
node 4 1 0 2
gene 1 1 4 -3.56745 0 1 -3.56745 1
gene 1 2 4 6.30627 0 2 6.30627 1
gene 1 3 4 -8 0 3 -8 1
genomeend 2

/* Organism #3 Fitness: 9 Error: 1 */
genomestart 3
trait 1 0.1 0.0510765 0 0 0 0 0 0.0325408 
trait 2 0.352344 0 0 0.0458599 0.134 0 0 0 
trait 3 0.3 0 0 0 0 0 0 0 
node 1 3 1 3
node 2 1 1 1
node 3 3 1 1
node 4 1 0 2
gene 1 1 4 -3.83271 0 1 -3.83271 1
gene 1 2 4 6.76554 0 2 6.76554 1
gene 1 3 4 -7.55291 0 3 -7.55291 1
genomeend 3

/* Organism #4 Fitness: 8.99939 Error: 1.0001 */
genomestart 4
trait 1 0.1 0.0510765 0 0 0 0 0 0.0325408 
trait 2 0.2 0 0 0 0 0 0 0 
trait 3 0.3 0 0 0 0 0 0 0 
node 1 3 1 3
node 2 1 1 1
node 3 3 1 1
node 4 1 0 2
gene 1 1 4 -2.0061 0 1 -2.0061 1
gene 1 2 4 4.01251 0 2 4.01251 1
gene 1 3 4 -8 0 3 -8 1
genomeend 4

/* Organism #5 Fitness: 9 Error: 1 */
genomestart 5
trait 1 0.1 0.0510765 0 0 0 0 0 0.0325408 
trait 2 0.809378 0 0 0.18344 0.536001 0 0 0 
trait 3 0.3 0 0 0 0 0 0 0 
node 1 3 1 3
node 2 1 1 1
node 3 3 1 1
node 4 1 0 2
gene 1 1 4 -3.30195 0 1 -3.30195 1
gene 1 2 4 6.99147 0 2 6.99147 1
gene 3 3 4 -8 0 3 -8 1
genomeend 5

/* Organism #6 Fitness: 9 Error: 1 */
genomestart 6
trait 1 0.1 0.0510765 0 0 0 0 0 0.0325408 
trait 2 0.504689 0 0 0.0917198 0.268001 0 0 0 
trait 3 0.3 0 0 0 0 0 0 0 
node 1 3 1 3
node 2 1 1 1
node 3 3 1 1
node 4 1 0 2
gene 1 1 4 -3.30195 0 1 -3.30195 1
gene 1 2 4 6.99147 0 2 6.99147 1
gene 1 3 4 -8 0 3 -8 1
genomeend 6

/* Organism #7 Fitness: 9 Error: 1 */
genomestart 7
trait 1 0.1 0.0510765 0 0 0 0 0 0.0325408 
trait 2 0.352344 0 0 0.0458599 0.134 0 0 0 
trait 3 0.3 0 0 0 0 0 0 0 
node 1 3 1 3
node 2 1 1 1
node 3 3 1 1
node 4 1 0 2
gene 1 1 4 -3.65117 0 1 -3.65117 1
gene 1 2 4 8 0 2 8 1
gene 3 3 4 -8 0 3 -8 1
genomeend 7

/* Organism #8 Fitness: 6.59895 Error: 1.43116 */
genomestart 8
trait 1 0.1 0.0510765 0 0 0 0 0 0.0325408 
trait 2 0.428517 0 0 0.0687898 0.201 0 0 0 
trait 3 0.3 0 0 0 0 0 0 0 
node 1 3 1 3
node 2 1 1 1
node 3 3 1 1
node 4 1 0 2
gene 1 1 4 -2.04054 0 1 -2.04054 1
gene 1 2 4 8 0 2 8 1
gene 1 3 4 -6.01577 0 3 -6.01577 1
genomeend 8

/* Organism #9 Fitness: 8.21238 Error: 1.13428 */
genomestart 9
trait 1 0.1 0.0510765 0 0 0 0 0 0.0325408 
trait 2 0.504689 0 0 0.0917198 0.268001 0 0 0 
trait 3 0.3 0 0 0 0 0 0 0 
node 1 3 1 3
node 2 1 1 1
node 3 3 1 1
node 4 1 0 2
gene 1 1 4 -4.66543 0 1 -4.66543 1
gene 1 2 4 5.0439 0 2 5.0439 1
gene 1 3 4 -5.0182 0 3 -5.0182 1
genomeend 9

/* Organism #10 Fitness: 8.91821 Error: 1.01366 */
genomestart 10
trait 1 0.1 0.0510765 0 0 0 0 0 0.0325408 
trait 2 0.352344 0 0 0.0458599 0.134 0 0 0 
trait 3 0.3 0 0 0 0 0 0 0 
node 1 3 1 3
node 2 1 1 1
node 3 3 1 1
node 4 1 0 2
gene 3 1 4 -1.72779 0 1 -1.72779 1
gene 1 2 4 8 0 2 8 1
gene 3 3 4 -7.14429 0 3 -7.14429 1
genomeend 10

/* Organism #11 Fitness: 3.99999 Error: 2 */
genomestart 11
trait 1 0.1 0.0510765 0 0 0 0 0 0.0325408 
trait 2 0.580861 0 0 0.11465 0.335001 0 0 0 
trait 3 0.3 0 0 0 0 0 0 0 
node 1 3 1 3
node 2 1 1 1
node 3 3 1 1
node 4 1 0 2
gene 1 1 4 -5.42227 0 1 -5.42227 1
gene 1 2 4 8 0 2 8 1
gene 3 3 4 1.73332 0 3 1.73332 1
genomeend 11

/* Organism #12 Fitness: 8.99995 Error: 1.00001 */
genomestart 12
trait 1 0.1 0.0510765 0 0 0 0 0 0.0325408 
trait 2 0.504689 0 0 0.0917198 0.268001 0 0 0 
trait 3 0.3 0 0 0 0 0 0 0 
node 1 3 1 3
node 2 1 1 1
node 3 3 1 1
node 4 1 0 2
gene 1 1 4 -2.95952 0 1 -2.95952 1
gene 1 2 4 7.52873 0 2 7.52873 1
gene 1 3 4 -6.94095 0 3 -6.94095 1
genomeend 12

/* Organism #13 Fitness: 8.99999 Error: 1 */
genomestart 13
trait 1 0.1 0.0510765 0 0 0 0 0 0.0325408 
trait 2 0.2 0 0 0 0 0 0 0 
trait 3 0.3 0 0 0 0 0 0 0 
node 1 3 1 3
node 2 1 1 1
node 3 3 1 1
node 4 1 0 2
gene 1 1 4 -3.56745 0 1 -3.56745 1
gene 1 2 4 6.30627 0 2 6.30627 1
gene 1 3 4 -8 0 3 -8 1
genomeend 13

/* Organism #14 Fitness: 4 Error: 2 */
genomestart 14
trait 1 0.243 0.0902606 0 0 0 0 0 0 
trait 2 0.2 0 0 0 0 0 0 0 
trait 3 0.3 0 0 0 0 0 0 0 
node 1 3 1 3
node 2 1 1 1
node 3 3 1 1
node 4 1 0 2
gene 1 1 4 -3.47318 0 1 -3.47318 1
gene 1 2 4 -1.05896 0 2 -1.05896 1
gene 1 3 4 0.38619 0 3 0.38619 1
genomeend 14

/* Organism #15 Fitness: 8.99999 Error: 1 */
genomestart 15
trait 1 0.1 0.0510765 0 0 0 0 0 0.0325408 
trait 2 0.504689 0 0 0.0917198 0.268001 0 0 0 
trait 3 0.3 0 0 0 0 0 0 0 
node 1 3 1 3
node 2 1 1 1
node 3 2 1 1
node 4 1 0 2
gene 1 1 4 -4.83337 0 1 -4.83337 1
gene 1 2 4 7.99975 0 2 7.99975 1
gene 1 3 4 -6.01109 0 3 -6.01109 1
genomeend 15

/* Organism #16 Fitness: 4.00001 Error: 2 */
genomestart 16
trait 1 0.1 0.0510765 0 0 0 0 0 0.0325408 
trait 2 0.352344 0 0 0.0458599 0.134 0 0 0 
trait 3 0.3 0 0 0 0 0 0 0 
node 1 3 1 3
node 2 1 1 1
node 3 3 1 1
node 4 1 0 2
gene 1 1 4 -3.11726 0 1 -3.11726 1
gene 1 2 4 0.424625 0 2 0.424625 1
gene 3 3 4 -8 0 3 -8 1
genomeend 16

/* Organism #17 Fitness: 8.99998 Error: 1 */
genomestart 17
trait 1 0.1 0.0510765 0 0 0 0 0 0.0325408 
trait 2 0.504689 0 0 0.0917198 0.268001 0 0 0 
trait 3 0.3 0 0 0 0 0 0 0 
node 1 3 1 3
node 2 1 1 1
node 3 3 1 1
node 4 1 0 2
gene 1 1 4 -5.45827 0 1 -5.45827 1
gene 1 2 4 8 0 2 8 1
gene 3 3 4 -7.66806 0 3 -7.66806 1
genomeend 17

/* Organism #18 Fitness: 4.00004 Error: 1.99999 */
genomestart 18
trait 1 0.1 0.0510765 0 0 0 0 0 0.0325408 
trait 2 0.2 0 0 0 0 0 0 0 
trait 3 0.3 0 0 0 0 0 0 0 
node 1 3 1 3
node 2 1 1 1
node 3 3 1 1
node 4 1 0 2
gene 1 1 4 -3.52031 0 1 -3.52031 1
gene 1 2 4 7.71148 0 2 7.71148 1
gene 1 3 4 1.18971 0 3 1.18971 1
genomeend 18

/* Organism #19 Fitness: 9 Error: 1 */
genomestart 19
trait 1 0.1 0.0510765 0 0 0 0 0 0.0325408 
trait 2 0.276172 0 0 0.0229299 0.0670001 0 0 0 
trait 3 0.3 0 0 0 0 0 0 0 
node 1 3 1 3
node 2 1 1 1
node 3 3 1 1
node 4 1 0 2
gene 1 1 4 -3.56745 0 1 -3.56745 1
gene 1 2 4 8 0 2 8 1
gene 1 3 4 -8 0 3 -8 1
genomeend 19

/* Organism #20 Fitness: 8.99999 Error: 1 */
genomestart 20
trait 1 0.1 0.0510765 0 0 0 0 0 0.0325408 
trait 2 0.657033 0 0 0.13758 0.402001 0 0 0 
trait 3 0.3 0 0 0 0 0 0 0 
node 1 3 1 3
node 2 1 1 1
node 3 3 1 1
node 4 1 0 2
gene 1 1 4 -4.14135 0 1 -4.14135 1
gene 1 2 4 6.86653 0 2 6.86653 1
gene 1 3 4 -7.62999 0 3 -7.62999 1
genomeend 20

/* Organism #21 Fitness: 8.99247 Error: 1.00125 */
genomestart 21
trait 1 0.1 0.0510765 0 0 0 0 0 0.0325408 
trait 2 0.2 0 0 0 0 0 0 0 
trait 3 0.3 0 0 0 0 0 0 0 
node 1 3 1 3
node 2 1 1 1
node 3 2 1 1
node 4 1 0 2
gene 1 1 4 -1.35658 0 1 -1.35658 1
gene 1 2 4 4.20175 0 2 4.20175 1
gene 1 3 4 -8 0 3 -8 1
genomeend 21

/* Organism #22 Fitness: 4 Error: 2 */
genomestart 22
trait 1 0.1 0.0510765 0 0 0 0 0 0.0325408 
trait 2 0.504689 0 0 0.0917198 0.268001 0 0 0 
trait 3 0.3 0 0 0 0 0 0 0 
node 1 3 1 3
node 2 1 1 1
node 3 3 1 1
node 4 1 0 2
gene 1 1 4 -5.01526 0 1 -5.01526 1
gene 1 2 4 -2.085 0 2 -2.085 1
gene 1 3 4 -8 0 3 -8 1
genomeend 22

/* Organism #23 Fitness: 4.98129 Error: 1.76812 */
genomestart 23
trait 1 0.1 0 0 0 0 0 0 0 
trait 2 0.2 0 0 0 0 0 0 0 
trait 3 0.3 0 0 0 0 0 0 0 
node 1 3 1 3
node 2 2 1 1
node 3 2 1 1
node 4 2 0 2
gene 2 1 4 -2.68795 0 1 -2.68795 1
gene 2 2 4 -2.65172 0 2 -2.65172 1
gene 3 3 4 2.44473 0 3 2.44473 1
genomeend 23

/* Organism #24 Fitness: 4 Error: 2 */
genomestart 24
trait 1 0.1 0.0510765 0 0 0 0 0 0.0325408 
trait 2 0.2 0 0 0 0 0 0 0 
trait 3 0.3 0 0 0 0 0 0 0 
node 1 3 1 3
node 2 1 1 1
node 3 3 1 1
node 4 1 0 2
gene 1 1 4 -2.25263 0 1 -2.25263 1
gene 1 2 4 -2.57682 0 2 -2.57682 1
gene 3 3 4 0.0941966 0 3 0.0941966 0
genomeend 24

/* Organism #25 Fitness: 4.77496 Error: 1.81483 */
genomestart 25
trait 1 0.075 0.185619 0.0755721 0 0 0 0 0.0162704 
trait 2 0.2 0 0 0 0 0 0 0 
trait 3 0.3 0 0 0 0 0 0 0 
node 1 3 1 3
node 2 2 1 1
node 3 3 1 1
node 4 1 0 2
gene 2 1 4 -1.76862 0 1 -1.76862 1
gene 1 2 4 -1.93759 0 2 -1.93759 1
gene 1 3 4 1.46796 0 3 1.46796 1
genomeend 25

/* Organism #26 Fitness: 4 Error: 2 */
genomestart 26
trait 1 0.1 0.0510765 0 0 0 0 0 0.0325408 
trait 2 0.2 0 0 0 0 0 0 0 
trait 3 0.3 0 0 0 0 0 0 0 
node 1 3 1 3
node 2 2 1 1
node 3 2 1 1
node 4 2 0 2
gene 1 1 4 -2.25263 0 1 -2.25263 1
gene 1 2 4 -2.57682 0 2 -2.57682 1
gene 3 3 4 0.0941966 0 3 0.0941966 0
genomeend 26

/* Organism #27 Fitness: 4 Error: 2 */
genomestart 27
trait 1 0.1 0 0 0 0 0 0 0 
trait 2 0.2 0 0 0 0 0 0 0 
trait 3 0.3 0 0 0 0 0 0 0 
node 1 3 1 3
node 2 2 1 1
node 3 2 1 1
node 4 2 0 2
gene 2 1 4 -4.76383 0 1 -4.76383 1
gene 2 2 4 -1.23617 0 2 -1.23617 1
gene 1 3 4 1.87687 0 3 1.87687 1
genomeend 27

/* Organism #28 Fitness: 4.00005 Error: 1.99999 */
genomestart 28
trait 1 0.1 0 0 0 0 0 0 0 
trait 2 0.2 0 0 0 0 0 0 0 
trait 3 0.3 0 0 0 0 0 0 0 
node 1 3 1 3
node 2 2 1 1
node 3 2 1 1
node 4 2 0 2
gene 2 1 4 -4.34388 0 1 -4.34388 1
gene 2 2 4 2.40674 0 2 2.40674 1
gene 1 3 4 -0.036843 0 3 -0.036843 1
genomeend 28

/* Species #2 : (Size 17) (AF 5.27173) (Age 8)  */


/* Organism #29 Fitness: 8.71121 Error: 1.04852 */
genomestart 29
trait 1 0.1 0 0 0 0 0 0 0 
trait 2 0.2 0 0 0 0 0 0 0 
trait 3 0.3 0 0 0 0 0 0 0 
node 1 3 1 3
node 2 2 1 1
node 3 3 1 1
node 4 2 0 2
node 7 1 0 0
gene 2 1 4 0.667875 0 1 0.667875 1
gene 1 2 4 -4.65653 0 2 -4.65653 1
gene 2 3 4 -3.08969 0 3 -3.08969 0
gene 2 3 7 -1.1554 0 8 -1.1554 1
gene 2 7 4 -3.17448 0 9 -3.17448 1
gene 3 2 7 0.159641 0 49 0.159641 1
genomeend 29

/* Organism #30 Fitness: 4.00297 Error: 1.99926 */
genomestart 30
trait 1 0.1 0 0 0 0 0 0 0 
trait 2 0.2 0 0 0 0 0 0 0 
trait 3 0.3 0 0 0 0 0 0 0 
node 1 3 1 3
node 2 2 1 1
node 3 3 1 1
node 4 2 0 2
node 7 1 0 0
gene 1 1 4 -0.496588 0 1 -0.496588 1
gene 1 2 4 -0.86291 0 2 -0.86291 1
gene 2 3 4 1.52351 0 3 1.52351 0
gene 2 3 7 -0.267832 0 8 -0.267832 1
gene 2 7 4 -4.58064 0 9 -4.58064 1
gene 3 2 7 0.670487 0 49 0.670487 1
genomeend 30

/* Organism #31 Fitness: 4.47417 Error: 1.88478 */
genomestart 31
trait 1 0.1 0 0 0 0 0 0 0 
trait 2 0.2 0 0 0 0 0 0 0 
trait 3 0.3 0 0 0 0 0 0 0 
node 1 3 1 3
node 2 2 1 1
node 3 3 1 1
node 4 2 0 2
node 7 1 0 0
gene 2 1 4 2.0792 0 1 2.0792 1
gene 1 2 4 -0.217474 0 2 -0.217474 1
gene 2 3 4 -2.0116 0 3 -2.0116 0
gene 2 3 7 -0.828863 0 8 -0.828863 1
gene 2 7 4 -3.33067 0 9 -3.33067 1
gene 3 2 7 2.57413 0 49 2.57413 1
genomeend 31

/* Organism #32 Fitness: 2.90651 Error: 2.29515 */
genomestart 32
trait 1 0.1 0 0 0 0 0 0 0 
trait 2 0.2 0 0 0 0 0 0 0 
trait 3 0.3 0 0 0 0 0 0 0 
node 1 3 1 3
node 2 2 1 1
node 3 3 1 1
node 4 2 0 2
node 7 1 0 0
gene 2 1 4 1.36327 0 1 1.36327 1
gene 1 2 4 0.18738 0 2 0.18738 1
gene 2 3 4 1.60946 0 3 1.60946 0
gene 2 3 7 -1.99296 0 8 -1.99296 1
gene 2 7 4 -3.07373 0 9 -3.07373 1
gene 3 2 7 1.6223 0 49 1.6223 1
genomeend 32

/* Organism #33 Fitness: 4.01059 Error: 1.99735 */
genomestart 33
trait 1 0.1 0 0 0 0 0 0 0 
trait 2 0.2 0 0 0 0 0 0 0 
trait 3 0.3 0 0 0 0 0 0 0 
node 1 3 1 3
node 2 2 1 1
node 3 3 1 1
node 4 2 0 2
node 7 1 0 0
gene 2 1 4 1.41654 0 1 1.41654 1
gene 1 2 4 -0.65254 0 2 -0.65254 1
gene 2 3 4 -3.44641 0 3 -3.44641 0
gene 2 3 7 -1.38002 0 8 -1.38002 1
gene 2 7 4 -0.730024 0 9 -0.730024 1
gene 3 2 7 2.61572 0 49 2.61572 1
genomeend 33

/* Organism #34 Fitness: 7.80372 Error: 1.20649 */
genomestart 34
trait 1 0.1 0 0 0 0 0 0 0 
trait 2 0.2 0 0 0 0 0 0 0 
trait 3 0.3 0 0 0 0 0 0 0 
node 1 3 1 3
node 2 2 1 1
node 3 3 1 1
node 4 2 0 2
node 7 1 0 0
gene 2 1 4 0.275416 0 1 0.275416 1
gene 1 2 4 -2.22702 0 2 -2.22702 1
gene 2 3 4 -5.47528 0 3 -5.47528 0
gene 2 3 7 -2.99847 0 8 -2.99847 1
gene 2 7 4 -3.17448 0 9 -3.17448 1
gene 3 2 7 0.21584 0 49 0.21584 1
genomeend 34

/* Organism #35 Fitness: 4.00291 Error: 1.99927 */
genomestart 35
trait 1 0.1 0 0 0 0 0 0 0 
trait 2 0.2 0 0 0 0 0 0 0 
trait 3 0.3 0 0 0 0 0 0 0 
node 1 3 1 3
node 2 2 1 1
node 3 3 1 1
node 4 2 0 2
node 7 1 0 0
gene 2 1 4 -1.43539 0 1 -1.43539 1
gene 1 2 4 -3.75178 0 2 -3.75178 1
gene 2 3 4 -2.63842 0 3 -2.63842 0
gene 2 3 7 -1.12636 0 8 -1.12636 1
gene 2 7 4 -0.831416 0 9 -0.831416 1
gene 3 2 7 -2.06983 0 49 -2.06983 1
genomeend 35

/* Organism #36 Fitness: 4 Error: 2 */
genomestart 36
trait 1 0.1 0 0 0 0 0 0 0 
trait 2 0.2 0 0 0 0 0 0 0 
trait 3 0.3 0 0 0 0 0 0 0 
node 1 3 1 3
node 2 2 1 1
node 3 3 1 1
node 4 2 0 2
node 7 1 0 0
gene 2 1 4 -0.0670235 0 1 -0.0670235 1
gene 1 2 4 -0.176727 0 2 -0.176727 1
gene 2 3 4 -3.26106 0 3 -3.26106 1
gene 1 3 7 -1.11505 0 8 -1.11505 1
gene 2 7 4 -5.05338 0 9 -5.05338 1
gene 3 2 7 -0.0388134 0 49 -0.0388134 1
genomeend 36

/* Organism #37 Fitness: 4.0066 Error: 1.99835 */
genomestart 37
trait 1 0.1 0 0 0 0 0 0 0 
trait 2 0.2 0 0 0 0 0 0 0 
trait 3 0.3 0.704536 0 0 0 0 0 0 
node 1 3 1 3
node 2 2 1 1
node 3 3 1 1
node 4 2 0 2
node 7 1 0 0
gene 2 1 4 -1.30087 0 1 -1.30087 1
gene 1 2 4 -6.11731 0 2 -6.11731 1
gene 2 3 4 -4.42575 0 3 -4.42575 0
gene 2 3 7 -2.13051 0 8 -2.13051 1
gene 2 7 4 -3.58549 0 9 -3.58549 1
gene 3 2 7 1.14916 0 49 1.14916 1
genomeend 37

/* Organism #38 Fitness: 3.97257 Error: 2.00687 */
genomestart 38
trait 1 0.1 0 0 0 0 0 0 0 
trait 2 0.2 0 0 0 0 0 0 0 
trait 3 0.3 0 0 0 0 0 0 0 
node 1 3 1 3
node 2 2 1 1
node 3 3 1 1
node 4 2 0 2
node 7 1 0 0
gene 1 1 4 0.667875 0 1 0.667875 1
gene 1 2 4 -3.49497 0 2 -3.49497 1
gene 2 3 4 0.196868 0 3 0.196868 0
gene 2 3 7 1.32814 0 8 1.32814 1
gene 2 7 4 -3.35571 0 9 -3.35571 1
gene 3 2 7 0.0712889 0 49 0.0712889 1
genomeend 38

/* Organism #39 Fitness: 8.36217 Error: 1.10826 */
genomestart 39
trait 1 0.1 0 0 0 0 0 0 0 
trait 2 0.2 0 0 0 0 0 0 0 
trait 3 0.3 0 0 0 0 0 0 0 
node 1 3 1 3
node 2 2 1 1
node 3 3 1 1
node 4 2 0 2
node 7 3 0 0
gene 2 1 4 0.431171 0 1 0.431171 1
gene 1 2 4 2.00125 0 2 2.00125 1
gene 2 3 4 -0.098299 0 3 -0.098299 0
gene 2 3 7 -1.93627 0 8 -1.93627 1
gene 2 7 4 -3.57506 0 9 -3.57506 1
gene 3 2 7 -0.492056 0 49 -0.492056 1
genomeend 39

/* Organism #40 Fitness: 3.81795 Error: 2.04604 */
genomestart 40
trait 1 0.1 0 0 0 0 0 0 0 
trait 2 0.2 0 0 0 0 0 0 0 
trait 3 0.3 0 0 0 0 0 0 0 
node 1 3 1 3
node 2 2 1 1
node 3 3 1 1
node 4 2 0 2
node 7 1 0 0
gene 2 1 4 1.31299 0 1 1.31299 1
gene 1 2 4 -3.34276 0 2 -3.34276 1
gene 2 3 4 -3.50555 0 3 -3.50555 0
gene 2 3 7 0.0383072 0 8 0.0383072 1
gene 2 7 4 -1.76692 0 9 -1.76692 1
gene 3 2 7 -0.77781 0 49 -0.77781 1
genomeend 40

/* Organism #41 Fitness: 8.90388 Error: 1.01606 */
genomestart 41
trait 1 0.1 0 0 0 0 0 0 0 
trait 2 0.2 0 0 0 0 0 0 0 
trait 3 0.3 0 0 0 0 0 0 0 
node 1 3 1 3
node 2 2 1 1
node 3 3 1 1
node 4 2 0 2
node 7 1 0 0
gene 2 1 4 0.837121 0 1 0.837121 1
gene 1 2 4 -0.143495 0 2 -0.143495 1
gene 2 3 4 -2.25861 0 3 -2.25861 0
gene 2 3 7 -3.15253 0 8 -3.15253 1
gene 2 7 4 -5.55642 0 9 -5.55642 1
gene 3 2 7 -2.01352 0 49 -2.01352 1
genomeend 41

/* Organism #42 Fitness: 3.95811 Error: 2.0105 */
genomestart 42
trait 1 0.1 0 0 0 0 0 0 0 
trait 2 0.2 0 0 0 0 0 0 0 
trait 3 0.3 0 0 0 0 0 0 0 
node 1 3 1 3
node 2 2 1 1
node 3 3 1 1
node 4 2 0 2
node 7 1 0 0
gene 2 1 4 0.667875 0 1 0.667875 1
gene 1 2 4 -3.43911 0 2 -3.43911 1
gene 2 3 4 -2.39285 0 3 -2.39285 1
gene 2 3 7 -1.1554 0 8 -1.1554 1
gene 2 7 4 -3.17448 0 9 -3.17448 1
gene 3 2 7 0.159641 0 49 0.159641 1
genomeend 42

/* Organism #43 Fitness: 3.99764 Error: 2.00059 */
genomestart 43
trait 1 0.1 0 0 0 0 0 0 0 
trait 2 0.2 0 0 0 0 0 0 0 
trait 3 0.3 0 0 0 0 0 0 0 
node 1 3 1 3
node 2 2 1 1
node 3 3 1 1
node 4 2 0 2
node 7 1 0 0
gene 2 1 4 -0.521111 0 1 -0.521111 1
gene 1 2 4 -1.4695 0 2 -1.4695 1
gene 2 3 4 -2.42415 0 3 -2.42415 0
gene 2 3 7 0.082809 0 8 0.082809 1
gene 2 7 4 -1.7532 0 9 -1.7532 1
gene 3 2 7 -0.300571 0 49 -0.300571 1
genomeend 43

/* Organism #44 Fitness: 8.67693 Error: 1.05434 */
genomestart 44
trait 1 0.1 0 0 0 0 0 0 0 
trait 2 0.2 0 0 0 0 0 0 0 
trait 3 0.3 0 0 0 0 0 0 0 
node 1 3 1 3
node 2 2 1 1
node 3 3 1 1
node 4 2 0 2
node 7 1 0 0
gene 2 1 4 0.61575 0 1 0.61575 1
gene 1 2 4 2.3747 0 2 2.3747 1
gene 2 3 4 0.914454 0 3 0.914454 0
gene 2 3 7 -4.68124 0 8 -4.68124 1
gene 2 7 4 -3.17213 0 9 -3.17213 1
gene 3 2 7 -1.62378 0 49 -1.62378 1
genomeend 44

/* Organism #45 Fitness: 4.01155 Error: 1.99711 */
genomestart 45
trait 1 0.1 0 0 0 0 0 0 0 
trait 2 0.2 0 0 0 0 0 0 0 
trait 3 0.3 0 0 0 0 0 0 0 
node 1 3 1 3
node 2 2 1 1
node 3 3 1 1
node 4 2 0 2
node 7 1 0 0
gene 2 1 4 -1.18463 0 1 -1.18463 1
gene 1 2 4 -1.99953 0 2 -1.99953 1
gene 2 3 4 -2.11887 0 3 -2.11887 0
gene 2 3 7 -2.48785 0 8 -2.48785 1
gene 2 7 4 -1.81184 0 9 -1.81184 1
gene 3 2 7 -0.0474988 0 49 -0.0474988 1
genomeend 45

/* Species #4 : (Size 35) (AF 7.03712) (Age 7)  */


/* Organism #46 Fitness: 8.99799 Error: 1.00034 */
genomestart 46
trait 1 0.1 0 0 0 0 0 0 0 
trait 2 0.2 0 0 0 0 0 0 0 
trait 3 0.3 0 0 0 0 0 0 0 
node 1 3 1 3
node 2 2 1 1
node 3 2 1 1
node 4 2 0 2
gene 2 1 4 -1.81753 0 1 -1.81753 1
gene 2 2 4 -5.15167 0 2 -5.15167 1
gene 1 3 4 3.54159 0 3 3.54159 1
genomeend 46

/* Organism #47 Fitness: 8.97716 Error: 1.00381 */
genomestart 47
trait 1 0.1 0 0 0 0 0 0 0 
trait 2 0.2 0 0 0 0 0 0 0 
trait 3 0.3 0 0 0 0 0 0 0 
node 1 3 1 3
node 2 2 1 1
node 3 2 1 1
node 4 2 0 2
gene 2 1 4 -1.13091 0 1 -1.13091 1
gene 2 2 4 -5.15167 0 2 -5.15167 1
gene 1 3 4 3.54159 0 3 3.54159 1
genomeend 47

/* Organism #48 Fitness: 5.63686 Error: 1.62579 */
genomestart 48
trait 1 0.1 0 0 0 0 0 0 0 
trait 2 0.2 0 0 0 0 0 0 0 
trait 3 0.3 0 0 0 0 0 0 0 
node 1 3 1 3
node 2 2 1 1
node 3 2 1 1
node 4 2 0 2
gene 2 1 4 -3.75681 0 1 -3.75681 1
gene 2 2 4 -4.46731 0 2 -4.46731 1
gene 1 3 4 3.65238 0 3 3.65238 1
genomeend 48

/* Organism #49 Fitness: 4.16515 Error: 1.95913 */
genomestart 49
trait 1 0.1 0 0 0 0 0 0 0 
trait 2 0.2 0 0 0 0 0 0 0 
trait 3 0.3 0 0 0 0 0 0 0 
node 1 3 1 3
node 2 2 1 1
node 3 2 1 1
node 4 2 0 2
gene 2 1 4 0.640735 0 1 0.640735 1
gene 2 2 4 -4.99415 0 2 -4.99415 1
gene 1 3 4 2.11425 0 3 2.11425 1
genomeend 49

/* Organism #50 Fitness: 1.06425 Error: 2.96838 */
genomestart 50
trait 1 0.1 0 0 0 0 0 0 0 
trait 2 0.2 0 0 0 0 0 0 0 
trait 3 0.3 0 0 0 0 0 0 0 
node 1 3 1 3
node 2 2 1 1
node 3 2 1 1
node 4 2 0 2
gene 2 1 4 0.785036 0 1 0.785036 1
gene 1 2 4 -3.74969 0 2 -3.74969 1
gene 1 3 4 3.87629 0 3 3.87629 1
genomeend 50

/* Organism #51 Fitness: 4.00459 Error: 1.99885 */
genomestart 51
trait 1 0.1 0 0 0 0 0 0 0 
trait 2 0.2 0 0 0 0 0 0 0 
trait 3 0.3 0 0 0 0 0 0 0 
node 1 3 1 3
node 2 2 1 1
node 3 2 1 1
node 4 2 0 2
gene 2 1 4 1.36797 0 1 1.36797 1
gene 2 2 4 -5.48584 0 2 -5.48584 1
gene 1 3 4 2.05434 0 3 2.05434 1
genomeend 51

/* Organism #52 Fitness: 3.84868 Error: 2.03819 */
genomestart 52
trait 1 0.20796 0.212733 0.0755721 0 0 0 0 0.0488112 
trait 2 0.2 0 0 0 0 0 0 0 
trait 3 0.3 0 0 0 0 0 0 0 
node 1 3 1 3
node 2 1 1 1
node 3 3 1 1
node 4 1 0 2
node 10 1 0 0
gene 1 1 4 0.0502247 0 1 0.0502247 1
gene 1 2 4 -3.65453 0 2 -3.65453 1
gene 3 3 4 1.15105 0 3 1.15105 0
gene 3 3 10 2.26462 0 14 2.26462 1
gene 3 10 4 -1.39639 0 15 -1.39639 1
genomeend 52

/* Organism #53 Fitness: 4.04222 Error: 1.98947 */
genomestart 53
trait 1 0.075 0.236695 0.0755721 0 0 0 0 0.0488112 
trait 2 0.2 0 0 0 0 0 0 0 
trait 3 0.3 0 0 0 0 0 0 0 
node 1 3 1 3
node 2 2 1 1
node 3 3 1 1
node 4 1 0 2
node 10 1 0 0
gene 1 1 4 -1.7197 0 1 -1.7197 1
gene 1 2 4 -2.57682 0 2 -2.57682 1
gene 3 3 4 0.0941966 0 3 0.0941966 0
gene 3 3 10 0.716709 0 14 0.716709 1
gene 3 10 4 0.852282 0 15 0.852282 1
genomeend 53

/* Organism #54 Fitness: 3.96985 Error: 2.00755 */
genomestart 54
trait 1 0.1 0 0 0 0 0 0 0 
trait 2 0.2 0 0 0.22134 0 0 0.413965 0 
trait 3 0.3 0 0 0 0 0 0 0 
node 1 3 1 3
node 2 2 1 1
node 3 1 1 1
node 4 3 0 2
node 13 1 0 0
gene 3 1 4 -1.89561 0 1 -1.89561 1
gene 3 2 4 -1.1136 0 2 -1.1136 1
gene 2 3 4 4.26493 0 3 4.26493 1
gene 2 3 13 -0.93403 0 22 -0.93403 1
gene 2 13 4 1.90215 0 23 1.90215 1
genomeend 54

/* Organism #55 Fitness: 4.54494 Error: 1.86811 */
genomestart 55
trait 1 0.1 0.0510765 0 0 0 0 0 0.0325408 
trait 2 0.2 0 0 0 0 0 0 0 
trait 3 0.357894 0.0499362 0 0 0 0.0830218 0 0 
node 1 3 1 3
node 2 3 1 1
node 3 2 1 1
node 4 2 0 2
node 16 1 0 0
gene 2 1 4 -1.58637 0 1 -1.58637 1
gene 3 2 4 1.20827 0 2 1.20827 1
gene 1 3 4 3.84929 0 3 3.84929 1
gene 3 2 16 -1.57456 0 30 -1.57456 1
gene 3 16 4 0.784765 0 31 0.784765 1
genomeend 55

/* Organism #56 Fitness: 2.3893 Error: 2.45426 */
genomestart 56
trait 1 0.1 0.0510765 0 0 0 0 0 0.0325408 
trait 2 0.2 0 0 0 0 0 0 0 
trait 3 0.357894 0.0499362 0 0 0 0.0830218 0 0 
node 1 3 1 3
node 2 2 1 1
node 3 2 1 1
node 4 2 0 2
node 16 1 0 0
gene 2 1 4 -1.55977 0 1 -1.55977 1
gene 3 2 4 0.206648 0 2 0.206648 0
gene 1 3 4 3.6235 0 3 3.6235 1
gene 3 2 16 -1.56852 0 30 -1.56852 1
gene 3 16 4 3.04584 0 31 3.04584 1
genomeend 56

/* Organism #57 Fitness: 9 Error: 1 */
genomestart 57
trait 1 0.1 0 0 0 0 0 0 0 
trait 2 0.2 0 0 0 0 0 0 0 
trait 3 0.3 0 0 0 0 0 0 0 
node 1 3 1 3
node 2 2 1 1
node 3 2 1 1
node 4 2 0 2
gene 2 1 4 -3.69869 0 1 -3.69869 1
gene 2 2 4 -7.62005 0 2 -7.62005 1
gene 1 3 4 8 0 3 8 1
genomeend 57

/* Organism #58 Fitness: 8.99999 Error: 1 */
genomestart 58
trait 1 0.1 0 0 0 0 0 0 0 
trait 2 0.2 0 0 0 0 0 0 0 
trait 3 0.3 0 0 0 0 0 0 0 
node 1 3 1 3
node 2 2 1 1
node 3 2 1 1
node 4 2 0 2
gene 2 1 4 -3.02218 0 1 -3.02218 1
gene 2 2 4 -6.89312 0 2 -6.89312 1
gene 1 3 4 5.96498 0 3 5.96498 1
genomeend 58

/* Organism #59 Fitness: 8.89114 Error: 1.0182 */
genomestart 59
trait 1 0.1 0 0 0 0 0 0 0 
trait 2 0.2 0 0 0 0 0 0 0 
trait 3 0.3 0 0 0 0 0 0 0 
node 1 3 1 3
node 2 2 1 1
node 3 2 1 1
node 4 2 0 2
gene 2 1 4 -1.85706 0 1 -1.85706 1
gene 2 2 4 -5.51271 0 2 -5.51271 1
gene 1 3 4 6.55868 0 3 6.55868 1
genomeend 59

/* Organism #60 Fitness: 8.99999 Error: 1 */
genomestart 60
trait 1 0.1 0 0 0 0 0 0 0 
trait 2 0.2 0 0 0 0 0 0 0 
trait 3 0.3 0 0 0 0 0 0 0 
node 1 3 1 3
node 2 2 1 1
node 3 2 1 1
node 4 2 0 2
gene 2 1 4 -3.02218 0 1 -3.02218 1
gene 2 2 4 -7.10633 0 2 -7.10633 1
gene 1 3 4 5.92678 0 3 5.92678 1
genomeend 60

/* Organism #61 Fitness: 8.99992 Error: 1.00001 */
genomestart 61
trait 1 0.1 0 0 0 0 0 0 0 
trait 2 0.2 0 0 0 0 0 0 0 
trait 3 0.3 0 0 0 0 0 0 0 
node 1 3 1 3
node 2 2 1 1
node 3 2 1 1
node 4 2 0 2
gene 2 1 4 -3.18857 0 1 -3.18857 1
gene 2 2 4 -7.10633 0 2 -7.10633 1
gene 1 3 4 8 0 3 8 1
genomeend 61

/* Organism #62 Fitness: 8.99998 Error: 1 */
genomestart 62
trait 1 0.1 0 0 0 0 0 0 0 
trait 2 0.2 0 0 0 0 0 0 0 
trait 3 0.3 0 0 0 0 0 0 0 
node 1 3 1 3
node 2 2 1 1
node 3 2 1 1
node 4 2 0 2
gene 2 1 4 -4.04663 0 1 -4.04663 1
gene 2 2 4 -6.50341 0 2 -6.50341 1
gene 1 3 4 8 0 3 8 1
genomeend 62

/* Organism #63 Fitness: 8.97307 Error: 1.00449 */
genomestart 63
trait 1 0.1 0 0 0 0 0 0 0 
trait 2 0.2 0 0 0 0 0 0 0 
trait 3 0.3 0 0 0 0 0 0 0 
node 1 3 1 3
node 2 2 1 1
node 3 2 1 1
node 4 2 0 2
gene 2 1 4 -3.17819 0 1 -3.17819 1
gene 2 2 4 -5.45092 0 2 -5.45092 1
gene 2 3 4 7.53227 0 3 7.53227 1
genomeend 63

/* Organism #64 Fitness: 8.9998 Error: 1.00003 */
genomestart 64
trait 1 0.1 0 0 0 0 0 0 0 
trait 2 0.2 0 0 0 0 0 0 0 
trait 3 0.3 0 0 0 0 0 0 0 
node 1 3 1 3
node 2 2 1 1
node 3 2 1 1
node 4 2 0 2
gene 2 1 4 -2.15989 0 1 -2.15989 1
gene 2 2 4 -5.62458 0 2 -5.62458 1
gene 1 3 4 5.43819 0 3 5.43819 1
genomeend 64

/* Organism #65 Fitness: 8.99998 Error: 1 */
genomestart 65
trait 1 0.1 0 0 0 0 0 0 0 
trait 2 0.2 0 0 0 0 0 0 0 
trait 3 0.3 0 0 0 0 0 0 0 
node 1 3 1 3
node 2 2 1 1
node 3 2 1 1
node 4 2 0 2
gene 2 1 4 -2.85668 0 1 -2.85668 1
gene 2 2 4 -8 0 2 -8 1
gene 1 3 4 5.44015 0 3 5.44015 1
genomeend 65

/* Organism #66 Fitness: 4 Error: 2 */
genomestart 66
trait 1 0.1 0 0 0 0 0 0 0 
trait 2 0.2 0 0 0 0 0 0 0 
trait 3 0.3 0 0 0 0 0 0 0 
node 1 3 1 3
node 2 2 1 1
node 3 2 1 1
node 4 2 0 2
gene 2 1 4 -3.26659 0 1 -3.26659 1
gene 2 2 4 -8 0 2 -8 1
gene 1 3 4 -0.464586 0 3 -0.464586 1
genomeend 66

/* Organism #67 Fitness: 9 Error: 1 */
genomestart 67
trait 1 0.1 0 0 0 0 0 0 0 
trait 2 0.2 0 0 0 0 0 0 0 
trait 3 0.3 0 0 0 0 0 0 0 
node 1 3 1 3
node 2 2 1 1
node 3 2 1 1
node 4 2 0 2
gene 2 1 4 -3.69869 0 1 -3.69869 1
gene 2 2 4 -7.62005 0 2 -7.62005 1
gene 1 3 4 8 0 3 8 1
genomeend 67

/* Organism #68 Fitness: 1.0752 Error: 2.96308 */
genomestart 68
trait 1 0.1 0 0 0 0 0 0 0 
trait 2 0.2 0 0 0 0 0 0 0 
trait 3 0.3 0 0 0 0 0 0 0 
node 1 3 1 3
node 2 2 1 1
node 3 2 1 1
node 4 2 0 2
gene 2 1 4 1.86691 0 1 1.86691 1
gene 2 2 4 -6.76514 0 2 -6.76514 1
gene 1 3 4 5.56112 0 3 5.56112 1
genomeend 68

/* Organism #69 Fitness: 8.99692 Error: 1.00051 */
genomestart 69
trait 1 0.1 0 0 0 0 0 0 0 
trait 2 0.2 0 0 0 0 0 0 0 
trait 3 0.3 0 0 0 0 0 0 0 
node 1 3 1 3
node 2 2 1 1
node 3 2 1 1
node 4 2 0 2
gene 2 1 4 -1.94851 0 1 -1.94851 1
gene 2 2 4 -5.35308 0 2 -5.35308 1
gene 1 3 4 5.73495 0 3 5.73495 1
genomeend 69

/* Organism #70 Fitness: 9 Error: 1 */
genomestart 70
trait 1 0.1 0 0 0 0 0 0 0 
trait 2 0.2 0 0 0 0 0 0 0 
trait 3 0.3 0 0 0 0 0 0 0 
node 1 3 1 3
node 2 2 1 1
node 3 2 1 1
node 4 2 0 2
gene 2 1 4 -5.04712 0 1 -5.04712 1
gene 2 2 4 -8 0 2 -8 1
gene 1 3 4 8 0 3 8 1
genomeend 70

/* Organism #71 Fitness: 7.86882 Error: 1.19486 */
genomestart 71
trait 1 0.1 0 0 0 0 0 0 0 
trait 2 0.2 0 0 0 0 0 0 0 
trait 3 0.3 0 0 0 0 0 0 0 
node 1 3 1 3
node 2 2 1 1
node 3 2 1 1
node 4 2 0 2
gene 2 1 4 -0.972968 0 1 -0.972968 1
gene 2 2 4 -5.23018 0 2 -5.23018 1
gene 1 3 4 5.9042 0 3 5.9042 1
genomeend 71

/* Organism #72 Fitness: 9 Error: 1 */
genomestart 72
trait 1 0.1 0 0 0 0 0 0 0 
trait 2 0.2 0 0 0 0 0 0 0 
trait 3 0.3 0 0 0 0 0 0 0 
node 1 3 1 3
node 2 2 1 1
node 3 2 1 1
node 4 2 0 2
gene 2 1 4 -2.93883 0 1 -2.93883 1
gene 2 2 4 -7.92593 0 2 -7.92593 1
gene 2 3 4 6.14303 0 3 6.14303 1
genomeend 72

/* Organism #73 Fitness: 8.9998 Error: 1.00003 */
genomestart 73
trait 1 0.1 0 0 0 0 0 0 0 
trait 2 0.2 0 0 0 0 0 0 0 
trait 3 0.3 0 0 0 0 0 0 0 
node 1 3 1 3
node 2 3 1 1
node 3 2 1 1
node 4 2 0 2
gene 2 1 4 -2.68693 0 1 -2.68693 1
gene 2 2 4 -6.24855 0 2 -6.24855 1
gene 1 3 4 6.82643 0 3 6.82643 1
genomeend 73

/* Organism #74 Fitness: 4.00962 Error: 1.9976 */
genomestart 74
trait 1 0.1 0 0 0 0 0 0 0 
trait 2 0.2 0 0 0 0 0 0 0 
trait 3 0.3 0 0 0 0 0 0 0 
node 1 2 1 3
node 2 2 1 1
node 3 2 1 1
node 4 2 0 2
gene 2 1 4 1.22409 0 1 1.22409 1
gene 2 2 4 -8 0 2 -8 1
gene 1 3 4 1.59226 0 3 1.59226 1
genomeend 74

/* Organism #75 Fitness: 6.90961 Error: 1.37139 */
genomestart 75
trait 1 0.1 0 0 0 0 0 0 0 
trait 2 0.2 0 0 0 0 0 0 0 
trait 3 0.3 0 0 0 0 0 0 0 
node 1 3 1 3
node 2 2 1 1
node 3 2 1 1
node 4 2 0 2
gene 2 1 4 -0.141245 0 1 -0.141245 1
gene 2 2 4 -7.37117 0 2 -7.37117 1
gene 1 3 4 6.85939 0 3 6.85939 1
genomeend 75

/* Organism #76 Fitness: 8.99071 Error: 1.00155 */
genomestart 76
trait 1 0.1 0 0 0 0 0 0 0 
trait 2 0.2 0 0 0 0 0 0 0 
trait 3 0.3 0 0 0 0 0 0 0 
node 1 3 1 3
node 2 2 1 1
node 3 2 1 1
node 4 2 0 2
gene 2 1 4 -1.3272 0 1 -1.3272 1
gene 2 2 4 -8 0 2 -8 1
gene 1 3 4 7.45781 0 3 7.45781 1
genomeend 76

/* Organism #77 Fitness: 9 Error: 1 */
genomestart 77
trait 1 0.1 0 0 0 0 0 0 0 
trait 2 0.2 0 0 0 0 0 0 0 
trait 3 0.3 0 0 0 0 0 0 0 
node 1 3 1 3
node 2 2 1 1
node 3 2 1 1
node 4 2 0 2
gene 2 1 4 -4.04921 0 1 -4.04921 1
gene 2 2 4 -6.84696 0 2 -6.84696 1
gene 1 3 4 7.87441 0 3 7.87441 1
genomeend 77

/* Organism #78 Fitness: 8.94409 Error: 1.00933 */
genomestart 78
trait 1 0.1 0 0 0 0 0 0 0 
trait 2 0.2 0 0 0 0 0 0 0 
trait 3 0.3 0 0 0 0 0 0 0 
node 1 3 1 3
node 2 2 1 1
node 3 2 1 1
node 4 2 0 2
gene 2 1 4 -2.73112 0 1 -2.73112 1
gene 2 2 4 -4.88712 0 2 -4.88712 1
gene 1 3 4 6.67087 0 3 6.67087 1
genomeend 78

/* Organism #79 Fitness: 8.99946 Error: 1.00009 */
genomestart 79
trait 1 0.1 0 0 0 0 0 0 0 
trait 2 0.2 0 0 0 0 0 0 0 
trait 3 0.3 0 0 0 0 0 0 0 
node 1 3 1 3
node 2 2 1 1
node 3 2 1 1
node 4 2 0 2
gene 2 1 4 -1.94568 0 1 -1.94568 1
gene 2 2 4 -6.50922 0 2 -6.50922 1
gene 1 3 4 6.26991 0 3 6.26991 1
genomeend 79

/* Organism #80 Fitness: 8.99999 Error: 1 */
genomestart 80
trait 1 0.1 0 0 0 0 0 0 0 
trait 2 0.2 0 0 0 0 0 0 0 
trait 3 0.3 0 0 0 0 0 0 0 
node 1 3 1 3
node 2 2 1 1
node 3 2 1 1
node 4 2 0 2
gene 2 1 4 -3.02218 0 1 -3.02218 1
gene 2 2 4 -7.10633 0 2 -7.10633 1
gene 1 3 4 5.9042 0 3 5.9042 1
genomeend 80

/* Species #6 : (Size 15) (AF 5.65443) (Age 6)  */


/* Organism #81 Fitness: 8.87081 Error: 1.02161 */
genomestart 81
trait 1 0.1 0 0 0 0 0 0 0 
trait 2 0.2 0 0 0.22134 0 0 0.413965 0 
trait 3 0.3 0 0 0 0 0 0 0 
node 1 3 1 3
node 2 2 1 1
node 3 1 1 1
node 4 3 0 2
node 13 1 0 0
gene 3 1 4 -2.02783 0 1 -2.02783 1
gene 3 2 4 3.281 0 2 3.281 1
gene 2 3 4 2.8075 0 3 2.8075 1
gene 2 3 13 -1.29905 0 22 -1.29905 1
gene 2 13 4 1.00648 0 23 1.00648 1
genomeend 81

/* Organism #82 Fitness: 5.68297 Error: 1.6161 */
genomestart 82
trait 1 0.1 0 0 0 0 0 0 0 
trait 2 0.2 0 0 0.11067 0 0 0.206983 0 
trait 3 0.3 0 0 0 0 0 0 0 
node 1 3 1 3
node 2 3 1 1
node 3 1 1 1
node 4 3 0 2
node 13 1 0 0
gene 3 1 4 -3.8389 0 1 -3.8389 1
gene 3 2 4 2.29894 0 2 2.29894 1
gene 2 3 4 7.46822 0 3 7.46822 0
gene 2 3 13 1.15359 0 22 1.15359 1
gene 2 13 4 7.86992 0 23 7.86992 1
genomeend 82

/* Organism #83 Fitness: 7.33251 Error: 1.29214 */
genomestart 83
trait 1 0.1 0 0 0 0 0 0 0 
trait 2 0.2 0 0 0.22134 0 0 0.413965 0 
trait 3 0.3 0 0 0 0 0 0 0 
node 1 3 1 3
node 2 2 1 1
node 3 1 1 1
node 4 3 0 2
node 13 1 0 0
gene 3 1 4 -2.02783 0 1 -2.02783 1
gene 3 2 4 1.19256 0 2 1.19256 1
gene 2 3 4 2.41416 0 3 2.41416 1
gene 2 3 13 -1.29905 0 22 -1.29905 1
gene 2 13 4 3.02991 0 23 3.02991 1
gene 2 2 13 -0.0575681 0 65 -0.0575681 1
genomeend 83

/* Organism #84 Fitness: 7.06221 Error: 1.34252 */
genomestart 84
trait 1 0.1 0 0 0 0 0 0 0 
trait 2 0.1 0 0.366512 0.61067 0 0 0.510455 0 
trait 3 0.3 0 0 0 0 0 0 0 
node 1 3 1 3
node 2 2 1 1
node 3 1 1 1
node 4 3 0 2
node 13 1 0 0
gene 3 1 4 -0.635721 0 1 -0.635721 1
gene 3 2 4 3.281 0 2 3.281 1
gene 2 3 4 2.59124 0 3 2.59124 1
gene 2 3 13 -1.29905 0 22 -1.29905 1
gene 2 13 4 1.00648 0 23 1.00648 1
genomeend 84

/* Organism #85 Fitness: 4.05192 Error: 1.98706 */
genomestart 85
trait 1 0.1 0 0 0 0 0 0 0 
trait 2 0.1 0 0.366512 0.61067 0 0 0.510455 0 
trait 3 0.3 0 0 0 0 0 0 0 
node 1 3 1 3
node 2 2 1 1
node 3 1 1 1
node 4 3 0 2
node 13 1 0 0
gene 3 1 4 -0.635721 0 1 -0.635721 1
gene 3 2 4 2.46505 0 2 2.46505 1
gene 2 3 4 2.59124 0 3 2.59124 1
gene 2 3 13 -1.29905 0 22 -1.29905 1
gene 2 13 4 3.02991 0 23 3.02991 1
genomeend 85

/* Organism #86 Fitness: 8.17397 Error: 1.14098 */
genomestart 86
trait 1 0.1 0 0 0 0 0 0 0 
trait 2 0.1 0 0.366512 0.555335 0 0 0.406964 0 
trait 3 0.3 0 0 0 0 0 0 0 
node 1 3 1 3
node 2 2 1 1
node 3 1 1 1
node 4 3 0 2
node 13 1 0 0
gene 3 1 4 -1.83053 0 1 -1.83053 1
gene 3 2 4 1.93168 0 2 1.93168 1
gene 2 3 4 4.14774 0 3 4.14774 1
gene 2 3 13 0.290758 0 22 0.290758 1
gene 2 13 4 2.92558 0 23 2.92558 1
genomeend 86

/* Organism #87 Fitness: 4.00317 Error: 1.99921 */
genomestart 87
trait 1 0.1 0 0 0 0 0 0 0 
trait 2 0.1 0 0.366512 0.61067 0 0 0.510455 0 
trait 3 0.3 0 0 0 0 0 0 0 
node 1 3 1 3
node 2 2 1 1
node 3 1 1 1
node 4 3 0 2
node 13 1 0 0
gene 3 1 4 1.23093 0 1 1.23093 1
gene 3 2 4 5.57143 0 2 5.57143 1
gene 2 3 4 1.32228 0 3 1.32228 1
gene 2 3 13 -0.722087 0 22 -0.722087 1
gene 2 13 4 0.43588 0 23 0.43588 1
genomeend 87

/* Organism #88 Fitness: 8.33372 Error: 1.11318 */
genomestart 88
trait 1 0.1 0 0 0 0 0 0 0 
trait 2 0.2 0 0 0.22134 0 0 0.413965 0 
trait 3 0.3 0 0 0 0 0 0 0 
node 1 3 1 3
node 2 2 1 1
node 3 1 1 1
node 4 3 0 2
node 13 1 0 0
gene 2 1 4 -1.93331 0 1 -1.93331 1
gene 3 2 4 2.20942 0 2 2.20942 1
gene 2 3 4 3.89976 0 3 3.89976 1
gene 2 3 13 0.809435 0 22 0.809435 1
gene 2 13 4 3.02991 0 23 3.02991 1
genomeend 88

/* Organism #89 Fitness: 3.87226 Error: 2.03219 */
genomestart 89
trait 1 0.1 0 0 0 0 0 0 0 
trait 2 0.2 0 0 0.22134 0 0 0.413965 0 
trait 3 0.3 0 0 0 0 0 0 0 
node 1 3 1 3
node 2 2 1 1
node 3 1 1 1
node 4 3 0 2
node 13 1 0 0
gene 3 1 4 0.0674054 0 1 0.0674054 1
gene 3 2 4 3.39305 0 2 3.39305 1
gene 2 3 4 0.620209 0 3 0.620209 1
gene 2 3 13 -3.25772 0 22 -3.25772 1
gene 2 13 4 2.91871 0 23 2.91871 1
genomeend 89

/* Organism #90 Fitness: 4.0232 Error: 1.99421 */
genomestart 90
trait 1 0.1 0 0 0 0 0 0 0 
trait 2 0.2 0 0 0.166005 0 0 0.310474 0 
trait 3 0.3 0 0 0 0 0 0 0 
node 1 3 1 3
node 2 2 1 1
node 3 1 1 1
node 4 3 0 2
node 13 1 0 0
gene 3 1 4 -2.02783 0 1 -2.02783 1
gene 3 2 4 3.281 0 2 3.281 1
gene 2 3 4 5.70423 0 3 5.70423 0
gene 2 3 13 2.28067 0 22 2.28067 1
gene 2 13 4 1.00648 0 23 1.00648 1
genomeend 90

/* Organism #91 Fitness: 3.72505 Error: 2.06996 */
genomestart 91
trait 1 0 0 0 0 0.66803 0 0 0 
trait 2 0.2 0 0 0.22134 0 0 0.413965 0 
trait 3 0.3 0 0 0 0 0 0 0 
node 1 3 1 3
node 2 2 1 1
node 3 1 1 1
node 4 3 0 2
node 13 1 0 0
gene 3 1 4 -2.91031 0 1 -2.91031 1
gene 3 2 4 1.21777 0 2 1.21777 1
gene 2 3 4 1.16786 0 3 1.16786 1
gene 2 3 13 -1.91055 0 22 -1.91055 1
gene 2 13 4 -0.930759 0 23 -0.930759 1
genomeend 91

/* Organism #92 Fitness: 2.4967 Error: 2.4199 */
genomestart 92
trait 1 0.1 0 0 0 0 0 0 0 
trait 2 0.2 0 0 0.22134 0 0 0.413965 0 
trait 3 0.3 0 0 0 0 0 0 0 
node 1 3 1 3
node 2 2 1 1
node 3 1 1 1
node 4 3 0 2
node 13 1 0 0
gene 3 1 4 -3.99207 0 1 -3.99207 1
gene 3 2 4 1.452 0 2 1.452 1
gene 2 3 4 4.05724 0 3 4.05724 1
gene 2 3 13 -1.78367 0 22 -1.78367 1
gene 2 13 4 -0.135211 0 23 -0.135211 1
genomeend 92

/* Organism #93 Fitness: 3.87539 Error: 2.0314 */
genomestart 93
trait 1 0.1 0 0 0 0 0 0 0 
trait 2 0.2 0 0 0.22134 0 0 0.413965 0 
trait 3 0.3 0 0 0 0 0 0 0 
node 1 3 1 3
node 2 2 1 1
node 3 1 1 1
node 4 3 0 2
node 13 1 0 0
gene 3 1 4 -3.1182 0 1 -3.1182 1
gene 3 2 4 3.281 0 2 3.281 1
gene 2 3 4 3.55484 0 3 3.55484 1
gene 2 3 13 -3.29613 0 22 -3.29613 1
gene 2 13 4 -1.35831 0 23 -1.35831 1
genomeend 93

/* Organism #94 Fitness: 8.87655 Error: 1.02065 */
genomestart 94
trait 1 0.1 0 0 0 0 0 0 0 
trait 2 0.1 0 0.366512 0.61067 0 0 0.510455 0 
trait 3 0.3 0 0 0 0 0 0 0 
node 1 3 1 3
node 2 2 1 1
node 3 1 1 1
node 4 3 0 2
node 13 1 0 0
gene 3 1 4 -0.121903 0 1 -0.121903 1
gene 3 2 4 3.92564 0 2 3.92564 1
gene 3 3 4 4.02904 0 3 4.02904 1
gene 2 3 13 -3.00326 0 22 -3.00326 1
gene 2 13 4 -1.32369 0 23 -1.32369 1
genomeend 94

/* Organism #95 Fitness: 4.43596 Error: 1.89383 */
genomestart 95
trait 1 0.1 0 0 0 0 0 0 0 
trait 2 0 0 0 0.22134 0 0 0.659666 0.0330807 
trait 3 0.3 0 0 0 0 0 0 0 
node 1 3 1 3
node 2 2 1 1
node 3 1 1 1
node 4 3 0 2
node 13 1 0 0
gene 3 1 4 -3.03721 0 1 -3.03721 1
gene 3 2 4 2.50607 0 2 2.50607 1
gene 2 3 4 3.16382 0 3 3.16382 1
gene 2 3 13 -3.47465 0 22 -3.47465 1
gene 2 13 4 0.989279 0 23 0.989279 1
genomeend 95

/* Species #9 : (Size 15) (AF 5.82575) (Age 5)  */


/* Organism #96 Fitness: 8.99558 Error: 1.00074 */
genomestart 96
trait 1 0.1 0.0510765 0 0 0 0 0 0.0325408 
trait 2 0.2 0 0 0 0 0 0 0 
trait 3 0.357894 0.0499362 0 0 0 0.0830218 0 0 
node 1 3 1 3
node 2 2 1 1
node 3 2 1 1
node 4 2 0 2
node 16 1 0 0
gene 2 1 4 -0.34477 0 1 -0.34477 1
gene 3 2 4 3.44844 0 2 3.44844 1
gene 1 3 4 5.09176 0 3 5.09176 1
gene 3 2 16 -2.04282 0 30 -2.04282 1
gene 3 16 4 -2.24032 0 31 -2.24032 1
genomeend 96

/* Organism #97 Fitness: 3.66728 Error: 2.08498 */
genomestart 97
trait 1 0.1 0.0510765 0 0 0 0 0 0.0325408 
trait 2 0.2 0 0 0 0 0 0 0 
trait 3 0.357894 0.0499362 0 0 0 0.0830218 0 0 
node 1 3 1 3
node 2 2 1 1
node 3 2 1 1
node 4 2 0 2
node 16 1 0 0
gene 2 1 4 -2.56552 0 1 -2.56552 1
gene 3 2 4 1.99758 0 2 1.99758 0
gene 1 3 4 4.26698 0 3 4.26698 1
gene 3 2 16 -1.04413 0 30 -1.04413 1
gene 3 16 4 -2.43902 0 31 -2.43902 1
genomeend 97

/* Organism #98 Fitness: 8.71661 Error: 1.04761 */
genomestart 98
trait 1 0.1 0.0510765 0 0 0 0 0 0.0325408 
trait 2 0.2 0 0 0 0 0 0 0 
trait 3 0.357894 0.0499362 0 0 0 0.0830218 0 0 
node 1 3 1 3
node 2 2 1 1
node 3 2 1 1
node 4 2 0 2
node 16 1 0 0
gene 2 1 4 0.511761 0 1 0.511761 1
gene 3 2 4 3.44844 0 2 3.44844 1
gene 1 3 4 6.22324 0 3 6.22324 1
gene 3 2 16 -1.62345 0 30 -1.62345 1
gene 3 16 4 -2.24032 0 31 -2.24032 1
genomeend 98

/* Organism #99 Fitness: 4.00053 Error: 1.99987 */
genomestart 99
trait 1 0.1 0.0510765 0 0 0 0 0 0.0325408 
trait 2 0.2 0 0 0 0 0 0 0 
trait 3 0.357894 0.0499362 0 0 0 0.0830218 0 0 
node 1 3 1 3
node 2 2 1 1
node 3 1 1 1
node 4 2 0 2
node 16 1 0 0
gene 2 1 4 -2.19633 0 1 -2.19633 1
gene 3 2 4 1.54874 0 2 1.54874 0
gene 1 3 4 6.13873 0 3 6.13873 1
gene 1 2 16 0.702777 0 30 0.702777 1
gene 3 16 4 0.477686 0 31 0.477686 1
genomeend 99

/* Organism #100 Fitness: 4.04103 Error: 1.98977 */
genomestart 100
trait 1 0.1 0.0510765 0 0 0 0 0 0.0325408 
trait 2 0.2 0 0 0 0 0 0 0 
trait 3 0.357894 0.0499362 0 0 0 0.0830218 0 0 
node 1 3 1 3
node 2 2 1 1
node 3 2 1 1
node 4 2 0 2
node 16 1 0 0
gene 2 1 4 -5.41907 0 1 -5.41907 1
gene 3 2 4 4.31005 0 2 4.31005 0
gene 1 3 4 5.86091 0 3 5.86091 1
gene 3 2 16 3.80515 0 30 3.80515 1
gene 3 16 4 4.49065 0 31 4.49065 1
genomeend 100

/* Organism #101 Fitness: 8.99558 Error: 1.00074 */
genomestart 101
trait 1 0.1 0.0510765 0 0 0 0 0 0.0325408 
trait 2 0.2 0 0 0 0 0 0 0 
trait 3 0.357894 0.0499362 0 0 0 0.0830218 0 0 
node 1 3 1 3
node 2 2 1 1
node 3 2 1 1
node 4 2 0 2
node 16 1 0 0
gene 2 1 4 -0.34477 0 1 -0.34477 1
gene 3 2 4 3.44844 0 2 3.44844 1
gene 1 3 4 5.09176 0 3 5.09176 1
gene 3 2 16 -2.04282 0 30 -2.04282 1
gene 3 16 4 -2.24032 0 31 -2.24032 1
genomeend 101

/* Organism #102 Fitness: 3.92358 Error: 2.0192 */
genomestart 102
trait 1 0.1 0.0510765 0 0 0 0 0 0.0325408 
trait 2 0.2 0 0 0 0 0 0 0 
trait 3 0.357894 0.0499362 0 0 0 0.0830218 0 0 
node 1 3 1 3
node 2 2 1 1
node 3 2 1 1
node 4 2 0 2
node 16 1 0 0
gene 2 1 4 -2.63633 0 1 -2.63633 1
gene 3 2 4 4.25337 0 2 4.25337 0
gene 1 3 4 3.66078 0 3 3.66078 1
gene 3 2 16 -0.945708 0 30 -0.945708 1
gene 3 16 4 -0.573621 0 31 -0.573621 1
genomeend 102

/* Organism #103 Fitness: 1.00219 Error: 2.9989 */
genomestart 103
trait 1 0.1 0.0510765 0 0 0 0 0 0.0325408 
trait 2 0.2 0 0 0 0 0 0 0 
trait 3 0.357894 0.0499362 0 0 0 0.0830218 0 0 
node 1 2 1 3
node 2 3 1 1
node 3 2 1 1
node 4 2 0 2
node 16 1 0 0
gene 2 1 4 -4.65798 0 1 -4.65798 1
gene 3 2 4 4.25043 0 2 4.25043 1
gene 1 3 4 4.25231 0 3 4.25231 1
gene 3 2 16 1.19424 0 30 1.19424 1
gene 3 16 4 -2.00403 0 31 -2.00403 1
genomeend 103

/* Organism #104 Fitness: 2.5253 Error: 2.41088 */
genomestart 104
trait 1 0.1 0.0510765 0 0 0 0 0 0.0325408 
trait 2 0.2 0 0 0 0 0 0 0 
trait 3 0.357894 0.0499362 0 0 0 0.0830218 0 0 
node 1 3 1 3
node 2 3 1 1
node 3 2 1 1
node 4 2 0 2
node 16 1 0 0
gene 2 1 4 -4.11107 0 1 -4.11107 1
gene 3 2 4 5.87453 0 2 5.87453 1
gene 1 3 4 1.93636 0 3 1.93636 1
gene 3 2 16 0.267962 0 30 0.267962 1
gene 3 16 4 -2.14209 0 31 -2.14209 1
genomeend 104

/* Organism #105 Fitness: 7.99368 Error: 1.17269 */
genomestart 105
trait 1 0.1 0.0510765 0 0 0 0 0 0.0325408 
trait 2 0.2 0 0 0 0 0 0 0 
trait 3 0.357894 0.0499362 0 0 0 0.0830218 0 0 
node 1 3 1 3
node 2 2 1 1
node 3 2 1 1
node 4 2 0 2
node 16 1 0 0
gene 2 1 4 0.420769 0 1 0.420769 1
gene 3 2 4 3.34647 0 2 3.34647 1
gene 1 3 4 4.95926 0 3 4.95926 1
gene 3 2 16 -3.93699 0 30 -3.93699 1
gene 3 16 4 -1.47785 0 31 -1.47785 1
genomeend 105

/* Organism #106 Fitness: 8.9411 Error: 1.00983 */
genomestart 106
trait 1 0.1 0.0510765 0 0 0 0 0 0.0325408 
trait 2 0.2 0 0 0 0 0 0 0 
trait 3 0.357894 0.0499362 0 0 0 0.0830218 0 0 
node 1 3 1 3
node 2 3 1 1
node 3 2 1 1
node 4 2 0 2
node 16 1 0 0
gene 2 1 4 -3.3049 0 1 -3.3049 1
gene 3 2 4 5.88932 0 2 5.88932 1
gene 1 3 4 2.80965 0 3 2.80965 1
gene 3 2 16 1.89046 0 30 1.89046 1
gene 3 16 4 2.86791 0 31 2.86791 1
genomeend 106

/* Organism #107 Fitness: 7.50624 Error: 1.26025 */
genomestart 107
trait 1 0.1 0.0510765 0 0 0 0 0 0.0325408 
trait 2 0.2 0 0 0 0 0 0 0 
trait 3 0.357894 0.0499362 0 0 0 0.0830218 0 0 
node 1 3 1 3
node 2 2 1 1
node 3 2 1 1
node 4 2 0 2
node 16 1 0 0
gene 2 1 4 0.267593 0 1 0.267593 1
gene 3 2 4 5.51895 0 2 5.51895 1
gene 1 3 4 3.68798 0 3 3.68798 1
gene 3 2 16 2.09159 0 30 2.09159 1
gene 3 16 4 -0.959482 0 31 -0.959482 1
genomeend 107

/* Organism #108 Fitness: 8.99558 Error: 1.00074 */
genomestart 108
trait 1 0.1 0.0510765 0 0 0 0 0 0.0325408 
trait 2 0.2 0 0 0 0 0 0 0 
trait 3 0.357894 0.0499362 0 0 0 0.0830218 0 0 
node 1 3 1 3
node 2 2 1 1
node 3 2 1 1
node 4 2 0 2
node 16 1 0 0
gene 2 1 4 -0.34477 0 1 -0.34477 1
gene 3 2 4 3.44844 0 2 3.44844 1
gene 1 3 4 5.09176 0 3 5.09176 1
gene 3 2 16 -2.04282 0 30 -2.04282 1
gene 3 16 4 -2.24032 0 31 -2.24032 1
genomeend 108

/* Organism #109 Fitness: 3.97672 Error: 2.00583 */
genomestart 109
trait 1 0.1 0.0510765 0 0 0 0 0 0.0325408 
trait 2 0.2 0 0 0 0 0 0 0 
trait 3 0.357894 0.0499362 0 0 0 0.0830218 0 0 
node 1 3 1 3
node 2 2 1 1
node 3 2 1 1
node 4 2 0 2
node 16 1 0 0
gene 2 1 4 -2.31251 0 1 -2.31251 1
gene 3 2 4 2.44371 0 2 2.44371 1
gene 1 3 4 3.57449 0 3 3.57449 1
gene 3 2 16 -1.62345 0 30 -1.62345 1
gene 3 16 4 -2.795 0 31 -2.795 1
genomeend 109

/* Organism #110 Fitness: 4.1052 Error: 1.97387 */
genomestart 110
trait 1 0.1 0.0510765 0 0 0 0 0 0.0325408 
trait 2 0.2 0 0 0 0 0 0 0 
trait 3 0.357894 0.943984 0.00744764 0.932448 0.295916 0.0830218 0 0 
node 1 3 1 3
node 2 2 1 1
node 3 2 1 1
node 4 2 0 2
node 16 1 0 0
gene 2 1 4 -4.25787 0 1 -4.25787 1
gene 3 2 4 0.57713 0 2 0.57713 0
gene 1 3 4 2.09766 0 3 2.09766 1
gene 1 2 16 0.0490083 0 30 0.0490083 1
gene 3 16 4 6.41727 0 31 6.41727 1
genomeend 110

/* Species #10 : (Size 16) (AF 4.92928) (Age 4)  */


/* Organism #111 Fitness: 8.46558 Error: 1.09043 */
genomestart 111
trait 1 0.1 0.0510765 0 0 0 0 0 0.0325408 
trait 2 0.2 0 0 0 0 0 0 0 
trait 3 0.3 0 0 0 0 0 0 0 
node 1 3 1 3
node 2 1 1 1
node 3 3 1 1
node 4 1 0 2
node 12 1 0 0
gene 1 1 4 -2.09407 0 1 -2.09407 1
gene 1 2 4 -0.108377 0 2 -0.108377 0
gene 2 3 4 0.40237 0 3 0.40237 1
gene 1 2 12 1.79351 0 20 1.79351 1
gene 1 12 4 2.62098 0 21 2.62098 1
gene 2 3 12 1.35767 0 41 1.35767 1
genomeend 111

/* Organism #112 Fitness: 3.9982 Error: 2.00045 */
genomestart 112
trait 1 0.1 0.0510765 0 0 0 0 0 0.0325408 
trait 2 0.2 0 0 0 0 0 0 0 
trait 3 0.3 0 0 0 0 0 0 0 
node 1 3 1 3
node 2 1 1 1
node 3 3 1 1
node 4 1 0 2
node 12 1 0 0
gene 1 1 4 -0.70478 0 1 -0.70478 1
gene 1 2 4 0.779568 0 2 0.779568 0
gene 2 3 4 -0.0790721 0 3 -0.0790721 1
gene 1 2 12 4.52369 0 20 4.52369 1
gene 1 12 4 -1.71316 0 21 -1.71316 1
gene 2 3 12 2.24614 0 41 2.24614 1
genomeend 112

/* Organism #113 Fitness: 4 Error: 2 */
genomestart 113
trait 1 0.1 0.0510765 0 0 0 0 0 0.0325408 
trait 2 0.2 0 0 0 0 0 0 0 
trait 3 0.3 0 0 0 0 0 0 0 
node 1 3 1 3
node 2 1 1 1
node 3 2 1 1
node 4 1 0 2
node 12 1 0 0
gene 1 1 4 -3.34668 0 1 -3.34668 1
gene 1 2 4 -1.83313 0 2 -1.83313 0
gene 2 3 4 -2.14957 0 3 -2.14957 1
gene 1 2 12 4.48921 0 20 4.48921 1
gene 1 12 4 0.115244 0 21 0.115244 1
gene 2 3 12 0.988472 0 41 0.988472 1
genomeend 113

/* Organism #114 Fitness: 4.03294 Error: 1.99178 */
genomestart 114
trait 1 0.1 0.0510765 0 0 0 0 0 0.0325408 
trait 2 0.2 0 0 0 0 0 0 0 
trait 3 0.3 0 0 0 0 0 0 0 
node 1 3 1 3
node 2 1 1 1
node 3 3 1 1
node 4 1 0 2
node 12 1 0 0
gene 1 1 4 -2.07043 0 1 -2.07043 1
gene 1 2 4 1.18472 0 2 1.18472 0
gene 2 3 4 -1.11554 0 3 -1.11554 1
gene 1 2 12 2.29363 0 20 2.29363 1
gene 1 12 4 1.11093 0 21 1.11093 1
gene 2 3 12 1.43158 0 41 1.43158 1
genomeend 114

/* Organism #115 Fitness: 4.00467 Error: 1.99883 */
genomestart 115
trait 1 0.1 0.0510765 0 0 0 0 0 0.0325408 
trait 2 0.2 0 0 0 0 0 0 0 
trait 3 0.3 0 0 0 0 0 0 0 
node 1 3 1 3
node 2 1 1 1
node 3 3 1 1
node 4 1 0 2
node 12 1 0 0
gene 1 1 4 0.691643 0 1 0.691643 1
gene 1 2 4 1.37869 0 2 1.37869 0
gene 2 3 4 -3.05661 0 3 -3.05661 1
gene 1 2 12 5.40849 0 20 5.40849 1
gene 1 12 4 1.27071 0 21 1.27071 1
gene 2 3 12 0.980648 0 41 0.980648 1
genomeend 115

/* Organism #116 Fitness: 4.44605 Error: 1.89143 */
genomestart 116
trait 1 0.1 0.0510765 0 0 0 0 0 0.0325408 
trait 2 0.2 0 0 0 0 0 0 0 
trait 3 0.3 0 0 0 0 0 0 0 
node 1 3 1 3
node 2 1 1 1
node 3 3 1 1
node 4 1 0 2
node 12 1 0 0
gene 1 1 4 -1.55469 0 1 -1.55469 1
gene 1 2 4 -0.532197 0 2 -0.532197 1
gene 2 3 4 -0.0341433 0 3 -0.0341433 1
gene 1 2 12 0.650477 0 20 0.650477 1
gene 1 12 4 3.51848 0 21 3.51848 1
gene 2 3 12 -0.64538 0 41 -0.64538 1
genomeend 116

/* Organism #117 Fitness: 4.19642 Error: 1.95148 */
genomestart 117
trait 1 0.1 0.0510765 0 0 0 0 0 0.0325408 
trait 2 0.2 0 0 0 0 0 0 0 
trait 3 0.3 0 0 0 0 0 0 0 
node 1 3 1 3
node 2 1 1 1
node 3 3 1 1
node 4 1 0 2
node 12 1 0 0
gene 1 1 4 -0.543337 0 1 -0.543337 1
gene 1 2 4 -2.89849 0 2 -2.89849 0
gene 2 3 4 -3.05661 0 3 -3.05661 1
gene 1 2 12 3.86616 0 20 3.86616 1
gene 1 12 4 2.29348 0 21 2.29348 1
gene 2 3 12 1.23628 0 41 1.23628 1
genomeend 117

/* Organism #118 Fitness: 5.32236 Error: 1.69298 */
genomestart 118
trait 1 0.289243 0.0510765 0 0 0.712363 0 0 0 
trait 2 0.2 0 0 0 0 0 0 0 
trait 3 0.3 0 0 0 0 0 0 0 
node 1 3 1 3
node 2 1 1 1
node 3 3 1 1
node 4 1 0 2
node 12 1 0 0
gene 1 1 4 -3.41278 0 1 -3.41278 1
gene 1 2 4 -2.1659 0 2 -2.1659 0
gene 2 3 4 -0.763037 0 3 -0.763037 1
gene 1 2 12 3.79043 0 20 3.79043 1
gene 1 12 4 3.2476 0 21 3.2476 1
gene 2 3 12 3.46146 0 41 3.46146 1
genomeend 118

/* Organism #119 Fitness: 8.46629 Error: 1.09031 */
genomestart 119
trait 1 0.1 0.0510765 0 0 0 0 0 0.0325408 
trait 2 0.2 0 0 0 0 0 0 0 
trait 3 0.3 0 0 0 0 0 0 0 
node 1 3 1 3
node 2 1 1 1
node 3 3 1 1
node 4 1 0 2
node 12 1 0 0
gene 1 1 4 -2.09407 0 1 -2.09407 1
gene 1 2 4 -0.108377 0 2 -0.108377 0
gene 2 3 4 0.40237 0 3 0.40237 1
gene 1 2 12 3.79043 0 20 3.79043 1
gene 1 12 4 2.62098 0 21 2.62098 1
gene 2 3 12 1.35767 0 41 1.35767 1
genomeend 119

/* Organism #120 Fitness: 4.2455 Error: 1.93954 */
genomestart 120
trait 1 0.1 0.0510765 0 0 0 0 0 0.0325408 
trait 2 0.2 0 0 0 0 0 0 0 
trait 3 0.3 0 0 0 0 0 0 0 
node 1 3 1 3
node 2 1 1 1
node 3 3 1 1
node 4 1 0 2
node 12 1 0 0
gene 1 1 4 -1.51068 0 1 -1.51068 1
gene 1 2 4 -0.504815 0 2 -0.504815 0
gene 2 3 4 -0.253839 0 3 -0.253839 1
gene 1 2 12 1.21369 0 20 1.21369 1
gene 1 12 4 0.978172 0 21 0.978172 1
gene 2 3 12 2.23093 0 41 2.23093 1
genomeend 120

/* Organism #121 Fitness: 7.03547 Error: 1.34755 */
genomestart 121
trait 1 0.1 0.0510765 0 0 0 0 0 0.0325408 
trait 2 0.2 0 0 0 0 0 0 0 
trait 3 0.3 0 0 0 0 0 0 0 
node 1 3 1 3
node 2 1 1 1
node 3 3 1 1
node 4 1 0 2
node 12 1 0 0
gene 1 1 4 -0.927295 0 1 -0.927295 1
gene 1 2 4 1.65428 0 2 1.65428 0
gene 2 3 4 -3.05661 0 3 -3.05661 1
gene 1 2 12 3.79043 0 20 3.79043 1
gene 1 12 4 1.27071 0 21 1.27071 1
gene 2 3 12 1.26139 0 41 1.26139 1
genomeend 121

/* Organism #122 Fitness: 2.61554 Error: 2.38274 */
genomestart 122
trait 1 0.1 0.0510765 0 0 0 0 0 0.0325408 
trait 2 0.2 0 0 0 0 0 0 0 
trait 3 0.3 0 0 0 0 0 0 0 
node 1 3 1 3
node 2 1 1 1
node 3 3 1 1
node 4 1 0 2
node 12 1 0 0
gene 1 1 4 0.865484 0 1 0.865484 1
gene 1 2 4 1.60843 0 2 1.60843 0
gene 2 3 4 -1.68776 0 3 -1.68776 1
gene 1 2 12 3.18474 0 20 3.18474 1
gene 1 12 4 1.02687 0 21 1.02687 1
gene 2 3 12 0.150515 0 41 0.150515 1
genomeend 122

/* Organism #123 Fitness: 3.99913 Error: 2.00022 */
genomestart 123
trait 1 0.1 0.0510765 0 0 0 0 0 0.0325408 
trait 2 0.2 0 0 0 0 0 0 0 
trait 3 0.3 0 0 0 0 0 0 0 
node 1 3 1 3
node 2 1 1 1
node 3 3 1 1
node 4 1 0 2
node 12 1 0 0
gene 1 1 4 -1.01531 0 1 -1.01531 1
gene 1 2 4 -0.295136 0 2 -0.295136 0
gene 2 3 4 -3.24232 0 3 -3.24232 1
gene 1 2 12 1.10129 0 20 1.10129 1
gene 1 12 4 -1.37789 0 21 -1.37789 1
gene 2 3 12 1.26392 0 41 1.26392 1
genomeend 123

/* Organism #124 Fitness: 3.3473 Error: 2.17044 */
genomestart 124
trait 1 0.1 0.0510765 0 0 0 0 0 0.0325408 
trait 2 0.2 0 0 0 0 0 0 0 
trait 3 0.3 0 0 0 0 0 0 0 
node 1 3 1 3
node 2 1 1 1
node 3 3 1 1
node 4 1 0 2
node 12 1 0 0
gene 1 1 4 1.02987 0 1 1.02987 1
gene 1 2 4 -0.654508 0 2 -0.654508 0
gene 2 3 4 -3.34433 0 3 -3.34433 1
gene 2 2 12 4.51997 0 20 4.51997 1
gene 1 12 4 -0.76037 0 21 -0.76037 1
gene 2 3 12 -1.0721 0 41 -1.0721 1
genomeend 124

/* Organism #125 Fitness: 3.98396 Error: 2.00402 */
genomestart 125
trait 1 0.1 0.0510765 0 0 0 0 0 0.0325408 
trait 2 0.2 0 0 0 0 0 0 0 
trait 3 0.3 0 0 0 0 0 0 0 
node 1 3 1 3
node 2 1 1 1
node 3 3 1 1
node 4 1 0 2
node 12 1 0 0
gene 1 1 4 -1.8498 0 1 -1.8498 1
gene 1 2 4 0.866796 0 2 0.866796 0
gene 2 3 4 0.269619 0 3 0.269619 1
gene 1 2 12 4.69058 0 20 4.69058 1
gene 1 12 4 0.525446 0 21 0.525446 1
gene 2 3 12 -0.794882 0 41 -0.794882 1
genomeend 125

/* Organism #126 Fitness: 6.70907 Error: 1.40981 */
genomestart 126
trait 1 0.1 0.0510765 0 0 0 0 0 0.0325408 
trait 2 0.2 0 0 0 0 0 0 0 
trait 3 0.3 0 0 0 0 0 0 0 
node 1 3 1 3
node 2 1 1 1
node 3 3 1 1
node 4 1 0 2
node 12 1 0 0
gene 1 1 4 -1.01531 0 1 -1.01531 1
gene 1 2 4 1.65428 0 2 1.65428 0
gene 2 3 4 -3.05661 0 3 -3.05661 1
gene 1 2 12 3.10834 0 20 3.10834 1
gene 1 12 4 1.18943 0 21 1.18943 1
gene 2 3 12 1.26139 0 41 1.26139 1
genomeend 126

/* Species #11 : (Size 1) (AF 4.77364) (Age 3)  */


/* Organism #127 Fitness: 4.77364 Error: 1.81513 */
genomestart 127
trait 1 0.1 0 0 0 0 0 0 0 
trait 2 0.2 0 0 0 0 0 0 0 
trait 3 0.3 0 0 0 0 0 0 0 
node 1 3 1 3
node 2 2 1 1
node 3 2 1 1
node 4 2 0 2
node 27 1 0 0
gene 2 1 4 -3.69869 0 1 -3.69869 1
gene 2 2 4 -7.62005 0 2 -7.62005 1
gene 1 3 4 8 0 3 8 0
gene 1 3 27 1 0 66 0 1
gene 1 27 4 8 0 67 0 1
genomeend 127

/* Species #12 : (Size 18) (AF 5.601) (Age 3)  */


/* Organism #128 Fitness: 8.99652 Error: 1.00058 */
genomestart 128
trait 1 0.1 0 0 0 0 0 0 0 
trait 2 0.2 0 0 0 0 0 0 0 
trait 3 0.3 0 0 0 0 0 0 0 
node 1 3 1 3
node 2 2 1 1
node 3 2 1 1
node 4 2 0 2
node 21 1 0 0
gene 2 1 4 -1.59421 0 1 -1.59421 1
gene 1 2 4 3.32103 0 2 3.32103 1
gene 3 3 4 -2.20965 0 3 -2.20965 0
gene 3 3 21 1.77507 0 46 1.77507 1
gene 1 21 4 -5.30999 0 47 -5.30999 1
gene 3 2 21 -0.643975 0 51 -0.643975 1
genomeend 128

/* Organism #129 Fitness: 4 Error: 2 */
genomestart 129
trait 1 0.1 0 0 0 0 0 0 0 
trait 2 0.2 0 0 0 0 0 0 0 
trait 3 0.3 0 0 0 0 0 0 0 
node 1 1 1 3
node 2 2 1 1
node 3 2 1 1
node 4 2 0 2
node 21 1 0 0
node 26 1 0 0
gene 2 1 4 -3.72309 0 1 -3.72309 1
gene 1 2 4 -1.55306 0 2 -1.55306 1
gene 3 3 4 2.41928 0 3 2.41928 0
gene 3 3 21 -0.985459 0 46 -0.985459 1
gene 3 21 4 -5.20764 0 47 -5.20764 1
gene 3 2 21 -0.727322 0 51 -0.727322 0
gene 3 2 26 2.34227 0 63 2.34227 1
gene 3 26 21 1.27857 0 64 1.27857 1
genomeend 129

/* Organism #130 Fitness: 4.02103 Error: 1.99475 */
genomestart 130
trait 1 0.1 0 0 0 0 0 0 0 
trait 2 0.2 0 0 0 0 0 0 0 
trait 3 0.3 0 0 0 0 0 0 0 
node 1 3 1 3
node 2 2 1 1
node 3 2 1 1
node 4 2 0 2
node 21 1 0 0
gene 2 1 4 -3.26633 0 1 -3.26633 1
gene 1 2 4 7.47206 0 2 7.47206 1
gene 3 3 4 -3.13386 0 3 -3.13386 1
gene 3 3 21 1 0 46 1 1
gene 3 21 4 -4.40412 0 47 -4.40412 1
gene 3 2 21 -2.31093 0 51 -2.31093 1
genomeend 130

/* Organism #131 Fitness: 8.93048 Error: 1.01161 */
genomestart 131
trait 1 0.1 0 0 0 0 0 0 0 
trait 2 0.2 0 0 0 0 0 0 0 
trait 3 0.3 0 0 0 0 0 0 0 
node 1 3 1 3
node 2 2 1 1
node 3 2 1 1
node 4 2 0 2
node 21 1 0 0
node 26 1 0 0
gene 2 1 4 -2.31251 0 1 -2.31251 1
gene 1 2 4 5.11504 0 2 5.11504 1
gene 3 3 4 -3.87954 0 3 -3.87954 0
gene 3 3 21 1 0 46 0 1
gene 3 21 4 -3.87954 0 47 0 1
gene 3 2 21 -0.381931 0 51 -0.381931 0
gene 3 2 26 1 0 63 0 1
gene 3 26 21 -0.381931 0 64 0 1
genomeend 131

/* Organism #132 Fitness: 4.00013 Error: 1.99997 */
genomestart 132
trait 1 0.1 0 0 0 0 0 0 0 
trait 2 0.2 0 0 0 0 0 0 0 
trait 3 0.3 0 0 0 0 0 0 0 
node 1 3 1 3
node 2 2 1 1
node 3 2 1 1
node 4 2 0 2
node 21 1 0 0
gene 2 1 4 -2.45127 0 1 -2.45127 1
gene 1 2 4 3.97926 0 2 3.97926 1
gene 3 3 4 -0.361578 0 3 -0.361578 0
gene 3 3 21 1.50462 0 46 1.50462 1
gene 1 21 4 -3.38506 0 47 -3.38506 1
gene 3 2 21 -2.65042 0 51 -2.65042 1
genomeend 132

/* Organism #133 Fitness: 4 Error: 2 */
genomestart 133
trait 1 0.1 0 0 0 0 0 0 0 
trait 2 0.2 0 0 0 0 0 0 0 
trait 3 0.3 0 0 0 0 0 0 0 
node 1 3 1 3
node 2 2 1 1
node 3 2 1 1
node 4 2 0 2
node 21 1 0 0
gene 2 1 4 -3.86267 0 1 -3.86267 1
gene 1 2 4 4.68575 0 2 4.68575 1
gene 3 3 4 -3.68176 0 3 -3.68176 0
gene 3 3 21 2.65952 0 46 2.65952 1
gene 3 21 4 -5.65362 0 47 -5.65362 1
gene 3 2 21 0.637876 0 51 0.637876 1
genomeend 133

/* Organism #134 Fitness: 3.99999 Error: 2 */
genomestart 134
trait 1 0.1 0 0 0 0 0 0 0 
trait 2 0.2 0 0 0 0 0 0 0 
trait 3 0.3 0 0 0 0 0 0 0 
node 1 3 1 3
node 2 2 1 1
node 3 2 1 1
node 4 2 0 2
node 21 1 0 0
gene 2 1 4 -2.16271 0 1 -2.16271 1
gene 1 2 4 6.42071 0 2 6.42071 1
gene 3 3 4 -3.21652 0 3 -3.21652 0
gene 3 3 21 2.22649 0 46 2.22649 1
gene 3 21 4 -0.665503 0 47 -0.665503 1
gene 3 2 21 -2.77908 0 51 -2.77908 1
genomeend 134

/* Organism #135 Fitness: 8.99652 Error: 1.00058 */
genomestart 135
trait 1 0.1 0 0 0 0 0 0 0 
trait 2 0.2 0 0 0 0 0 0 0 
trait 3 0.3 0 0 0 0 0 0 0 
node 1 3 1 3
node 2 2 1 1
node 3 2 1 1
node 4 2 0 2
node 21 1 0 0
gene 2 1 4 -1.59421 0 1 -1.59421 1
gene 1 2 4 3.32103 0 2 3.32103 1
gene 3 3 4 -2.20965 0 3 -2.20965 0
gene 3 3 21 1.77507 0 46 1.77507 1
gene 1 21 4 -5.30999 0 47 -5.30999 1
gene 3 2 21 -0.643975 0 51 -0.643975 1
genomeend 135

/* Organism #136 Fitness: 8.95189 Error: 1.00803 */
genomestart 136
trait 1 0.1 0 0 0 0 0 0 0 
trait 2 0.2 0 0 0 0 0 0 0 
trait 3 0.3 0 0 0 0 0 0 0 
node 1 3 1 3
node 2 2 1 1
node 3 2 1 1
node 4 2 0 2
node 21 1 0 0
gene 2 1 4 -2.31251 0 1 -2.31251 1
gene 1 2 4 5.11504 0 2 5.11504 1
gene 3 3 4 -3.87954 0 3 -3.87954 0
gene 3 3 21 1 0 46 0 1
gene 3 21 4 -3.87954 0 47 0 1
gene 3 2 21 -0.381931 0 51 -0.381931 1
gene 2 1 21 0.125641 0 68 0.125641 1
genomeend 136

/* Organism #137 Fitness: 4.00004 Error: 1.99999 */
genomestart 137
trait 1 0.1 0 0 0 0 0 0 0 
trait 2 0.2 0 0 0 0 0 0 0 
trait 3 0.3 0 0 0 0 0 0 0 
node 1 3 1 3
node 2 2 1 1
node 3 2 1 1
node 4 2 0 2
node 21 1 0 0
gene 2 1 4 -2.31251 0 1 -2.31251 1
gene 1 2 4 6.208 0 2 6.208 1
gene 3 3 4 -1.82157 0 3 -1.82157 0
gene 3 3 21 -1.58726 0 46 -1.58726 1
gene 3 21 4 -1.95767 0 47 -1.95767 1
gene 3 2 21 -2.04197 0 51 -2.04197 1
genomeend 137

/* Organism #138 Fitness: 7.9444 Error: 1.18142 */
genomestart 138
trait 1 0.1 0 0 0 0 0 0 0 
trait 2 0.2 0 0 0 0 0 0 0 
trait 3 0.900958 0 0 0.180074 0 0 0.880798 0 
node 1 3 1 3
node 2 2 1 1
node 3 2 1 1
node 4 2 0 2
node 21 1 0 0
gene 2 1 4 -2.31251 0 1 -2.31251 1
gene 1 2 4 3.32103 0 2 3.32103 1
gene 3 3 4 -3.87954 0 3 -3.87954 0
gene 3 3 21 1.77507 0 46 1.77507 1
gene 1 21 4 -5.30999 0 47 -5.30999 1
gene 3 2 21 -0.381931 0 51 -0.381931 1
genomeend 138

/* Organism #139 Fitness: 3.99651 Error: 2.00087 */
genomestart 139
trait 1 0.1 0 0 0 0 0 0 0 
trait 2 0.2 0 0 0 0 0 0 0 
trait 3 0.3 0 0 0 0 0 0 0 
node 1 3 1 3
node 2 2 1 1
node 3 2 1 1
node 4 2 0 2
node 21 1 0 0
gene 2 1 4 0.870877 0 1 0.870877 1
gene 1 2 4 5.51205 0 2 5.51205 1
gene 3 3 4 -4.63202 0 3 -4.63202 0
gene 3 3 21 1.07428 0 46 1.07428 1
gene 3 21 4 -4.60176 0 47 -4.60176 1
gene 3 2 21 -0.807511 0 51 -0.807511 1
genomeend 139

/* Organism #140 Fitness: 4.00287 Error: 1.99928 */
genomestart 140
trait 1 0.1 0 0 0 0 0 0 0 
trait 2 0.2 0 0 0 0 0 0 0 
trait 3 0.3 0 0 0 0 0 0 0 
node 1 3 1 3
node 2 2 1 1
node 3 2 1 1
node 4 2 0 2
node 21 1 0 0
node 26 1 0 0
gene 2 1 4 -1.30994 0 1 -1.30994 1
gene 1 2 4 7.59357 0 2 7.59357 1
gene 3 3 4 -4.27781 0 3 -4.27781 0
gene 3 3 21 2.55775 0 46 2.55775 1
gene 3 21 4 -5.1781 0 47 -5.1781 1
gene 3 2 21 0.393507 0 51 0.393507 0
gene 3 2 26 2.17801 0 63 2.17801 1
gene 3 26 21 -1.86149 0 64 -1.86149 1
genomeend 140

/* Organism #141 Fitness: 4 Error: 2 */
genomestart 141
trait 1 0.1 0 0 0 0 0 0 0 
trait 2 0.2 0 0 0 0 0 0 0 
trait 3 0.844737 0 0 0 0 0.913157 0 0 
node 1 3 1 3
node 2 2 1 1
node 3 2 1 1
node 4 2 0 2
node 21 1 0 0
gene 2 1 4 -1.55212 0 1 -1.55212 1
gene 1 2 4 5.55477 0 2 5.55477 1
gene 3 3 4 -3.19081 0 3 -3.19081 0
gene 1 3 21 0.083739 0 46 0.083739 1
gene 3 21 4 -3.87954 0 47 -3.87954 1
gene 3 2 21 -1.63031 0 51 -1.63031 1
genomeend 141

/* Organism #142 Fitness: 3.98852 Error: 2.00287 */
genomestart 142
trait 1 0.1 0 0 0 0 0 0 0 
trait 2 0.2 0 0 0 0 0 0 0 
trait 3 0.3 0 0 0 0 0 0 0 
node 1 3 1 3
node 2 2 1 1
node 3 2 1 1
node 4 2 0 2
node 21 1 0 0
gene 2 1 4 -1.14923 0 1 -1.14923 1
gene 1 2 4 4.5042 0 2 4.5042 1
gene 3 3 4 -0.81655 0 3 -0.81655 0
gene 3 3 21 -0.635978 0 46 -0.635978 1
gene 1 21 4 -4.49394 0 47 -4.49394 1
gene 3 2 21 -2.92638 0 51 -2.92638 0
genomeend 142

/* Organism #143 Fitness: 8.98905 Error: 1.00183 */
genomestart 143
trait 1 0.1 0 0 0 0 0 0 0 
trait 2 0 0 0 0.573932 0 0 0.211946 0 
trait 3 0.3 0 0 0 0 0 0 0 
node 1 3 1 3
node 2 2 1 1
node 3 2 1 1
node 4 2 0 2
node 21 1 0 0
gene 2 1 4 0.86125 0 1 0.86125 1
gene 1 2 4 1.74313 0 2 1.74313 1
gene 3 3 4 -1.41433 0 3 -1.41433 0
gene 3 3 21 1.77507 0 46 1.77507 1
gene 1 21 4 -4.33558 0 47 -4.33558 1
gene 3 2 21 -0.643975 0 51 -0.643975 1
genomeend 143

/* Organism #144 Fitness: 4 Error: 2 */
genomestart 144
trait 1 0.1 0 0 0 0 0 0 0 
trait 2 0.2 0 0 0 0 0 0 0 
trait 3 0.3 0 0 0 0 0 0 0 
node 1 3 1 3
node 2 2 1 1
node 3 2 1 1
node 4 2 0 2
node 21 1 0 0
gene 2 1 4 -2.39384 0 1 -2.39384 1
gene 1 2 4 6.57938 0 2 6.57938 1
gene 3 3 4 -6.29846 0 3 -6.29846 0
gene 3 3 21 -0.324226 0 46 -0.324226 1
gene 3 21 4 -5.51716 0 47 -5.51716 1
gene 3 2 21 -1.11865 0 51 -1.11865 1
genomeend 144

/* Organism #145 Fitness: 4 Error: 2 */
genomestart 145
trait 1 0.1 0 0 0 0 0 0 0 
trait 2 0.2 0 0 0 0 0 0 0 
trait 3 0.3 0 0 0 0 0 0 0 
node 1 3 1 3
node 2 2 1 1
node 3 2 1 1
node 4 2 0 2
node 21 1 0 0
gene 2 1 4 -4.64597 0 1 -4.64597 1
gene 1 2 4 5.51841 0 2 5.51841 1
gene 3 3 4 -2.72664 0 3 -2.72664 0
gene 3 3 21 1.10278 0 46 1.10278 1
gene 3 21 4 -2.84095 0 47 -2.84095 1
gene 3 2 21 1.67467 0 51 1.67467 1
genomeend 145

/* Species #13 : (Size 3) (AF 5.41424) (Age 1)  */


/* Organism #146 Fitness: 7.88365 Error: 1.19222 */
genomestart 146
trait 1 0.05 0.371238 0.151144 0 0 0 0 0.0325408 
trait 2 0.2 0 0 0 0 0 0 0 
trait 3 0.3 0 0 0 0 0 0 0 
node 1 3 1 3
node 2 2 1 1
node 3 3 1 1
node 4 1 0 2
node 10 1 0 0
gene 1 1 4 -0.763591 0 1 -0.763591 1
gene 1 2 4 3.6371 0 2 3.6371 1
gene 3 3 4 0.602668 0 3 0.602668 1
gene 3 3 10 2.72614 0 14 2.72614 1
gene 3 10 4 0.85522 0 15 0.85522 1
gene 2 2 10 -0.467869 0 48 -0.467869 1
genomeend 146

/* Organism #147 Fitness: 4.40723 Error: 1.90066 */
genomestart 147
trait 1 0.05 0.371238 0.151144 0 0 0 0 0.0325408 
trait 2 0.2 0 0 0 0 0 0 0 
trait 3 0.3 0 0 0 0 0 0 0 
node 1 3 1 3
node 2 2 1 1
node 3 3 1 1
node 4 1 0 2
node 10 1 0 0
gene 1 1 4 -2.88856 0 1 -2.88856 1
gene 1 2 4 2.4483 0 2 2.4483 1
gene 3 3 4 -0.960508 0 3 -0.960508 1
gene 3 3 10 -0.00228942 0 14 -0.00228942 1
gene 3 10 4 3.32052 0 15 3.32052 1
gene 2 2 10 -2.26739 0 48 -2.26739 1
genomeend 147

/* Organism #148 Fitness: 3.95186 Error: 2.01207 */
genomestart 148
trait 1 0.1 0.102153 0 0 0 0 0 0.0650816 
trait 2 0.2 0 0 0 0 0 0 0 
trait 3 0.3 0 0 0 0 0 0 0 
node 1 3 1 3
node 2 1 1 1
node 3 3 1 1
node 4 1 0 2
node 10 1 0 0
gene 1 1 4 1.88791 0 1 1.88791 1
gene 1 2 4 -2.41212 0 2 -2.41212 1
gene 3 3 4 -0.0361929 0 3 -0.0361929 0
gene 3 3 10 5.28726 0 14 5.28726 1
gene 3 10 4 2.83702 0 15 2.83702 1
genomeend 148

/* Species #14 : (Size 1) (AF 4.00403) (Age 1)  */


/* Organism #149 Fitness: 4.00403 Error: 1.99899 */
genomestart 149
trait 1 0.1 0.0510765 0 0 0 0 0 0.0325408 
trait 2 0.2 0 0 0 0 0 0 0 
trait 3 0.357894 0.0499362 0 0 0 0.0830218 0 0 
node 1 3 1 3
node 2 2 1 1
node 3 2 1 1
node 4 2 0 2
node 16 1 0 0
node 27 1 0 0
gene 2 1 4 -2.96733 0 1 -2.96733 1
gene 3 2 4 2.59459 0 2 2.59459 0
gene 1 3 4 4.11934 0 3 4.11934 0
gene 3 2 16 1.42844 0 30 1.42844 1
gene 3 16 4 4.61776 0 31 4.61776 1
gene 1 3 27 1 0 66 0 1
gene 1 27 4 4.11934 0 67 0 1
genomeend 149
