
/* Species #1 : (Size 18) (AF 7.91433) (Age 13)  */


/* Organism #0 Fitness: 9 Error: 1 */
genomestart 0
trait 1 0.1 0.0510765 0 0 0 0 0 0.0325408 
trait 2 0.542775 0 0 0.103185 0.301501 0 0 0 
trait 3 0.3 0 0 0 0 0 0 0 
node 1 3 1 3
node 2 1 1 1
node 3 3 1 1
node 4 1 0 2
gene 1 1 4 -4.04511 0 1 -4.04511 1
gene 1 2 4 8 0 2 8 1
gene 3 3 4 -7.77789 0 3 -7.77789 1
genomeend 0

/* Organism #1 Fitness: 9 Error: 1 */
genomestart 1
trait 1 0.1 0.0510765 0 0 0 0 0 0.0325408 
trait 2 0.399952 0 0 0.0601911 0.175875 0 0 0 
trait 3 0.3 0 0 0 0 0 0 0 
node 1 3 1 3
node 2 1 1 1
node 3 3 1 1
node 4 1 0 2
gene 1 1 4 -3.69656 0 1 -3.69656 1
gene 1 2 4 8 0 2 8 1
gene 3 3 4 -7.88823 0 3 -7.88823 1
genomeend 1

/* Organism #2 Fitness: 9 Error: 1 */
genomestart 2
trait 1 0.1 0.0510765 0 0 0 0 0 0.0325408 
trait 2 0.399952 0 0 0.0601911 0.175875 0 0 0 
trait 3 0.3 0 0 0 0 0 0 0 
node 1 3 1 3
node 2 1 1 1
node 3 3 1 1
node 4 1 0 2
gene 1 1 4 -3.69656 0 1 -3.69656 1
gene 1 2 4 7.69138 0 2 7.69138 1
gene 3 3 4 -7.88823 0 3 -7.88823 1
genomeend 2

/* Organism #3 Fitness: 7.56714 Error: 1.24916 */
genomestart 3
trait 1 0.1 0.0510765 0 0 0 0 0 0.0325408 
trait 2 0.676076 0 0 0.143312 0.418751 0 0 0 
trait 3 0.3 0 0 0 0 0 0 0 
node 1 3 1 3
node 2 1 1 1
node 3 3 1 1
node 4 1 0 2
gene 1 1 4 -5.96227 0 1 -5.96227 1
gene 2 2 4 6.18628 0 2 6.18628 1
gene 3 3 4 -6.51554 0 3 -6.51554 1
genomeend 3

/* Organism #4 Fitness: 9 Error: 1 */
genomestart 4
trait 1 0.1 0.0510765 0 0 0 0 0 0.0325408 
trait 2 0.676076 0 0 0.143312 0.418751 0 0 0 
trait 3 0.3 0 0 0 0 0 0 0 
node 1 3 1 3
node 2 1 1 1
node 3 3 1 1
node 4 1 0 2
gene 1 1 4 -3.93191 0 1 -3.93191 1
gene 1 2 4 8 0 2 8 1
gene 3 3 4 -7.88895 0 3 -7.88895 1
genomeend 4

/* Organism #5 Fitness: 9 Error: 1 */
genomestart 5
trait 1 0.1 0.0510765 0 0 0 0 0 0.0325408 
trait 2 0.495167 0 0 0.0888535 0.259626 0 0 0 
trait 3 0.3 0 0 0 0 0 0 0 
node 1 3 1 3
node 2 1 1 1
node 3 3 1 1
node 4 1 0 2
gene 1 1 4 -3.94662 0 1 -3.94662 1
gene 1 2 4 8 0 2 8 1
gene 3 3 4 -7.83342 0 3 -7.83342 1
genomeend 5

/* Organism #6 Fitness: 9 Error: 1 */
genomestart 6
trait 1 0.1 0.0510765 0 0 0 0 0 0.0325408 
trait 2 0.352344 0 0 0.0458599 0.134 0 0 0 
trait 3 0.3 0 0 0 0 0 0 0 
node 1 3 1 3
node 2 1 1 1
node 3 3 1 1
node 4 1 0 2
gene 1 1 4 -3.69656 0 1 -3.69656 1
gene 1 2 4 7.69138 0 2 7.69138 1
gene 3 3 4 -7.88823 0 3 -7.88823 1
genomeend 6

/* Organism #7 Fitness: 9 Error: 1 */
genomestart 7
trait 1 0.1 0.0510765 0 0 0 0 0 0.0325408 
trait 2 0.609426 0 0 0.123248 0.360126 0 0 0 
trait 3 0.3 0 0 0 0 0 0 0 
node 1 3 1 3
node 2 1 1 1
node 3 3 1 1
node 4 1 0 2
gene 1 1 4 -3.98851 0 1 -3.98851 1
gene 1 2 4 8 0 2 8 1
gene 3 3 4 -7.83342 0 3 -7.83342 1
genomeend 7

/* Organism #8 Fitness: 9 Error: 1 */
genomestart 8
trait 1 0.1 0.0510765 0 0 0 0 0 0.0325408 
trait 2 0.609426 0 0 0.123248 0.360126 0 0 0 
trait 3 0.3 0 0 0 0 0 0 0 
node 1 3 1 3
node 2 1 1 1
node 3 3 1 1
node 4 1 0 2
gene 1 1 4 -3.96895 0 1 -3.96895 1
gene 1 2 4 8 0 2 8 1
gene 3 3 4 -8 0 3 -8 1
genomeend 8

/* Organism #9 Fitness: 9 Error: 1 */
genomestart 9
trait 1 0.1 0.0510765 0 0 0 0 0 0.0325408 
trait 2 0.44756 0 0 0.0745223 0.21775 0 0 0 
trait 3 0.3 0 0 0 0 0 0 0 
node 1 3 1 3
node 2 1 1 1
node 3 3 1 1
node 4 1 0 2
gene 1 1 4 -4.56045 0 1 -4.56045 1
gene 1 2 4 7.79352 0 2 7.79352 1
gene 3 3 4 -6.50995 0 3 -6.50995 1
genomeend 9

/* Organism #10 Fitness: 8.99993 Error: 1.00001 */
genomestart 10
trait 1 0.1 0.0510765 0 0 0 0 0 0.0325408 
trait 2 0.561818 0 0 0.108917 0.318251 0 0 0 
trait 3 0.3 0 0 0 0 0 0 0 
node 1 3 1 3
node 2 1 1 1
node 3 3 1 1
node 4 1 0 2
gene 1 1 4 -4.07972 0 1 -4.07972 1
gene 2 2 4 7.50387 0 2 7.50387 1
gene 3 3 4 -5.73122 0 3 -5.73122 1
genomeend 10

/* Organism #11 Fitness: 8.99998 Error: 1 */
genomestart 11
trait 1 0.1 0.0510765 0 0 0 0 0 0.0325408 
trait 2 0.352344 0 0 0.0458599 0.134 0 0 0 
trait 3 0.3 0 0 0 0 0 0 0 
node 1 3 1 3
node 2 1 1 1
node 3 3 1 1
node 4 1 0 2
gene 1 1 4 -3.88615 0 1 -3.88615 1
gene 1 2 4 6.48072 0 2 6.48072 1
gene 3 3 4 -8 0 3 -8 1
genomeend 11

/* Organism #12 Fitness: 7.72375 Error: 1.22084 */
genomestart 12
trait 1 0.1 0.0510765 0 0 0 0 0 0.0325408 
trait 2 0.399952 0 0 0.0601911 0.175875 0 0 0 
trait 3 0.3 0 0 0 0 0 0 0 
node 1 3 1 3
node 2 1 1 1
node 3 3 1 1
node 4 1 0 2
gene 1 1 4 -1.20879 0 1 -1.20879 1
gene 1 2 4 8 0 2 8 1
gene 3 3 4 -7.05032 0 3 -7.05032 1
genomeend 12

/* Organism #13 Fitness: 4 Error: 2 */
genomestart 13
trait 1 0.1 0.0510765 0 0 0 0 0 0.0325408 
trait 2 0.676076 0 0 0.143312 0.418751 0 0 0 
trait 3 0.3 0 0 0 0 0 0 0 
node 1 3 1 3
node 2 1 1 1
node 3 3 1 1
node 4 1 0 2
gene 1 1 4 -4.56989 0 1 -4.56989 1
gene 1 2 4 -1.54556 0 2 -1.54556 1
gene 3 3 4 -7.88895 0 3 -7.88895 1
genomeend 13

/* Organism #14 Fitness: 4 Error: 2 */
genomestart 14
trait 1 0.1 0.0510765 0 0 0 0 0 0.0325408 
trait 2 0.542775 0 0 0.103185 0.301501 0 0 0 
trait 3 0.3 0 0 0 0 0 0 0 
node 1 3 1 3
node 2 1 1 1
node 3 3 1 1
node 4 1 0 2
gene 1 1 4 -4.80701 0 1 -4.80701 1
gene 1 2 4 -1.68775 0 2 -1.68775 1
gene 3 3 4 -7.12521 0 3 -7.12521 1
genomeend 14

/* Organism #15 Fitness: 7.16734 Error: 1.32281 */
genomestart 15
trait 1 0.1 0.0510765 0 0 0 0 0 0.0325408 
trait 2 0.399952 0 0 0.0601911 0.175875 0 0 0 
trait 3 0.3 0 0 0 0 0 0 0 
node 1 3 1 3
node 2 1 1 1
node 3 3 1 1
node 4 1 0 2
gene 2 1 4 -2.18831 0 1 -2.18831 1
gene 1 2 4 8 0 2 8 1
gene 3 3 4 -5.96217 0 3 -5.96217 1
genomeend 15

/* Organism #16 Fitness: 8.99985 Error: 1.00003 */
genomestart 16
trait 1 0.1 0.0510765 0 0 0 0 0 0.0325408 
trait 2 0.51421 0 0 0.094586 0.276376 0 0 0 
trait 3 0.3 0 0 0 0 0 0 0 
node 1 3 1 3
node 2 1 1 1
node 3 3 1 1
node 4 1 0 2
gene 1 1 4 -3.69656 0 1 -3.69656 1
gene 1 2 4 5.84547 0 2 5.84547 1
gene 3 3 4 -6.72121 0 3 -6.72121 1
genomeend 16

/* Organism #17 Fitness: 4 Error: 2 */
genomestart 17
trait 1 0.1 0 0 0 0.0172108 0 0 0 
trait 2 0.2 0 0 0 0 0 0 0 
trait 3 0.15 0.102694 0.491418 0 0.0836626 0 0 0 
node 1 3 1 3
node 2 2 1 1
node 3 2 1 1
node 4 2 0 2
gene 2 1 4 -6.23292 0 1 -6.23292 1
gene 2 2 4 1.22198 0 2 1.22198 1
gene 1 3 4 2.05562 0 3 2.05562 1
genomeend 17

/* Species #2 : (Size 12) (AF 5.89145) (Age 11)  */


/* Organism #18 Fitness: 8.99083 Error: 1.00153 */
genomestart 18
trait 1 0.1 0 0 0 0 0 0 0 
trait 2 0.2 0 0 0 0 0 0 0 
trait 3 0.3 0 0 0 0 0 0 0 
node 1 3 1 3
node 2 2 1 1
node 3 3 1 1
node 4 2 0 2
node 7 1 0 0
gene 2 1 4 -0.203909 0 1 -0.203909 1
gene 1 2 4 3.73129 0 2 3.73129 1
gene 2 3 4 -0.524343 0 3 -0.524343 0
gene 2 3 7 1.94409 0 8 1.94409 1
gene 2 7 4 -5.62447 0 9 -5.62447 1
gene 3 2 7 -0.0888559 0 49 -0.0888559 1
genomeend 18

/* Organism #19 Fitness: 4.02976 Error: 1.99257 */
genomestart 19
trait 1 0.1 0 0 0 0 0 0 0 
trait 2 0.2 0 0 0 0 0 0 0 
trait 3 0.3 0 0 0 0 0 0 0 
node 1 3 1 3
node 2 2 1 1
node 3 3 1 1
node 4 2 0 2
node 7 1 0 0
gene 2 1 4 1.83768 0 1 1.83768 1
gene 1 2 4 -0.69739 0 2 -0.69739 1
gene 2 3 4 1.82211 0 3 1.82211 0
gene 2 3 7 -1.81291 0 8 -1.81291 1
gene 2 7 4 -1.69352 0 9 -1.69352 1
gene 3 2 7 -4.79457 0 49 -4.79457 1
genomeend 19

/* Organism #20 Fitness: 8.90097 Error: 1.01655 */
genomestart 20
trait 1 0.1 0 0 0 0 0 0 0 
trait 2 0.2 0 0 0 0 0 0 0 
trait 3 0.3 0 0 0 0 0 0 0 
node 1 3 1 3
node 2 2 1 1
node 3 3 1 1
node 4 2 0 2
node 7 1 0 0
gene 2 1 4 0.883616 0 1 0.883616 1
gene 1 2 4 -2.01896 0 2 -2.01896 1
gene 2 3 4 -4.44785 0 3 -4.44785 0
gene 2 3 7 -2.71595 0 8 -2.71595 1
gene 2 7 4 -5.48803 0 9 -5.48803 1
gene 3 2 7 0.312607 0 49 0.312607 1
genomeend 20

/* Organism #21 Fitness: 5.13848 Error: 1.73318 */
genomestart 21
trait 1 0.1 0 0 0 0 0 0 0 
trait 2 0.2 0 0 0 0 0 0 0 
trait 3 0.3 0 0 0 0 0 0 0 
node 1 3 1 3
node 2 2 1 1
node 3 3 1 1
node 4 2 0 2
node 7 1 0 0
gene 2 1 4 -0.203909 0 1 -0.203909 1
gene 1 2 4 3.73129 0 2 3.73129 1
gene 2 3 4 -0.524343 0 3 -0.524343 0
gene 2 3 7 -3.15253 0 8 -3.15253 1
gene 2 7 4 -5.55642 0 9 -5.55642 1
gene 3 2 7 -0.0888559 0 49 -0.0888559 1
genomeend 21

/* Organism #22 Fitness: 4 Error: 2 */
genomestart 22
trait 1 0.1 0 0 0 0 0 0 0 
trait 2 0.2 0 0 0 0 0 0 0 
trait 3 0.3 0 0 0 0 0 0 0 
node 1 3 1 3
node 2 2 1 1
node 3 3 1 1
node 4 2 0 2
node 7 1 0 0
gene 2 1 4 -1.50191 0 1 -1.50191 1
gene 1 2 4 2.13508 0 2 2.13508 1
gene 2 3 4 0.688241 0 3 0.688241 0
gene 2 3 7 0.17087 0 8 0.17087 1
gene 2 7 4 -5.8325 0 9 -5.8325 1
gene 3 2 7 1.32286 0 49 1.32286 1
genomeend 22

/* Organism #23 Fitness: 3.99869 Error: 2.00033 */
genomestart 23
trait 1 0.1 0 0 0 0 0 0 0 
trait 2 0.2 0 0 0 0 0 0 0 
trait 3 0.3 0 0 0 0 0 0 0 
node 1 3 1 3
node 2 2 1 1
node 3 3 1 1
node 4 2 0 2
node 7 1 0 0
gene 2 1 4 -1.04836 0 1 -1.04836 1
gene 1 2 4 3.95764 0 2 3.95764 1
gene 2 3 4 -4.53842 0 3 -4.53842 1
gene 2 3 7 -4.87764 0 8 -4.87764 1
gene 2 7 4 -6.98207 0 9 -6.98207 1
gene 3 2 7 1.62167 0 49 1.62167 1
genomeend 23

/* Organism #24 Fitness: 4 Error: 2 */
genomestart 24
trait 1 0.1 0 0 0 0 0 0 0 
trait 2 0.2 0 0 0 0 0 0 0 
trait 3 0.3 0 0 0 0 0 0 0 
node 1 3 1 3
node 2 2 1 1
node 3 3 1 1
node 4 3 0 2
node 7 1 0 0
gene 2 1 4 -1.23622 0 1 -1.23622 1
gene 1 2 4 5.16765 0 2 5.16765 1
gene 2 3 4 -2.25861 0 3 -2.25861 0
gene 2 3 7 0.204338 0 8 0.204338 1
gene 2 7 4 -5.63852 0 9 -5.63852 1
gene 3 2 7 2.19506 0 49 2.19506 1
genomeend 24

/* Organism #25 Fitness: 8.93859 Error: 1.01025 */
genomestart 25
trait 1 0.1 0 0 0 0 0 0 0 
trait 2 0.2 0 0 0 0 0 0 0 
trait 3 0.3 0 0 0 0 0 0 0 
node 1 3 1 3
node 2 2 1 1
node 3 3 1 1
node 4 2 0 2
node 7 1 0 0
gene 2 1 4 0.930111 0 1 0.930111 1
gene 1 2 4 3.73129 0 2 3.73129 1
gene 2 3 4 -6.6371 0 3 -6.6371 0
gene 2 3 7 -2.27936 0 8 -2.27936 1
gene 2 7 4 -5.62447 0 9 -5.62447 1
gene 3 2 7 -0.0888559 0 49 -0.0888559 1
genomeend 25

/* Organism #26 Fitness: 3.99995 Error: 2.00001 */
genomestart 26
trait 1 0.1 0 0 0 0 0 0 0 
trait 2 0.2 0 0 0 0 0 0 0 
trait 3 0.3 0 0 0 0 0 0 0 
node 1 3 1 3
node 2 2 1 1
node 3 3 1 1
node 4 2 0 2
node 7 1 0 0
gene 2 1 4 0.460021 0 1 0.460021 1
gene 1 2 4 3.81484 0 2 3.81484 1
gene 2 3 4 -1.69541 0 3 -1.69541 0
gene 2 3 7 3.22998 0 8 3.22998 1
gene 2 7 4 -5.44636 0 9 -5.44636 1
gene 3 2 7 2.27902 0 49 2.27902 1
genomeend 26

/* Organism #27 Fitness: 5.7289 Error: 1.60649 */
genomestart 27
trait 1 0.1 0 0 0 0 0 0 0 
trait 2 0.2 0 0 0 0 0 0 0 
trait 3 0.3 0 0 0 0 0 0 0 
node 1 3 1 3
node 2 2 1 1
node 3 3 1 1
node 4 2 0 2
node 7 1 0 0
gene 2 1 4 -0.0878326 0 1 -0.0878326 1
gene 1 2 4 1.10063 0 2 1.10063 1
gene 2 3 4 0.0710179 0 3 0.0710179 0
gene 2 3 7 -3.81788 0 8 -3.81788 1
gene 2 7 4 -5.10177 0 9 -5.10177 1
gene 3 2 7 -1.9505 0 49 -1.9505 1
genomeend 27

/* Organism #28 Fitness: 3.98549 Error: 2.00363 */
genomestart 28
trait 1 0.1 0 0 0 0 0 0 0 
trait 2 0.2 0 0 0 0 0 0 0 
trait 3 0.3 0 0 0 0 0 0 0 
node 1 3 1 3
node 2 2 1 1
node 3 3 1 1
node 4 2 0 2
node 7 1 0 0
gene 2 1 4 1.45018 0 1 1.45018 1
gene 1 2 4 2.03768 0 2 2.03768 1
gene 2 3 4 1.22358 0 3 1.22358 0
gene 2 3 7 4.1931 0 8 4.1931 1
gene 2 7 4 -5.11923 0 9 -5.11923 1
gene 3 2 7 0.639144 0 49 0.639144 1
genomeend 28

/* Organism #29 Fitness: 8.98578 Error: 1.00237 */
genomestart 29
trait 1 0.1 0 0 0 0 0 0 0 
trait 2 0.2 0 0 0 0 0 0 0 
trait 3 0.3 0 0 0 0 0 0 0 
node 1 3 1 3
node 2 2 1 1
node 3 3 1 1
node 4 2 0 2
node 7 1 0 0
gene 2 1 4 2.63764 0 1 2.63764 1
gene 1 2 4 -1.86769 0 2 -1.86769 1
gene 2 3 4 -3.65711 0 3 -3.65711 0
gene 2 3 7 -4.43138 0 8 -4.43138 1
gene 2 7 4 -7.72969 0 9 -7.72969 1
gene 3 2 7 -4.75726 0 49 -4.75726 1
genomeend 29

/* Species #4 : (Size 17) (AF 8.70586) (Age 10)  */


/* Organism #30 Fitness: 9 Error: 1 */
genomestart 30
trait 1 0.1 0 0 0 0.0344216 0 0 0 
trait 2 0.2 0 0 0 0 0 0 0 
trait 3 0.3 0 0 0 0 0 0 0 
node 1 3 1 3
node 2 2 1 1
node 3 2 1 1
node 4 2 0 2
gene 2 1 4 -4.3862 0 1 -4.3862 1
gene 2 2 4 -8 0 2 -8 1
gene 1 3 4 8 0 3 8 1
genomeend 30

/* Organism #31 Fitness: 8.99999 Error: 1 */
genomestart 31
trait 1 0.1 0 0 0 0.0344216 0 0 0 
trait 2 0.2 0 0 0 0 0 0 0 
trait 3 0.3 0 0 0 0 0 0 0 
node 1 3 1 3
node 2 2 1 1
node 3 2 1 1
node 4 2 0 2
gene 2 1 4 -5.35676 0 1 -5.35676 1
gene 2 2 4 -6.16859 0 2 -6.16859 1
gene 1 3 4 8 0 3 8 1
genomeend 31

/* Organism #32 Fitness: 4 Error: 2 */
genomestart 32
trait 1 0.1 0 0 0 0 0 0 0 
trait 2 0.2 0 0 0 0 0 0 0 
trait 3 0.00365074 0.102694 0.491418 0 0.0836626 0 0 0 
node 1 3 1 3
node 2 2 1 1
node 3 2 1 1
node 4 2 0 2
gene 2 1 4 -5.85407 0 1 -5.85407 1
gene 2 2 4 -7.62005 0 2 -7.62005 1
gene 1 3 4 -0.49177 0 3 -0.49177 1
genomeend 32

/* Organism #33 Fitness: 8.99999 Error: 1 */
genomestart 33
trait 1 0.1 0 0 0 0 0 0 0 
trait 2 0.2 0 0 0 0 0 0 0 
trait 3 0.15 0.102694 0.491418 0 0.0836626 0 0 0 
node 1 3 1 3
node 2 2 1 1
node 3 2 1 1
node 4 2 0 2
gene 2 1 4 -3.94809 0 1 -3.94809 1
gene 2 2 4 -6.68053 0 2 -6.68053 1
gene 1 3 4 8 0 3 8 1
genomeend 33

/* Organism #34 Fitness: 9 Error: 1 */
genomestart 34
trait 1 0.1 0 0 0 0 0 0 0 
trait 2 0.2 0 0 0 0 0 0 0 
trait 3 0 0.205389 0.982835 0 0.167325 0 0 0 
node 1 3 1 3
node 2 2 1 1
node 3 2 1 1
node 4 2 0 2
gene 2 1 4 -3.69869 0 1 -3.69869 1
gene 2 2 4 -7.62005 0 2 -7.62005 1
gene 1 3 4 8 0 3 8 1
genomeend 34

/* Organism #35 Fitness: 9 Error: 1 */
genomestart 35
trait 1 0.1 0 0 0 0.0172108 0 0 0 
trait 2 0.2 0 0 0 0 0 0 0 
trait 3 0.153651 0 0 0 0 0 0 0 
node 1 3 1 3
node 2 2 1 1
node 3 2 1 1
node 4 2 0 2
gene 2 1 4 -4.47746 0 1 -4.47746 1
gene 2 2 4 -8 0 2 -8 1
gene 1 3 4 8 0 3 8 1
genomeend 35

/* Organism #36 Fitness: 8.99984 Error: 1.00003 */
genomestart 36
trait 1 0.1 0 0 0 0 0 0 0 
trait 2 0.2 0 0 0 0 0 0 0 
trait 3 0.153651 0 0 0 0 0 0 0 
node 1 3 1 3
node 2 2 1 1
node 3 2 1 1
node 4 2 0 2
gene 2 1 4 -3.38961 0 1 -3.38961 1
gene 2 2 4 -8 0 2 -8 1
gene 1 3 4 5.52601 0 3 5.52601 1
genomeend 36

/* Organism #37 Fitness: 9 Error: 1 */
genomestart 37
trait 1 0.1 0 0 0 0.0172108 0 0 0 
trait 2 0.2 0 0 0 0 0 0 0 
trait 3 0.153651 0 0 0 0 0 0 0 
node 1 3 1 3
node 2 2 1 1
node 3 2 1 1
node 4 2 0 2
gene 2 1 4 -4.56871 0 1 -4.56871 1
gene 2 2 4 -8 0 2 -8 1
gene 1 3 4 8 0 3 8 1
genomeend 37

/* Organism #38 Fitness: 9 Error: 1 */
genomestart 38
trait 1 0.1 0 0 0 0 0 0 0 
trait 2 0.2 0 0 0 0 0 0 0 
trait 3 0.153651 0 0 0 0 0 0 0 
node 1 3 1 3
node 2 2 1 1
node 3 2 1 1
node 4 2 0 2
gene 2 1 4 -4.328 0 1 -4.328 1
gene 2 2 4 -7.22157 0 2 -7.22157 1
gene 1 3 4 8 0 3 8 1
genomeend 38

/* Organism #39 Fitness: 9 Error: 1 */
genomestart 39
trait 1 0.0109562 0.666077 0 0.883853 0 0 0.955988 0 
trait 2 0.2 0 0 0 0 0 0 0 
trait 3 0.3 0 0 0 0 0 0 0 
node 1 3 1 3
node 2 2 1 1
node 3 2 1 1
node 4 2 0 2
gene 2 1 4 -4.29233 0 1 -4.29233 1
gene 2 2 4 -8 0 2 -8 1
gene 1 3 4 8 0 3 8 1
genomeend 39

/* Organism #40 Fitness: 8.99999 Error: 1 */
genomestart 40
trait 1 0.1 0 0 0 0.0344216 0 0 0 
trait 2 0.2 0 0 0 0 0 0 0 
trait 3 0.3 0 0 0 0 0 0 0 
node 1 3 1 3
node 2 2 1 1
node 3 2 1 1
node 4 2 0 2
gene 2 1 4 -2.848 0 1 -2.848 1
gene 2 2 4 -8 0 2 -8 1
gene 1 3 4 5.78819 0 3 5.78819 1
genomeend 40

/* Organism #41 Fitness: 8.99997 Error: 1 */
genomestart 41
trait 1 0.1 0 0 0 0 0 0 0 
trait 2 0.2 0 0 0 0 0 0 0 
trait 3 0.00365074 0.102694 0.491418 0 0.0836626 0 0 0 
node 1 3 1 3
node 2 2 1 1
node 3 2 1 1
node 4 2 0 2
gene 2 1 4 -2.48744 0 1 -2.48744 1
gene 2 2 4 -8 0 2 -8 1
gene 1 3 4 6.62307 0 3 6.62307 1
genomeend 41

/* Organism #42 Fitness: 9 Error: 1 */
genomestart 42
trait 1 0.1 0 0 0 0.0344216 0 0 0 
trait 2 0.2 0 0 0 0 0 0 0 
trait 3 0.3 0 0 0 0 0 0 0 
node 1 3 1 3
node 2 2 1 1
node 3 2 1 1
node 4 2 0 2
gene 2 1 4 -4.3862 0 1 -4.3862 1
gene 2 2 4 -8 0 2 -8 1
gene 1 3 4 8 0 3 8 1
genomeend 42

/* Organism #43 Fitness: 9 Error: 1 */
genomestart 43
trait 1 0.1 0 0 0 0 0 0 0 
trait 2 0.2 0 0 0 0 0 0 0 
trait 3 0.15 0.102694 0.491418 0 0.0836626 0 0 0 
node 1 3 1 3
node 2 2 1 1
node 3 2 1 1
node 4 2 0 2
gene 2 1 4 -4.42343 0 1 -4.42343 1
gene 2 2 4 -8 0 2 -8 1
gene 1 3 4 7.46671 0 3 7.46671 1
genomeend 43

/* Organism #44 Fitness: 9 Error: 1 */
genomestart 44
trait 1 0.1 0 0 0 0.0172108 0 0 0 
trait 2 0.2 0 0 0 0 0 0 0 
trait 3 0.3 0 0 0 0 0 0 0 
node 1 3 1 3
node 2 2 1 1
node 3 2 1 1
node 4 2 0 2
gene 2 1 4 -4.04245 0 1 -4.04245 1
gene 2 2 4 -7.81003 0 2 -7.81003 1
gene 1 3 4 8 0 3 8 1
genomeend 44

/* Organism #45 Fitness: 8.99986 Error: 1.00002 */
genomestart 45
trait 1 0.1 0 0 0 0.0344216 0 0 0 
trait 2 0.2 0 0 0 0 0 0 0 
trait 3 0.3 0 0 0 0 0 0 0 
node 1 3 1 3
node 2 2 1 1
node 3 2 1 1
node 4 2 0 2
gene 2 1 4 -5.83871 0 1 -5.83871 1
gene 2 2 4 -8 0 2 -8 1
gene 1 3 4 8 0 3 8 1
genomeend 45

/* Organism #46 Fitness: 9 Error: 1 */
genomestart 46
trait 1 0.1 0 0 0 0 0 0 0 
trait 2 0.2 0 0 0 0 0 0 0 
trait 3 0.00730148 0 0 0 0 0 0 0 
node 1 3 1 3
node 2 2 1 1
node 3 2 1 1
node 4 2 0 2
gene 2 1 4 -4.56871 0 1 -4.56871 1
gene 2 2 4 -8 0 2 -8 1
gene 1 3 4 8 0 3 8 1
genomeend 46

/* Species #6 : (Size 16) (AF 7.51811) (Age 9)  */


/* Organism #47 Fitness: 8.9998 Error: 1.00003 */
genomestart 47
trait 1 0.1 0 0 0 0 0 0 0 
trait 2 0.575 0 0.091628 0.318672 0 0 0.438087 0 
trait 3 0.3 0 0 0 0 0 0 0 
node 1 3 1 3
node 2 2 1 1
node 3 1 1 1
node 4 3 0 2
node 13 3 0 0
gene 3 1 4 -1.61258 0 1 -1.61258 1
gene 3 2 4 4.72842 0 2 4.72842 1
gene 2 3 4 4.38712 0 3 4.38712 1
gene 2 3 13 -1.20564 0 22 -1.20564 1
gene 2 13 4 -1.01417 0 23 -1.01417 1
genomeend 47

/* Organism #48 Fitness: 8.95547 Error: 1.00743 */
genomestart 48
trait 1 0.1 0 0 0 0 0 0 0 
trait 2 0.3625 0 0.137442 0.360422 0 0 0.437212 0 
trait 3 0.3 0 0 0 0 0 0 0 
node 1 3 1 3
node 2 2 1 1
node 3 1 1 1
node 4 3 0 2
node 13 1 0 0
gene 3 1 4 -1.60786 0 1 -1.60786 1
gene 3 2 4 5.90767 0 2 5.90767 1
gene 2 3 4 5.0392 0 3 5.0392 1
gene 2 3 13 0.543483 0 22 0.543483 1
gene 2 13 4 1.22773 0 23 1.22773 1
genomeend 48

/* Organism #49 Fitness: 8.99008 Error: 1.00165 */
genomestart 49
trait 1 0.1 0 0 0 0 0 0 0 
trait 2 0.3625 0 0.137442 0.360422 0 0 0.437212 0 
trait 3 0.3 0 0 0 0 0 0 0 
node 1 3 1 3
node 2 2 1 1
node 3 1 1 1
node 4 3 0 2
node 13 1 0 0
gene 3 1 4 -2.23367 0 1 -2.23367 1
gene 3 2 4 4.72842 0 2 4.72842 1
gene 2 3 4 4.38712 0 3 4.38712 1
gene 2 3 13 0.327938 0 22 0.327938 1
gene 2 13 4 -1.01417 0 23 -1.01417 1
genomeend 49

/* Organism #50 Fitness: 4.00101 Error: 1.99975 */
genomestart 50
trait 1 0.1 0 0 0 0 0 0 0 
trait 2 0.15 0 0.183256 0.388337 0 0 0.410464 0 
trait 3 0.3 0 0 0 0 0 0 0 
node 1 3 1 3
node 2 2 1 1
node 3 1 1 1
node 4 3 0 2
node 13 1 0 0
gene 3 1 4 0.120618 0 1 0.120618 1
gene 3 2 4 3.70799 0 2 3.70799 1
gene 2 3 4 2.31578 0 3 2.31578 1
gene 2 3 13 -0.882961 0 22 -0.882961 1
gene 2 13 4 3.11506 0 23 3.11506 1
genomeend 50

/* Organism #51 Fitness: 8.99982 Error: 1.00003 */
genomestart 51
trait 1 0.1 0 0 0 0 0 0 0 
trait 2 0.15 0 0.183256 0.402171 0 0 0.436337 0 
trait 3 0.3 0 0 0.549093 0.478151 0.587311 0.93382 0.777254 
node 1 3 1 3
node 2 2 1 1
node 3 1 1 1
node 4 3 0 2
node 13 1 0 0
gene 3 1 4 -0.9924 0 1 -0.9924 1
gene 3 2 4 5.61757 0 2 5.61757 1
gene 2 3 4 6.36285 0 3 6.36285 1
gene 2 3 13 0.327938 0 22 0.327938 1
gene 2 13 4 -2.23717 0 23 -2.23717 1
genomeend 51

/* Organism #52 Fitness: 7.94003 Error: 1.18219 */
genomestart 52
trait 1 0.1 0 0 0 0 0 0 0 
trait 2 0.15 0 0.183256 0.388337 0 0 0.410464 0 
trait 3 0.3 0 0 0 0 0 0 0 
node 1 3 1 3
node 2 2 1 1
node 3 1 1 1
node 4 3 0 2
node 13 1 0 0
gene 3 1 4 -3.07441 0 1 -3.07441 1
gene 3 2 4 3.01408 0 2 3.01408 1
gene 2 3 4 3.4917 0 3 3.4917 1
gene 2 3 13 0.342709 0 22 0.342709 1
gene 2 13 4 0.746332 0 23 0.746332 1
genomeend 52

/* Organism #53 Fitness: 8.30933 Error: 1.11741 */
genomestart 53
trait 1 0.1 0 0 0 0 0 0 0 
trait 2 0.15 0 0.183256 0.402171 0 0 0.436337 0 
trait 3 0.3 0 0 0 0 0 0 0 
node 1 3 1 3
node 2 2 1 1
node 3 1 1 1
node 4 3 0 2
node 13 1 0 0
gene 3 1 4 1.0455 0 1 1.0455 1
gene 3 2 4 4.31326 0 2 4.31326 1
gene 2 3 4 8 0 3 8 1
gene 2 3 13 1.02013 0 22 1.02013 1
gene 2 13 4 -2.91029 0 23 -2.91029 1
genomeend 53

/* Organism #54 Fitness: 8.99548 Error: 1.00075 */
genomestart 54
trait 1 0.1 0 0 0 0 0 0 0 
trait 2 0.1375 0 0.22907 0.443921 0 0 0.435462 0 
trait 3 0.3 0 0 0 0 0 0 0 
node 1 3 1 3
node 2 2 1 1
node 3 1 1 1
node 4 3 0 2
node 13 1 0 0
gene 3 1 4 -2.02783 0 1 -2.02783 1
gene 3 2 4 3.281 0 2 3.281 1
gene 2 3 4 4.14774 0 3 4.14774 1
gene 2 3 13 -3.00326 0 22 -3.00326 1
gene 2 13 4 1.00648 0 23 1.00648 1
genomeend 54

/* Organism #55 Fitness: 3.57468 Error: 2.10932 */
genomestart 55
trait 1 0.1 0 0 0 0 0 0 0 
trait 2 0.35 0 0.183256 0.409088 0 0 0.449274 0 
trait 3 0.3 0 0 0 0 0 0 0 
node 1 3 1 3
node 2 2 1 1
node 3 1 1 1
node 4 3 0 2
node 13 3 0 0
gene 3 1 4 -2.44433 0 1 -2.44433 1
gene 3 2 4 2.50006 0 2 2.50006 1
gene 3 3 4 1.49091 0 3 1.49091 1
gene 2 3 13 -0.954258 0 22 -0.954258 1
gene 3 13 4 0.701226 0 23 0.701226 1
genomeend 55

/* Organism #56 Fitness: 3.99997 Error: 2.00001 */
genomestart 56
trait 1 0.1 0 0 0 0 0 0 0 
trait 2 0.575 0 0.091628 0.318672 0 0 0.438087 0 
trait 3 0.3 0 0 0 0 0 0 0 
node 1 3 1 3
node 2 2 1 1
node 3 1 1 1
node 4 3 0 2
node 13 3 0 0
gene 3 1 4 -1.61258 0 1 -1.61258 1
gene 3 2 4 6.90115 0 2 6.90115 1
gene 2 3 4 -0.565667 0 3 -0.565667 1
gene 2 3 13 -1.20564 0 22 -1.20564 1
gene 2 13 4 -1.01417 0 23 -1.01417 1
genomeend 56

/* Organism #57 Fitness: 8.95521 Error: 1.00747 */
genomestart 57
trait 1 0.1 0 0 0 0 0 0 0 
trait 2 0.1375 0 0.22907 0.450837 0 0 0.448398 0 
trait 3 0.3 0 0 0 0 0 0 0 
node 1 3 1 3
node 2 2 1 1
node 3 1 1 1
node 4 3 0 2
node 13 1 0 0
gene 3 1 4 -1.3187 0 1 -1.3187 1
gene 3 2 4 5.17984 0 2 5.17984 1
gene 2 3 4 3.62838 0 3 3.62838 1
gene 1 3 13 -2.3577 0 22 -2.3577 1
gene 2 13 4 0.651158 0 23 0.651158 1
genomeend 57

/* Organism #58 Fitness: 8.27488 Error: 1.12339 */
genomestart 58
trait 1 0.1 0 0 0 0 0 0 0 
trait 2 0.125 0 0.274884 0.513337 0 0 0.486332 0 
trait 3 0.3 0 0 0 0 0 0 0 
node 1 3 1 3
node 2 2 1 1
node 3 1 1 1
node 4 3 0 2
node 13 1 0 0
gene 3 1 4 -0.819382 0 1 -0.819382 1
gene 3 2 4 1.2184 0 2 1.2184 1
gene 3 3 4 3.20937 0 3 3.20937 1
gene 2 3 13 -3.76456 0 22 -3.76456 1
gene 2 13 4 0.085311 0 23 0.085311 1
genomeend 58

/* Organism #59 Fitness: 8.96951 Error: 1.00509 */
genomestart 59
trait 1 0.1 0 0 0 0 0 0 0 
trait 2 0.575 0 0.091628 0.318672 0 0 0.438087 0 
trait 3 0.645283 0 0 0 0.51145 0 0.00208733 0.306605 
node 1 3 1 3
node 2 2 1 1
node 3 1 1 1
node 4 3 0 2
node 13 3 0 0
gene 3 1 4 -0.943346 0 1 -0.943346 1
gene 3 2 4 6.0882 0 2 6.0882 1
gene 2 3 4 2.06424 0 3 2.06424 1
gene 2 3 13 -0.843619 0 22 -0.843619 1
gene 2 13 4 -3.18815 0 23 -3.18815 1
genomeend 59

/* Organism #60 Fitness: 8.30808 Error: 1.11763 */
genomestart 60
trait 1 0.1 0 0 0 0 0 0 0 
trait 2 0.1375 0 0.22907 0.457754 0 0 0.461335 0 
trait 3 0.3 0 0 0 0 0 0 0 
node 1 3 1 3
node 2 2 1 1
node 3 1 1 1
node 4 3 0 2
node 13 1 0 0
gene 3 1 4 -0.905447 0 1 -0.905447 1
gene 3 2 4 1.22658 0 2 1.22658 1
gene 3 3 4 6.50203 0 3 6.50203 1
gene 2 3 13 -0.848486 0 22 -0.848486 1
gene 2 13 4 0.898186 0 23 0.898186 1
genomeend 60

/* Organism #61 Fitness: 4.01723 Error: 1.9957 */
genomestart 61
trait 1 0.1 0 0 0 0 0 0 0 
trait 2 0.1375 0 0.22907 0.457754 0 0 0.461335 0 
trait 3 0.3 0 0 0 0 0 0 0 
node 1 3 1 3
node 2 2 1 1
node 3 1 1 1
node 4 3 0 2
node 13 1 0 0
gene 3 1 4 1.44933 0 1 1.44933 1
gene 3 2 4 3.91263 0 2 3.91263 1
gene 3 3 4 4.86544 0 3 4.86544 1
gene 2 3 13 -2.29523 0 22 -2.29523 1
gene 2 13 4 -0.687522 0 23 -0.687522 1
genomeend 61

/* Organism #62 Fitness: 8.99911 Error: 1.00015 */
genomestart 62
trait 1 0.1 0 0 0 0 0 0 0 
trait 2 0.1375 0 0.22907 0.450837 0 0 0.448398 0 
trait 3 0.3 0 0 0 0 0 0 0 
node 1 3 1 3
node 2 2 1 1
node 3 1 1 1
node 4 3 0 2
node 13 1 0 0
gene 1 1 4 -2.95405 0 1 -2.95405 1
gene 3 2 4 5.01843 0 2 5.01843 1
gene 2 3 4 7.08253 0 3 7.08253 1
gene 2 3 13 -3.58926 0 22 -3.58926 1
gene 2 13 4 -0.54978 0 23 -0.54978 1
genomeend 62

/* Species #9 : (Size 14) (AF 7.77316) (Age 8)  */


/* Organism #63 Fitness: 9 Error: 1 */
genomestart 63
trait 1 0.1 0.0510765 0 0 0 0 0 0.0325408 
trait 2 0.2 0 0 0 0 0 0 0 
trait 3 0.357894 0.0499362 0 0 0 0.0830218 0 0 
node 1 3 1 3
node 2 2 1 1
node 3 2 1 1
node 4 2 0 2
node 16 1 0 0
gene 2 1 4 -0.681475 0 1 -0.681475 1
gene 3 2 4 4.26309 0 2 4.26309 1
gene 1 3 4 6.98304 0 3 6.98304 1
gene 3 2 16 -2.7768 0 30 -2.7768 1
gene 3 16 4 -3.62812 0 31 -3.62812 1
gene 3 1 16 0.227687 0 85 0.227687 1
genomeend 63

/* Organism #64 Fitness: 8.93319 Error: 1.01116 */
genomestart 64
trait 1 0.1 0.0510765 0 0 0 0 0 0.0325408 
trait 2 0.2 0 0 0 0 0 0 0 
trait 3 0.357894 0.0499362 0 0 0 0.0830218 0 0 
node 1 3 1 3
node 2 2 1 1
node 3 2 1 1
node 4 2 0 2
node 16 1 0 0
gene 2 1 4 0.680636 0 1 0.680636 1
gene 3 2 4 1.92971 0 2 1.92971 1
gene 1 3 4 6.62679 0 3 6.62679 1
gene 1 2 16 -0.61356 0 30 -0.61356 1
gene 3 16 4 -3.18287 0 31 -3.18287 1
genomeend 64

/* Organism #65 Fitness: 4.32069 Error: 1.92137 */
genomestart 65
trait 1 0.1 0.0510765 0 0 0 0 0 0.0325408 
trait 2 0.2 0 0 0 0 0 0 0 
trait 3 0.357894 0.0499362 0 0 0 0.0830218 0 0 
node 1 3 1 3
node 2 2 1 1
node 3 2 1 1
node 4 2 0 2
node 16 1 0 0
gene 2 1 4 0.378087 0 1 0.378087 1
gene 3 2 4 4.64547 0 2 4.64547 1
gene 1 3 4 3.50259 0 3 3.50259 1
gene 3 2 16 -3.07871 0 30 -3.07871 1
gene 3 16 4 0.243419 0 31 0.243419 1
genomeend 65

/* Organism #66 Fitness: 8.99999 Error: 1 */
genomestart 66
trait 1 0.1 0.0510765 0 0 0 0 0 0.0325408 
trait 2 0.2 0 0 0 0 0 0 0 
trait 3 0.357894 0.0499362 0 0 0 0.0830218 0 0 
node 1 3 1 3
node 2 2 1 1
node 3 2 1 1
node 4 2 0 2
node 16 1 0 0
gene 2 1 4 -1.33935 0 1 -1.33935 1
gene 3 2 4 5.15178 0 2 5.15178 1
gene 1 3 4 5.69526 0 3 5.69526 1
gene 1 2 16 -0.768374 0 30 -0.768374 1
gene 3 16 4 -1.92077 0 31 -1.92077 1
gene 3 1 16 0.227687 0 85 0.227687 1
genomeend 66

/* Organism #67 Fitness: 4.05255 Error: 1.98691 */
genomestart 67
trait 1 0.1 0.0510765 0 0 0 0 0 0.0325408 
trait 2 0.2 0 0 0 0 0 0 0 
trait 3 0.357894 0.0499362 0 0 0 0.0830218 0 0 
node 1 3 1 3
node 2 2 1 1
node 3 2 1 1
node 4 2 0 2
node 16 1 0 0
gene 2 1 4 0.752311 0 1 0.752311 1
gene 3 2 4 6.97006 0 2 6.97006 1
gene 1 3 4 7.12513 0 3 7.12513 1
gene 1 2 16 0.880822 0 30 0.880822 1
gene 3 16 4 0.250907 0 31 0.250907 1
genomeend 67

/* Organism #68 Fitness: 8.90697 Error: 1.01554 */
genomestart 68
trait 1 0.1 0.0510765 0 0 0 0 0 0.0325408 
trait 2 0.2 0 0 0 0 0 0 0 
trait 3 0.357894 0.0499362 0 0 0 0.0830218 0 0 
node 1 3 1 3
node 2 2 1 1
node 3 2 1 1
node 4 2 0 2
node 16 1 0 0
gene 2 1 4 -0.681475 0 1 -0.681475 1
gene 3 2 4 6.04046 0 2 6.04046 1
gene 1 3 4 6.98304 0 3 6.98304 1
gene 1 2 16 1.24006 0 30 1.24006 1
gene 3 16 4 -0.213408 0 31 -0.213408 1
gene 3 1 16 0.227687 0 85 0.227687 1
genomeend 68

/* Organism #69 Fitness: 8.98496 Error: 1.00251 */
genomestart 69
trait 1 0.1 0.0510765 0 0 0 0 0 0.0325408 
trait 2 0.2 0 0 0 0 0 0 0 
trait 3 0.357894 0.0499362 0 0 0 0.0830218 0 0 
node 1 3 1 3
node 2 2 1 1
node 3 2 1 1
node 4 2 0 2
node 16 1 0 0
gene 2 1 4 -0.681475 0 1 -0.681475 1
gene 3 2 4 1.89713 0 2 1.89713 1
gene 1 3 4 6.98304 0 3 6.98304 1
gene 3 2 16 -2.7768 0 30 -2.7768 1
gene 3 16 4 -4.56185 0 31 -4.56185 1
genomeend 69

/* Organism #70 Fitness: 8.99173 Error: 1.00138 */
genomestart 70
trait 1 0.1 0.0510765 0 0 0 0 0 0.0325408 
trait 2 0.2 0 0 0 0 0 0 0 
trait 3 0.357894 0.0499362 0 0 0 0.0830218 0 0 
node 1 2 1 3
node 2 2 1 1
node 3 2 1 1
node 4 2 0 2
node 16 1 0 0
gene 2 1 4 0.782792 0 1 0.782792 1
gene 3 2 4 5.19853 0 2 5.19853 1
gene 1 3 4 4.74253 0 3 4.74253 1
gene 3 2 16 -4.77214 0 30 -4.77214 1
gene 3 16 4 -4.3851 0 31 -4.3851 1
gene 3 1 16 0.620591 0 85 0.620591 1
genomeend 70

/* Organism #71 Fitness: 8.99998 Error: 1 */
genomestart 71
trait 1 0.1 0.0510765 0 0 0 0 0 0.0325408 
trait 2 0.2 0 0 0 0 0 0 0 
trait 3 0.357894 0.0499362 0 0 0 0.0830218 0 0 
node 1 3 1 3
node 2 2 1 1
node 3 2 1 1
node 4 2 0 2
node 16 1 0 0
gene 2 1 4 -0.525236 0 1 -0.525236 1
gene 3 2 4 3.08011 0 2 3.08011 1
gene 1 3 4 6.59189 0 3 6.59189 1
gene 3 2 16 -3.5842 0 30 -3.5842 1
gene 3 16 4 -4.09499 0 31 -4.09499 1
gene 3 1 16 0.227687 0 85 0.227687 1
genomeend 71

/* Organism #72 Fitness: 8.9805 Error: 1.00325 */
genomestart 72
trait 1 0.1 0.0510765 0 0 0 0 0 0.0325408 
trait 2 0.2 0 0 0 0 0 0 0 
trait 3 0.357894 0.0499362 0 0 0 0.0830218 0 0 
node 1 3 1 3
node 2 2 1 1
node 3 2 1 1
node 4 2 0 2
node 16 3 0 0
gene 2 1 4 -1.94051 0 1 -1.94051 1
gene 3 2 4 5.24584 0 2 5.24584 1
gene 1 3 4 5.686 0 3 5.686 1
gene 1 2 16 -0.312468 0 30 -0.312468 1
gene 3 16 4 1.55559 0 31 1.55559 1
genomeend 72

/* Organism #73 Fitness: 8.33123 Error: 1.11361 */
genomestart 73
trait 1 0.1 0.0510765 0 0 0 0 0 0.0325408 
trait 2 0.2 0 0 0 0 0 0 0 
trait 3 0.357894 0.0499362 0 0 0 0.0830218 0 0 
node 1 3 1 3
node 2 2 1 1
node 3 2 1 1
node 4 2 0 2
node 16 1 0 0
gene 2 1 4 -1.05568 0 1 -1.05568 1
gene 3 2 4 6.04046 0 2 6.04046 1
gene 1 3 4 7.1122 0 3 7.1122 1
gene 1 2 16 0.534696 0 30 0.534696 1
gene 3 16 4 1.27698 0 31 1.27698 1
genomeend 73

/* Organism #74 Fitness: 6.65298 Error: 1.42066 */
genomestart 74
trait 1 0.1 0.0510765 0 0 0 0 0 0.0325408 
trait 2 0.2 0 0 0 0 0 0 0 
trait 3 0.357894 0.0499362 0 0 0 0.0830218 0 0 
node 1 3 1 3
node 2 2 1 1
node 3 2 1 1
node 4 2 0 2
node 16 1 0 0
gene 2 1 4 -1.78378 0 1 -1.78378 1
gene 3 2 4 3.9916 0 2 3.9916 1
gene 1 3 4 5.8126 0 3 5.8126 1
gene 3 2 16 0.699323 0 30 0.699323 1
gene 3 16 4 -2.21128 0 31 -2.21128 1
genomeend 74

/* Organism #75 Fitness: 8.96774 Error: 1.00538 */
genomestart 75
trait 1 0.1 0.0510765 0 0 0 0 0 0.0325408 
trait 2 0.2 0 0 0 0 0 0 0 
trait 3 0.357894 0.0499362 0 0 0 0.0830218 0 0 
node 1 3 1 3
node 2 2 1 1
node 3 2 1 1
node 4 2 0 2
node 16 1 0 0
gene 2 1 4 0.0476308 0 1 0.0476308 1
gene 3 2 4 2.09685 0 2 2.09685 1
gene 1 3 4 2.45943 0 3 2.45943 1
gene 3 2 16 -4.39159 0 30 -4.39159 1
gene 3 16 4 -2.33804 0 31 -2.33804 1
genomeend 75

/* Organism #76 Fitness: 4.7017 Error: 1.83166 */
genomestart 76
trait 1 0.1 0.0510765 0 0 0 0 0 0.0325408 
trait 2 0.2 0 0 0 0 0 0 0 
trait 3 0.357894 0.0499362 0 0 0 0.0830218 0 0 
node 1 3 1 3
node 2 2 1 1
node 3 2 1 1
node 4 2 0 2
node 16 1 0 0
gene 2 1 4 -1.13956 0 1 -1.13956 1
gene 3 2 4 0.847085 0 2 0.847085 1
gene 1 3 4 6.20073 0 3 6.20073 1
gene 3 2 16 -0.863911 0 30 -0.863911 1
gene 3 16 4 -2.278 0 31 -2.278 1
genomeend 76

/* Species #10 : (Size 11) (AF 5.96536) (Age 7)  */


/* Organism #77 Fitness: 8.46629 Error: 1.09031 */
genomestart 77
trait 1 0.1 0.0510765 0 0 0 0 0 0.0325408 
trait 2 0.2 0 0 0 0 0 0 0 
trait 3 0.3 0 0 0 0 0 0 0 
node 1 3 1 3
node 2 1 1 1
node 3 3 1 1
node 4 1 0 2
node 12 1 0 0
gene 1 1 4 -2.09407 0 1 -2.09407 1
gene 1 2 4 -0.108377 0 2 -0.108377 0
gene 2 3 4 0.40237 0 3 0.40237 1
gene 1 2 12 3.79043 0 20 3.79043 1
gene 1 12 4 2.62098 0 21 2.62098 1
gene 2 3 12 1.35767 0 41 1.35767 1
genomeend 77

/* Organism #78 Fitness: 7.06513 Error: 1.34197 */
genomestart 78
trait 1 0.1 0.0510765 0 0 0 0 0 0.0325408 
trait 2 0.2 0 0 0 0 0 0 0 
trait 3 0.15 0 0 0.332701 0 0.00250124 0 0.247439 
node 1 3 1 3
node 2 1 1 1
node 3 3 1 1
node 4 1 0 2
node 12 1 0 0
gene 1 1 4 -2.09407 0 1 -2.09407 1
gene 1 2 4 -0.606267 0 2 -0.606267 0
gene 1 3 4 -1.01464 0 3 -1.01464 1
gene 1 2 12 3.79043 0 20 3.79043 1
gene 1 12 4 2.23449 0 21 2.23449 1
gene 2 3 12 1.35767 0 41 1.35767 1
genomeend 78

/* Organism #79 Fitness: 5.73535 Error: 1.60514 */
genomestart 79
trait 1 0.1 0.0510765 0 0 0 0 0 0.0325408 
trait 2 0.2 0 0 0.297736 0 0.218704 0 0 
trait 3 0.3 0 0 0 0 0 0 0 
node 1 3 1 3
node 2 1 1 1
node 3 3 1 1
node 4 1 0 2
node 12 1 0 0
gene 1 1 4 -3.11137 0 1 -3.11137 1
gene 1 2 4 1.063 0 2 1.063 0
gene 2 3 4 2.35713 0 3 2.35713 1
gene 1 2 12 4.73005 0 20 4.73005 1
gene 1 12 4 3.02499 0 21 3.02499 1
gene 2 3 12 1.95923 0 41 1.95923 1
genomeend 79

/* Organism #80 Fitness: 4.02304 Error: 1.99425 */
genomestart 80
trait 1 0.1 0.0510765 0 0 0 0 0 0.0325408 
trait 2 0.2 0 0 0 0 0 0 0 
trait 3 0.15 0 0 0.332701 0 0.00250124 0 0.247439 
node 1 3 1 3
node 2 1 1 1
node 3 3 1 1
node 4 1 0 2
node 12 1 0 0
gene 1 1 4 -1.9114 0 1 -1.9114 1
gene 1 2 4 -1.02412 0 2 -1.02412 0
gene 2 3 4 -0.000178649 0 3 -0.000178649 1
gene 1 2 12 3.74656 0 20 3.74656 1
gene 1 12 4 0.889623 0 21 0.889623 1
gene 2 3 12 1.74951 0 41 1.74951 1
genomeend 80

/* Organism #81 Fitness: 8.4083 Error: 1.10029 */
genomestart 81
trait 1 0.1 0.0510765 0 0 0 0 0 0.0325408 
trait 2 0.2 0 0 0 0 0 0 0 
trait 3 0.3 0 0 0 0 0 0 0 
node 1 3 1 3
node 2 1 1 1
node 3 3 1 1
node 4 1 0 2
node 12 1 0 0
gene 1 1 4 -2.09407 0 1 -2.09407 1
gene 1 2 4 -0.108377 0 2 -0.108377 0
gene 2 3 4 0.40237 0 3 0.40237 1
gene 1 2 12 3.79043 0 20 3.79043 1
gene 1 12 4 2.58731 0 21 2.58731 1
gene 2 3 12 1.30757 0 41 1.30757 1
genomeend 81

/* Organism #82 Fitness: 4 Error: 2 */
genomestart 82
trait 1 0.1 0.0510765 0 0 0 0 0 0.0325408 
trait 2 0.2 0 0 0 0 0 0 0 
trait 3 0 0 0 0.665402 0 0.00500248 0 0.494878 
node 1 3 1 3
node 2 1 1 1
node 3 3 1 1
node 4 1 0 2
node 12 1 0 0
gene 1 1 4 0.513397 0 1 0.513397 1
gene 1 2 4 -2.61599 0 2 -2.61599 0
gene 1 3 4 -0.0449128 0 3 -0.0449128 1
gene 1 2 12 5.03845 0 20 5.03845 1
gene 1 12 4 4.64334 0 21 4.64334 1
gene 2 3 12 3.99114 0 41 3.99114 1
genomeend 82

/* Organism #83 Fitness: 4.58848 Error: 1.85793 */
genomestart 83
trait 1 0.1 0.0510765 0 0 0 0 0 0.0325408 
trait 2 0.2 0 0 0 0 0 0 0 
trait 3 0.15 0 0 0.332701 0 0.00250124 0 0.247439 
node 1 3 1 3
node 2 1 1 1
node 3 3 1 1
node 4 1 0 2
node 12 2 0 0
gene 1 1 4 0.00541449 0 1 0.00541449 1
gene 1 2 4 0.0887891 0 2 0.0887891 0
gene 1 3 4 -0.982551 0 3 -0.982551 1
gene 1 2 12 5.5725 0 20 5.5725 1
gene 1 12 4 0.529427 0 21 0.529427 1
gene 2 3 12 1.69746 0 41 1.69746 1
genomeend 83

/* Organism #84 Fitness: 4.02963 Error: 1.99261 */
genomestart 84
trait 1 0.1 0.0510765 0 0 0 0 0 0.0325408 
trait 2 0.2 0 0 0 0 0 0 0 
trait 3 0.3 0.189003 0.651787 0 0 0 0 0.448853 
node 1 3 1 3
node 2 1 1 1
node 3 3 1 1
node 4 1 0 2
node 12 1 0 0
gene 1 1 4 -1.62662 0 1 -1.62662 1
gene 1 2 4 -2.10232 0 2 -2.10232 0
gene 2 3 4 0.719999 0 3 0.719999 1
gene 1 2 12 5.55151 0 20 5.55151 1
gene 1 12 4 0.677245 0 21 0.677245 1
gene 2 3 12 1.79687 0 41 1.79687 1
genomeend 84

/* Organism #85 Fitness: 4.00002 Error: 1.99999 */
genomestart 85
trait 1 0.1 0.0510765 0 0 0 0 0 0.0325408 
trait 2 0.2 0 0 0 0 0 0 0 
trait 3 0.3 0 0 0 0 0 0 0 
node 1 3 1 3
node 2 1 1 1
node 3 3 1 1
node 4 1 0 2
node 12 1 0 0
gene 1 1 4 -2.80194 0 1 -2.80194 1
gene 1 2 4 2.09418 0 2 2.09418 0
gene 2 3 4 0.930001 0 3 0.930001 1
gene 1 2 12 -0.370396 0 20 -0.370396 1
gene 1 12 4 0.23298 0 21 0.23298 1
gene 2 3 12 -0.556432 0 41 -0.556432 1
genomeend 85

/* Organism #86 Fitness: 6.49779 Error: 1.45092 */
genomestart 86
trait 1 0.1 0.0510765 0 0 0 0 0 0.0325408 
trait 2 0.2 0 0 0 0 0 0.973176 0 
trait 3 0.3 0 0 0 0 0 0 0 
node 1 3 1 3
node 2 1 1 1
node 3 3 1 1
node 4 1 0 2
node 12 1 0 0
gene 1 1 4 -3.4821 0 1 -3.4821 1
gene 1 2 4 1.46463 0 2 1.46463 0
gene 2 3 4 -1.62725 0 3 -1.62725 1
gene 1 2 12 5.32889 0 20 5.32889 1
gene 1 12 4 3.5226 0 21 3.5226 1
gene 2 3 12 -0.348639 0 41 -0.348639 1
genomeend 86

/* Organism #87 Fitness: 8.80486 Error: 1.0327 */
/* ##------$ WINNER 87 SPECIES #10 $------## */
genomestart 87
trait 1 0.1 0.0510765 0 0 0 0 0 0.0325408 
trait 2 0.2 0 0 0 0 0 0 0 
trait 3 0.15 0 0 0.332701 0 0.00250124 0 0.247439 
node 1 3 1 3
node 2 1 1 1
node 3 3 1 1
node 4 1 0 2
node 12 1 0 0
gene 1 1 4 -2.00274 0 1 -2.00274 1
gene 1 2 4 -0.357322 0 2 -0.357322 1
gene 2 3 4 -0.306135 0 3 -0.306135 1
gene 1 2 12 3.91432 0 20 3.91432 1
gene 1 12 4 2.42773 0 21 2.42773 1
gene 2 3 12 1.55359 0 41 1.55359 1
genomeend 87

/* Species #11 : (Size 13) (AF 5.64664) (Age 6)  */


/* Organism #88 Fitness: 9 Error: 1 */
genomestart 88
trait 1 0.1 0 0 0 0 0 0 0 
trait 2 0.2 0 0 0 0 0 0 0 
trait 3 0.3 0 0 0 0 0 0 0 
node 1 1 1 3
node 2 2 1 1
node 3 2 1 1
node 4 2 0 2
node 27 1 0 0
gene 2 1 4 -2.93483 0 1 -2.93483 1
gene 2 2 4 -8 0 2 -8 1
gene 1 3 4 6.66478 0 3 6.66478 0
gene 1 3 27 1.91943 0 66 1.91943 1
gene 1 27 4 7.94028 0 67 7.94028 1
gene 3 1 27 -1.52284 0 75 -1.52284 1
genomeend 88

/* Organism #89 Fitness: 7.29235 Error: 1.29956 */
genomestart 89
trait 1 0.1 0 0 0 0 0 0 0 
trait 2 0.2 0 0 0 0 0 0 0 
trait 3 0.3 0 0 0 0 0 0 0 
node 1 1 1 3
node 2 2 1 1
node 3 2 1 1
node 4 2 0 2
node 27 1 0 0
gene 2 1 4 -5.29143 0 1 -5.29143 1
gene 2 2 4 -0.908276 0 2 -0.908276 1
gene 1 3 4 0.225551 0 3 0.225551 0
gene 1 3 27 2.45803 0 66 2.45803 1
gene 1 27 4 6.15991 0 67 6.15991 1
gene 3 1 27 -1.72545 0 75 -1.72545 1
genomeend 89

/* Organism #90 Fitness: 8.96001 Error: 1.00667 */
genomestart 90
trait 1 0.1 0 0 0 0 0 0 0 
trait 2 0.2 0 0 0 0 0 0 0 
trait 3 0.3 0 0 0 0 0 0 0 
node 1 3 1 3
node 2 2 1 1
node 3 2 1 1
node 4 2 0 2
node 27 1 0 0
node 37 1 0 0
gene 2 1 4 -2.16294 0 1 -2.16294 1
gene 2 2 4 -6.72299 0 2 -6.72299 0
gene 1 3 4 8 0 3 8 0
gene 1 3 27 1.17731 0 66 1.17731 1
gene 1 27 4 8 0 67 8 1
gene 3 1 27 -0.872667 0 75 -0.872667 1
gene 2 2 37 1 0 95 0 1
gene 2 37 4 -6.72299 0 96 0 1
genomeend 90

/* Organism #91 Fitness: 9 Error: 1 */
genomestart 91
trait 1 0.1 0 0 0 0 0 0 0 
trait 2 0.2 0 0 0 0 0 0 0 
trait 3 0.3 0 0 0 0 0 0 0 
node 1 3 1 3
node 2 2 1 1
node 3 2 1 1
node 4 2 0 2
node 27 1 0 0
gene 2 1 4 -3.60571 0 1 -3.60571 1
gene 2 2 4 -6.72193 0 2 -6.72193 1
gene 1 3 4 7.91806 0 3 7.91806 0
gene 1 3 27 3.31604 0 66 3.31604 1
gene 1 27 4 7.66731 0 67 7.66731 1
gene 3 1 27 -2.86773 0 75 -2.86773 1
genomeend 91

/* Organism #92 Fitness: 8.99868 Error: 1.00022 */
genomestart 92
trait 1 0.1 0 0 0 0 0 0 0 
trait 2 0.2 0 0 0 0 0 0 0 
trait 3 0.3 0 0 0 0 0 0 0 
node 1 1 1 3
node 2 2 1 1
node 3 2 1 1
node 4 2 0 2
node 27 1 0 0
gene 2 1 4 -2.31302 0 1 -2.31302 1
gene 2 2 4 -8 0 2 -8 1
gene 1 3 4 4.88489 0 3 4.88489 0
gene 1 3 27 3.89684 0 66 3.89684 1
gene 1 27 4 7.75756 0 67 7.75756 1
gene 3 1 27 -3.88062 0 75 -3.88062 1
genomeend 92

/* Organism #93 Fitness: 4 Error: 2 */
genomestart 93
trait 1 0.1 0 0 0 0 0 0 0 
trait 2 0.2 0 0 0 0 0 0 0 
trait 3 0.3 0 0 0 0 0 0 0 
node 1 3 1 3
node 2 2 1 1
node 3 2 1 1
node 4 2 0 2
node 27 2 0 0
gene 2 1 4 -3.64306 0 1 -3.64306 1
gene 1 2 4 -4.6895 0 2 -4.6895 1
gene 1 3 4 8 0 3 8 0
gene 1 3 27 1.01164 0 66 1.01164 1
gene 1 27 4 7.07913 0 67 7.07913 1
gene 3 1 27 -2.22007 0 75 -2.22007 1
genomeend 93

/* Organism #94 Fitness: 4 Error: 2 */
genomestart 94
trait 1 0.1 0 0 0 0 0 0 0 
trait 2 0.2 0 0 0 0 0 0 0 
trait 3 0.3 0 0 0 0 0 0 0 
node 1 1 1 3
node 2 2 1 1
node 3 2 1 1
node 4 2 0 2
node 27 2 0 0
gene 2 1 4 -2.38274 0 1 -2.38274 1
gene 1 2 4 -7.00155 0 2 -7.00155 1
gene 1 3 4 7.74401 0 3 7.74401 0
gene 1 3 27 2.10278 0 66 2.10278 1
gene 1 27 4 6.78401 0 67 6.78401 1
gene 3 1 27 1.24408 0 75 1.24408 1
genomeend 94

/* Organism #95 Fitness: 3.99998 Error: 2 */
genomestart 95
trait 1 0.1 0 0 0 0 0 0 0 
trait 2 0.2 0 0 0 0 0 0 0 
trait 3 0.3 0 0 0 0 0 0 0 
node 1 3 1 3
node 2 2 1 1
node 3 2 1 1
node 4 2 0 2
node 27 2 0 0
gene 2 1 4 -3.77687 0 1 -3.77687 1
gene 1 2 4 -6.52613 0 2 -6.52613 1
gene 1 3 4 8 0 3 8 0
gene 1 3 27 1.37705 0 66 1.37705 1
gene 1 27 4 8 0 67 8 1
gene 3 1 27 0.922626 0 75 0.922626 1
genomeend 95

/* Organism #96 Fitness: 8.05994 Error: 1.161 */
genomestart 96
trait 1 0.1 0 0 0 0 0 0 0 
trait 2 0.2 0 0 0 0 0 0 0 
trait 3 0.3 0 0 0 0 0 0 0 
node 1 3 1 3
node 2 2 1 1
node 3 2 1 1
node 4 2 0 2
node 27 2 0 0
gene 2 1 4 -6.21131 0 1 -6.21131 1
gene 1 2 4 -4.97819 0 2 -4.97819 1
gene 1 3 4 5.8728 0 3 5.8728 0
gene 1 3 27 1.8148 0 66 1.8148 1
gene 1 27 4 6.54778 0 67 6.54778 1
gene 3 1 27 -0.0722625 0 75 -0.0722625 1
genomeend 96

/* Organism #97 Fitness: 4 Error: 2 */
genomestart 97
trait 1 0.1 0 0 0 0 0 0 0 
trait 2 0.2 0 0 0 0 0 0 0 
trait 3 0.3 0 0 0 0 0 0 0 
node 1 3 1 3
node 2 2 1 1
node 3 2 1 1
node 4 2 0 2
node 27 2 0 0
gene 2 1 4 -4.185 0 1 -4.185 1
gene 1 2 4 -4.87225 0 2 -4.87225 1
gene 1 3 4 4.94108 0 3 4.94108 0
gene 1 3 27 0.34531 0 66 0.34531 1
gene 1 27 4 7.18706 0 67 7.18706 1
gene 3 1 27 -2.50018 0 75 -2.50018 1
genomeend 97

/* Organism #98 Fitness: 4 Error: 2 */
genomestart 98
trait 1 0.1 0 0 0 0 0 0 0 
trait 2 0.2 0 0 0 0 0 0 0 
trait 3 0.3 0 0 0 0 0 0 0 
node 1 1 1 3
node 2 2 1 1
node 3 2 1 1
node 4 2 0 2
node 27 2 0 0
gene 2 1 4 -6.51513 0 1 -6.51513 1
gene 1 2 4 -4.88908 0 2 -4.88908 1
gene 1 3 4 7.22497 0 3 7.22497 0
gene 1 3 27 -0.626437 0 66 -0.626437 1
gene 3 27 4 7.25357 0 67 7.25357 1
gene 3 1 27 -3.89167 0 75 -3.89167 1
genomeend 98

/* Organism #99 Fitness: 1.08643 Error: 2.95768 */
genomestart 99
trait 1 0.1 0 0 0 0 0 0 0 
trait 2 0.2 0 0 0 0 0 0 0 
trait 3 0.3 0 0 0 0 0 0 0 
node 1 3 1 3
node 2 2 1 1
node 3 2 1 1
node 4 2 0 2
node 27 1 0 0
gene 2 1 4 -0.475261 0 1 -0.475261 1
gene 2 2 4 -8 0 2 -8 1
gene 1 3 4 7.64844 0 3 7.64844 1
gene 1 3 27 3.56319 0 66 3.56319 1
gene 1 27 4 8 0 67 8 1
gene 3 1 27 0.792706 0 75 0.792706 1
genomeend 99

/* Organism #100 Fitness: 1.00893 Error: 2.99554 */
genomestart 100
trait 1 0.1 0 0 0 0 0 0 0 
trait 2 0.2 0 0 0 0 0 0 0 
trait 3 0.3 0 0 0 0 0 0 0 
node 1 3 1 3
node 2 2 1 1
node 3 2 1 1
node 4 2 0 2
node 27 2 0 0
node 38 1 0 0
gene 2 1 4 -5.03983 0 1 -5.03983 1
gene 1 2 4 -5.79908 0 2 -5.79908 1
gene 1 3 4 6.61425 0 3 6.61425 1
gene 1 3 27 1.38905 0 66 1.38905 0
gene 1 27 4 8 0 67 8 1
gene 3 1 27 -0.452248 0 75 -0.452248 1
gene 1 3 38 1 0 97 0 1
gene 1 38 27 1.38905 0 98 0 1
genomeend 100

/* Species #12 : (Size 15) (AF 7.66759) (Age 6)  */


/* Organism #101 Fitness: 8.99993 Error: 1.00001 */
genomestart 101
trait 1 0.1 0 0 0 0 0 0 0 
trait 2 0.15 0 0 0.143483 0 0 0.0529864 0 
trait 3 0.3 0 0 0 0 0 0 0 
node 1 3 1 3
node 2 2 1 1
node 3 2 1 1
node 4 2 0 2
node 21 1 0 0
gene 2 1 4 -0.366481 0 1 -0.366481 1
gene 1 2 4 3.32103 0 2 3.32103 1
gene 3 3 4 -1.81199 0 3 -1.81199 0
gene 3 3 21 1.77507 0 46 1.77507 1
gene 1 21 4 -5.30999 0 47 -5.30999 1
gene 3 2 21 -0.643975 0 51 -0.643975 1
genomeend 101

/* Organism #102 Fitness: 8.99999 Error: 1 */
genomestart 102
trait 1 0.1 0 0 0 0 0 0 0 
trait 2 0.1 0 0 0.286966 0 0 0.105973 0 
trait 3 0.3 0 0 0 0 0 0 0 
node 1 3 1 3
node 2 2 1 1
node 3 2 1 1
node 4 2 0 2
node 21 1 0 0
gene 2 1 4 -0.788286 0 1 -0.788286 1
gene 1 2 4 3.48338 0 2 3.48338 1
gene 3 3 4 -1.31903 0 3 -1.31903 0
gene 3 3 21 4.0962 0 46 4.0962 1
gene 1 21 4 -5.8223 0 47 -5.8223 1
gene 3 2 21 -2.38978 0 51 -2.38978 1
genomeend 102

/* Organism #103 Fitness: 8.9724 Error: 1.0046 */
genomestart 103
trait 1 0.1 0 0 0 0 0 0 0 
trait 2 0.15 0 0 0.143483 0 0 0.0529864 0 
trait 3 0.3 0 0 0 0 0 0 0 
node 1 3 1 3
node 2 2 1 1
node 3 2 1 1
node 4 2 0 2
node 21 1 0 0
gene 2 1 4 -0.366481 0 1 -0.366481 1
gene 1 2 4 3.32103 0 2 3.32103 1
gene 3 3 4 -1.81199 0 3 -1.81199 0
gene 3 3 21 1.77507 0 46 1.77507 1
gene 1 21 4 -5.30999 0 47 -5.30999 1
gene 3 2 21 -0.643975 0 51 -0.643975 1
gene 2 1 21 0.518905 0 99 0.518905 1
genomeend 103

/* Organism #104 Fitness: 8.84583 Error: 1.02581 */
genomestart 104
trait 1 0.1 0 0 0 0 0 0 0 
trait 2 0.15 0 0 0.143483 0 0 0.0529864 0 
trait 3 0.3 0 0 0 0 0 0 0 
node 1 3 1 3
node 2 2 1 1
node 3 2 1 1
node 4 2 0 2
node 21 1 0 0
gene 2 1 4 -1.01939 0 1 -1.01939 1
gene 1 2 4 1.75934 0 2 1.75934 1
gene 3 3 4 -1.28986 0 3 -1.28986 0
gene 3 3 21 1.56138 0 46 1.56138 1
gene 1 21 4 -6.77978 0 47 -6.77978 1
gene 3 2 21 -1.64533 0 51 -1.64533 1
genomeend 104

/* Organism #105 Fitness: 8.99961 Error: 1.00007 */
genomestart 105
trait 1 0.1 0 0 0 0 0 0 0 
trait 2 0.125 0 0 0.215225 0 0 0.0794796 0 
trait 3 0.3 0 0 0 0 0 0 0 
node 1 3 1 3
node 2 2 1 1
node 3 2 1 1
node 4 2 0 2
node 21 1 0 0
gene 2 1 4 1.46901 0 1 1.46901 1
gene 1 2 4 3.0468 0 2 3.0468 1
gene 3 3 4 -2.49104 0 3 -2.49104 0
gene 3 3 21 3.97514 0 46 3.97514 1
gene 1 21 4 -7.29434 0 47 -7.29434 1
gene 3 2 21 -0.135798 0 51 -0.135798 1
genomeend 105

/* Organism #106 Fitness: 4.00578 Error: 1.99856 */
genomestart 106
trait 1 0.1 0 0 0 0 0 0 0 
trait 2 0.15 0 0 0.143483 0 0 0.0529864 0 
trait 3 0.3 0 0 0 0 0 0 0 
node 1 3 1 3
node 2 2 1 1
node 3 2 1 1
node 4 2 0 2
node 21 1 0 0
gene 2 1 4 -0.802912 0 1 -0.802912 1
gene 1 2 4 0.621032 0 2 0.621032 1
gene 3 3 4 1.40039 0 3 1.40039 1
gene 3 3 21 0.405115 0 46 0.405115 1
gene 1 21 4 -4.27041 0 47 -4.27041 1
gene 3 2 21 -0.206805 0 51 -0.206805 1
genomeend 106

/* Organism #107 Fitness: 4.00001 Error: 2 */
genomestart 107
trait 1 0.1 0 0 0 0 0 0 0 
trait 2 0.15 0 0 0.143483 0 0 0.0529864 0 
trait 3 0.3 0 0 0 0 0 0 0 
node 1 3 1 3
node 2 2 1 1
node 3 2 1 1
node 4 2 0 2
node 21 1 0 0
gene 2 1 4 -1.43886 0 1 -1.43886 1
gene 1 2 4 3.15887 0 2 3.15887 1
gene 3 3 4 -2.12445 0 3 -2.12445 0
gene 3 3 21 1.23311 0 46 1.23311 1
gene 1 21 4 -7.20295 0 47 -7.20295 1
gene 3 2 21 -2.93623 0 51 -2.93623 1
genomeend 107

/* Organism #108 Fitness: 3.99996 Error: 2.00001 */
genomestart 108
trait 1 0.1 0 0 0 0 0 0 0 
trait 2 0.125 0 0 0.215225 0 0 0.0794796 0 
trait 3 0.3 0 0 0 0 0 0 0 
node 1 3 1 3
node 2 2 1 1
node 3 2 1 1
node 4 2 0 2
node 21 1 0 0
gene 2 1 4 -2.18103 0 1 -2.18103 1
gene 1 2 4 4.17138 0 2 4.17138 1
gene 3 3 4 0.642605 0 3 0.642605 0
gene 3 3 21 -0.208597 0 46 -0.208597 1
gene 1 21 4 -1.5189 0 47 -1.5189 1
gene 3 2 21 -0.643975 0 51 -0.643975 1
genomeend 108

/* Organism #109 Fitness: 8.9724 Error: 1.0046 */
genomestart 109
trait 1 0.1 0 0 0 0 0 0 0 
trait 2 0.125 0 0 0.215225 0 0 0.0794796 0 
trait 3 0.3 0 0 0 0 0 0 0 
node 1 3 1 3
node 2 2 1 1
node 3 2 1 1
node 4 2 0 2
node 21 1 0 0
gene 2 1 4 -0.366481 0 1 -0.366481 1
gene 1 2 4 3.32103 0 2 3.32103 1
gene 3 3 4 -2.20965 0 3 -2.20965 0
gene 3 3 21 1.77507 0 46 1.77507 1
gene 1 21 4 -5.30999 0 47 -5.30999 1
gene 3 2 21 -0.643975 0 51 -0.643975 1
gene 2 1 21 0.518905 0 99 0 1
genomeend 109

/* Organism #110 Fitness: 4.22272 Error: 1.94508 */
genomestart 110
trait 1 0.626032 0.704103 0 0 0 0 0 0 
trait 2 0.15 0 0 0.143483 0 0 0.0529864 0 
trait 3 0.3 0 0 0 0 0 0 0 
node 1 3 1 3
node 2 2 1 1
node 3 2 1 1
node 4 2 0 2
node 21 1 0 0
gene 2 1 4 0.524708 0 1 0.524708 1
gene 1 2 4 4.64454 0 2 4.64454 1
gene 3 3 4 0.0230246 0 3 0.0230246 0
gene 3 3 21 -0.291341 0 46 -0.291341 1
gene 1 21 4 -5.73085 0 47 -5.73085 1
gene 3 2 21 -1.87123 0 51 -1.87123 1
genomeend 110

/* Organism #111 Fitness: 8.9984 Error: 1.00027 */
genomestart 111
trait 1 0.1 0 0 0 0 0 0 0 
trait 2 0.967544 0 0 0.520343 0 0.490553 0.105973 0.712005 
trait 3 0.3 0 0 0 0 0 0 0 
node 1 3 1 3
node 2 2 1 1
node 3 2 1 1
node 4 2 0 2
node 21 1 0 0
gene 1 1 4 -0.843598 0 1 -0.843598 1
gene 1 2 4 2.72847 0 2 2.72847 1
gene 3 3 4 -2.20965 0 3 -2.20965 0
gene 3 3 21 1.77507 0 46 1.77507 1
gene 1 21 4 -5.30999 0 47 -5.30999 1
gene 3 2 21 -0.643975 0 51 -0.643975 1
genomeend 111

/* Organism #112 Fitness: 8.9992 Error: 1.00013 */
genomestart 112
trait 1 0.1 0 0 0 0 0 0 0 
trait 2 0.125 0 0 0.215225 0 0 0.0794796 0 
trait 3 0.3 0 0 0 0 0 0 0 
node 1 3 1 3
node 2 2 1 1
node 3 2 1 1
node 4 2 0 2
node 21 1 0 0
gene 2 1 4 -0.605039 0 1 -0.605039 1
gene 1 2 4 2.63028 0 2 2.63028 1
gene 3 3 4 -2.20965 0 3 -2.20965 0
gene 3 3 21 1.77507 0 46 1.77507 1
gene 1 21 4 -5.30999 0 47 -5.30999 1
gene 3 2 21 -0.643975 0 51 -0.643975 1
genomeend 112

/* Organism #113 Fitness: 8.9984 Error: 1.00027 */
genomestart 113
trait 1 0.1 0 0 0 0 0 0 0 
trait 2 0.125 0 0 0.215225 0 0 0.0794796 0 
trait 3 0.3 0 0 0 0 0 0 0 
node 1 3 1 3
node 2 2 1 1
node 3 2 1 1
node 4 2 0 2
node 21 1 0 0
gene 2 1 4 -0.843598 0 1 -0.843598 1
gene 1 2 4 2.72847 0 2 2.72847 1
gene 3 3 4 -2.20965 0 3 -2.20965 0
gene 3 3 21 1.77507 0 46 1.77507 1
gene 1 21 4 -5.30999 0 47 -5.30999 1
gene 3 2 21 -0.643975 0 51 -0.643975 1
genomeend 113

/* Organism #114 Fitness: 8.99959 Error: 1.00007 */
genomestart 114
trait 1 0.1 0 0 0 0 0 0 0 
trait 2 0.15 0 0 0.143483 0 0 0.0529864 0 
trait 3 0.3 0 0 0 0 0 0 0 
node 1 3 1 3
node 2 2 1 1
node 3 2 1 1
node 4 2 0 2
node 21 1 0 0
gene 2 1 4 -0.366481 0 1 -0.366481 1
gene 1 2 4 2.53208 0 2 2.53208 1
gene 3 3 4 -1.81199 0 3 -1.81199 0
gene 3 3 21 1.77507 0 46 1.77507 1
gene 1 21 4 -5.30999 0 47 -5.30999 1
gene 3 2 21 -0.643975 0 51 -0.643975 1
genomeend 114

/* Organism #115 Fitness: 8.99959 Error: 1.00007 */
genomestart 115
trait 1 0.1 0 0 0 0 0 0 0 
trait 2 0.125 0 0 0.215225 0 0 0.0794796 0 
trait 3 0.3 0 0 0 0 0 0 0 
node 1 3 1 3
node 2 2 1 1
node 3 2 1 1
node 4 2 0 2
node 21 1 0 0
gene 2 1 4 -0.366481 0 1 -0.366481 1
gene 1 2 4 2.53208 0 2 2.53208 1
gene 3 3 4 -2.20965 0 3 -2.20965 0
gene 3 3 21 1.77507 0 46 1.77507 1
gene 1 21 4 -5.30999 0 47 -5.30999 1
gene 3 2 21 -0.643975 0 51 -0.643975 1
genomeend 115

/* Species #13 : (Size 14) (AF 6.87808) (Age 4)  */


/* Organism #116 Fitness: 8.99222 Error: 1.0013 */
genomestart 116
trait 1 0.05 0.371238 0.151144 0 0 0 0 0.0325408 
trait 2 0.2 0 0 0 0 0 0 0 
trait 3 0.3 0 0 0 0 0 0 0 
node 1 3 1 3
node 2 2 1 1
node 3 3 1 1
node 4 1 0 2
node 10 1 0 0
gene 1 1 4 -3.94428 0 1 -3.94428 1
gene 1 2 4 3.00276 0 2 3.00276 1
gene 3 3 4 3.33301 0 3 3.33301 1
gene 3 3 10 1.40766 0 14 1.40766 1
gene 3 10 4 5.18901 0 15 5.18901 1
gene 2 2 10 1.22174 0 48 1.22174 1
genomeend 116

/* Organism #117 Fitness: 4.04104 Error: 1.98977 */
genomestart 117
trait 1 0.05 0.371238 0.151144 0 0 0 0 0.0325408 
trait 2 0.2 0 0 0 0 0 0 0 
trait 3 0.3 0 0 0 0 0 0 0 
node 1 3 1 3
node 2 2 1 1
node 3 1 1 1
node 4 1 0 2
node 10 1 0 0
gene 1 1 4 -2.43795 0 1 -2.43795 1
gene 1 2 4 0.514838 0 2 0.514838 1
gene 3 3 4 1.63069 0 3 1.63069 1
gene 3 3 10 2.53666 0 14 2.53666 1
gene 3 10 4 2.08648 0 15 2.08648 1
gene 2 2 10 1.00619 0 48 1.00619 0
genomeend 117

/* Organism #118 Fitness: 8.31164 Error: 1.11701 */
genomestart 118
trait 1 0.05 0.371238 0.151144 0 0 0 0 0.0325408 
trait 2 0.2 0 0 0 0 0 0 0 
trait 3 0.3 0 0 0 0 0 0 0 
node 1 3 1 3
node 2 2 1 1
node 3 1 1 1
node 4 1 0 2
node 10 1 0 0
gene 1 1 4 -0.915879 0 1 -0.915879 1
gene 1 2 4 1.59405 0 2 1.59405 1
gene 3 3 4 2.49472 0 3 2.49472 1
gene 3 3 10 0.206491 0 14 0.206491 1
gene 3 10 4 0.998836 0 15 0.998836 1
gene 2 2 10 1.49294 0 48 1.49294 0
genomeend 118

/* Organism #119 Fitness: 4.00476 Error: 1.99881 */
genomestart 119
trait 1 0.05 0.371238 0.151144 0 0 0 0 0.0325408 
trait 2 0.2 0 0 0 0 0 0 0 
trait 3 0.3 0 0 0 0 0 0 0 
node 1 3 1 3
node 2 2 1 1
node 3 3 1 1
node 4 1 0 2
node 10 1 0 0
gene 1 1 4 -0.0608137 0 1 -0.0608137 1
gene 1 2 4 2.89 0 2 2.89 1
gene 3 3 4 2.25578 0 3 2.25578 1
gene 3 3 10 5.83321 0 14 5.83321 1
gene 3 10 4 2.85642 0 15 2.85642 1
gene 2 2 10 1.23293 0 48 1.23293 1
genomeend 119

/* Organism #120 Fitness: 8.99222 Error: 1.0013 */
genomestart 120
trait 1 0.05 0.371238 0.151144 0 0 0 0 0.0325408 
trait 2 0.2 0 0 0 0 0 0 0 
trait 3 0.3 0 0 0 0 0 0 0 
node 1 3 1 3
node 2 2 1 1
node 3 3 1 1
node 4 1 0 2
node 10 1 0 0
gene 1 1 4 -3.94428 0 1 -3.94428 1
gene 1 2 4 3.00276 0 2 3.00276 1
gene 3 3 4 3.33301 0 3 3.33301 1
gene 3 3 10 1.40766 0 14 1.40766 1
gene 3 10 4 5.18901 0 15 5.18901 1
gene 2 2 10 1.22174 0 48 1.22174 1
genomeend 120

/* Organism #121 Fitness: 8.71976 Error: 1.04708 */
genomestart 121
trait 1 0.05 0.371238 0.151144 0 0 0 0 0.0325408 
trait 2 0.2 0 0 0 0 0 0 0 
trait 3 0.3 0 0 0 0 0 0 0 
node 1 3 1 3
node 2 2 1 1
node 3 1 1 1
node 4 1 0 2
node 10 1 0 0
gene 1 1 4 -0.915879 0 1 -0.915879 1
gene 1 2 4 1.59405 0 2 1.59405 1
gene 3 3 4 2.49472 0 3 2.49472 1
gene 3 3 10 -1.17695 0 14 -1.17695 1
gene 3 10 4 -0.0845778 0 15 -0.0845778 1
gene 2 2 10 0.615026 0 48 0.615026 0
gene 1 1 10 -0.343106 0 100 -0.343106 1
genomeend 121

/* Organism #122 Fitness: 8.95817 Error: 1.00698 */
genomestart 122
trait 1 0.05 0.371238 0.151144 0 0 0 0 0.0325408 
trait 2 0.2 0 0 0 0 0 0 0 
trait 3 0.3 0 0 0 0 0 0 0 
node 1 3 1 3
node 2 2 1 1
node 3 1 1 1
node 4 1 0 2
node 10 1 0 0
gene 1 1 4 -2.43008 0 1 -2.43008 1
gene 1 2 4 2.2984 0 2 2.2984 1
gene 3 3 4 2.91387 0 3 2.91387 1
gene 3 3 10 0.115355 0 14 0.115355 1
gene 3 10 4 2.55222 0 15 2.55222 1
gene 2 2 10 0.918384 0 48 0.918384 0
genomeend 122

/* Organism #123 Fitness: 6.0121 Error: 1.54804 */
genomestart 123
trait 1 0.05 0.371238 0.151144 0 0 0 0 0.0325408 
trait 2 0.2 0 0 0 0 0 0 0 
trait 3 0.3 0 0 0 0 0 0 0 
node 1 3 1 3
node 2 2 1 1
node 3 1 1 1
node 4 1 0 2
node 10 1 0 0
gene 1 1 4 -0.140245 0 1 -0.140245 1
gene 1 2 4 2.57888 0 2 2.57888 1
gene 3 3 4 4.69727 0 3 4.69727 1
gene 3 3 10 5.90558 0 14 5.90558 1
gene 3 10 4 0.358776 0 15 0.358776 1
gene 2 2 10 0.11393 0 48 0.11393 0
genomeend 123

/* Organism #124 Fitness: 8.92354 Error: 1.01277 */
genomestart 124
trait 1 0.05 0.371238 0.151144 0 0 0 0 0.0325408 
trait 2 0.2 0 0 0 0 0 0 0 
trait 3 0.3 0 0 0 0 0 0 0 
node 1 3 1 3
node 2 2 1 1
node 3 3 1 1
node 4 1 0 2
node 10 1 0 0
gene 1 1 4 -3.71169 0 1 -3.71169 1
gene 1 2 4 2.44023 0 2 2.44023 1
gene 3 3 4 1.65613 0 3 1.65613 1
gene 3 3 10 2.83253 0 14 2.83253 1
gene 3 10 4 5.65753 0 15 5.65753 1
gene 2 2 10 3.05265 0 48 3.05265 1
genomeend 124

/* Organism #125 Fitness: 2.80147 Error: 2.32624 */
genomestart 125
trait 1 0.05 0.371238 0.151144 0 0 0 0 0.0325408 
trait 2 0.2 0 0 0 0 0 0 0 
trait 3 0.3 0 0 0 0 0 0 0 
node 1 3 1 3
node 2 2 1 1
node 3 3 1 1
node 4 1 0 2
node 10 1 0 0
gene 1 1 4 0.978745 0 1 0.978745 1
gene 1 2 4 0.259791 0 2 0.259791 1
gene 3 3 4 2.99642 0 3 2.99642 1
gene 3 3 10 3.312 0 14 3.312 1
gene 3 10 4 -2.23864 0 15 -2.23864 1
gene 2 2 10 1.19068 0 48 1.19068 1
genomeend 125

/* Organism #126 Fitness: 3.97875 Error: 2.00532 */
genomestart 126
trait 1 0.05 0.371238 0.151144 0 0 0 0 0.0325408 
trait 2 0.2 0 0 0 0 0 0 0 
trait 3 0.3 0 0 0 0 0 0 0 
node 1 3 1 3
node 2 2 1 1
node 3 1 1 1
node 4 1 0 2
node 10 1 0 0
node 37 1 0 0
gene 1 1 4 -3.94428 0 1 -3.94428 1
gene 1 2 4 3.00276 0 2 3.00276 0
gene 3 3 4 3.33301 0 3 3.33301 1
gene 3 3 10 -1.17695 0 14 -1.17695 1
gene 3 10 4 -0.0845778 0 15 -0.0845778 1
gene 2 2 10 0.615026 0 48 0.615026 0
gene 1 2 37 1 0 95 0 1
gene 1 37 4 3.00276 0 96 0 1
genomeend 126

/* Organism #127 Fitness: 8.72698 Error: 1.04585 */
genomestart 127
trait 1 0.05 0.371238 0.151144 0 0 0 0 0.0325408 
trait 2 0.2 0 0 0 0 0 0 0 
trait 3 0.3 0 0 0 0 0 0 0 
node 1 3 1 3
node 2 2 1 1
node 3 3 1 1
node 4 1 0 2
node 10 1 0 0
gene 1 1 4 -1.19342 0 1 -1.19342 1
gene 1 2 4 1.91484 0 2 1.91484 1
gene 3 3 4 1.29088 0 3 1.29088 1
gene 3 3 10 4.78971 0 14 4.78971 1
gene 3 10 4 1.13046 0 15 1.13046 1
gene 2 2 10 1.22263 0 48 1.22263 1
genomeend 127

/* Organism #128 Fitness: 4.83631 Error: 1.80084 */
genomestart 128
trait 1 0.05 0.371238 0.151144 0 0 0 0 0.0325408 
trait 2 0.2 0 0 0 0 0 0 0 
trait 3 0.3 0 0 0 0 0 0 0 
node 1 3 1 3
node 2 2 1 1
node 3 1 1 1
node 4 1 0 2
node 10 1 0 0
gene 1 1 4 -2.4806 0 1 -2.4806 1
gene 1 2 4 2.42275 0 2 2.42275 1
gene 3 3 4 0.417268 0 3 0.417268 1
gene 3 3 10 0.115355 0 14 0.115355 1
gene 3 10 4 2.79937 0 15 2.79937 1
gene 2 2 10 0.795786 0 48 0.795786 1
genomeend 128

/* Organism #129 Fitness: 8.99421 Error: 1.00097 */
genomestart 129
trait 1 0.05 0.371238 0.151144 0 0 0 0 0.0325408 
trait 2 0.2 0 0 0 0 0 0 0 
trait 3 0.3 0 0 0 0 0 0 0 
node 1 3 1 3
node 2 2 1 1
node 3 3 1 1
node 4 1 0 2
node 10 1 0 0
gene 1 1 4 -2.81278 0 1 -2.81278 1
gene 1 2 4 4.78841 0 2 4.78841 1
gene 3 3 4 5.24486 0 3 5.24486 1
gene 3 3 10 -0.906514 0 14 -0.906514 1
gene 3 10 4 2.80402 0 15 2.80402 1
gene 2 2 10 -0.844076 0 48 -0.844076 0
genomeend 129

/* Species #14 : (Size 11) (AF 5.59254) (Age 4)  */


/* Organism #130 Fitness: 8.29192 Error: 1.12043 */
genomestart 130
trait 1 0.1 0.0510765 0 0 0 0 0 0.0325408 
trait 2 0.2 0 0 0 0 0 0 0 
trait 3 0.357894 0.0499362 0 0 0 0.0830218 0 0 
node 1 3 1 3
node 2 2 1 1
node 3 2 1 1
node 4 2 0 2
node 16 1 0 0
node 27 1 0 0
gene 2 1 4 -4.48608 0 1 -4.48608 1
gene 3 2 4 2.75328 0 2 2.75328 0
gene 1 3 4 3.25642 0 3 3.25642 0
gene 3 2 16 3.64404 0 30 3.64404 1
gene 3 16 4 2.36101 0 31 2.36101 1
gene 1 3 27 3.40353 0 66 3.40353 1
gene 1 27 4 5.18227 0 67 5.18227 1
genomeend 130

/* Organism #131 Fitness: 8.79815 Error: 1.03383 */
genomestart 131
trait 1 0.1 0.0510765 0 0 0 0 0 0.0325408 
trait 2 0.2 0 0 0 0 0 0 0 
trait 3 0.357894 0.0499362 0 0 0 0.0830218 0 0 
node 1 3 1 3
node 2 2 1 1
node 3 2 1 1
node 4 2 0 2
node 16 1 0 0
node 27 1 0 0
gene 2 1 4 -4.78867 0 1 -4.78867 1
gene 3 2 4 -0.00720076 0 2 -0.00720076 0
gene 1 3 4 7.01007 0 3 7.01007 0
gene 3 2 16 0.955055 0 30 0.955055 1
gene 3 16 4 4.16438 0 31 4.16438 1
gene 1 3 27 2.31122 0 66 2.31122 1
gene 1 27 4 3.49391 0 67 3.49391 1
genomeend 131

/* Organism #132 Fitness: 2.294 Error: 2.4854 */
genomestart 132
trait 1 0.1 0.0510765 0 0 0 0 0 0.0325408 
trait 2 0.2 0 0 0 0 0 0 0 
trait 3 0.357894 0.0499362 0 0 0 0.0830218 0 0 
node 1 3 1 3
node 2 2 1 1
node 3 2 1 1
node 4 2 0 2
node 16 1 0 0
node 27 1 0 0
gene 2 1 4 -5.06306 0 1 -5.06306 1
gene 3 2 4 4.27624 0 2 4.27624 0
gene 1 3 4 4.81609 0 3 4.81609 0
gene 3 2 16 4.84875 0 30 4.84875 1
gene 3 16 4 2.69814 0 31 2.69814 1
gene 1 3 27 3.69761 0 66 3.69761 1
gene 1 27 4 3.6689 0 67 3.6689 1
genomeend 132

/* Organism #133 Fitness: 8.0564 Error: 1.16162 */
genomestart 133
trait 1 0.1 0.0510765 0 0 0 0 0 0.0325408 
trait 2 0.2 0 0 0 0 0 0 0 
trait 3 0.357894 0.0499362 0 0 0 0.0830218 0 0 
node 1 3 1 3
node 2 2 1 1
node 3 2 1 1
node 4 2 0 2
node 16 1 0 0
node 27 1 0 0
gene 2 1 4 -3.45901 0 1 -3.45901 1
gene 3 2 4 2.12096 0 2 2.12096 0
gene 1 3 4 3.35294 0 3 3.35294 1
gene 3 2 16 2.9716 0 30 2.9716 1
gene 3 16 4 2.41725 0 31 2.41725 1
gene 1 3 27 0.548355 0 66 0.548355 1
gene 1 27 4 2.79861 0 67 2.79861 1
genomeend 133

/* Organism #134 Fitness: 5.70473 Error: 1.61154 */
genomestart 134
trait 1 0.1 0.0510765 0 0 0 0 0 0.0325408 
trait 2 0.2 0 0 0 0 0 0 0 
trait 3 0.357894 0.0499362 0 0 0 0.0830218 0 0 
node 1 3 1 3
node 2 2 1 1
node 3 2 1 1
node 4 2 0 2
node 16 1 0 0
node 27 1 0 0
gene 2 1 4 -3.48207 0 1 -3.48207 1
gene 3 2 4 2.14242 0 2 2.14242 0
gene 1 3 4 2.47155 0 3 2.47155 0
gene 3 2 16 4.97148 0 30 4.97148 1
gene 3 16 4 1.6259 0 31 1.6259 1
gene 1 3 27 0.99083 0 66 0.99083 1
gene 1 27 4 5.50205 0 67 5.50205 1
genomeend 134

/* Organism #135 Fitness: 3.98279 Error: 2.00431 */
genomestart 135
trait 1 0.1 0.0510765 0 0 0 0 0 0.0325408 
trait 2 0.2 0 0 0 0 0 0 0 
trait 3 0.357894 0.0499362 0 0 0 0.0830218 0 0 
node 1 3 1 3
node 2 2 1 1
node 3 2 1 1
node 4 2 0 2
node 16 1 0 0
node 27 1 0 0
gene 2 1 4 -5.29134 0 1 -5.29134 1
gene 3 2 4 3.74677 0 2 3.74677 0
gene 1 3 4 3.1232 0 3 3.1232 0
gene 3 2 16 3.65716 0 30 3.65716 1
gene 3 16 4 1.33492 0 31 1.33492 1
gene 1 3 27 5.87754 0 66 5.87754 1
gene 1 27 4 5.60593 0 67 5.60593 1
genomeend 135

/* Organism #136 Fitness: 3.93447 Error: 2.01645 */
genomestart 136
trait 1 0.1 0.0510765 0 0 0 0 0 0.0325408 
trait 2 0.2 0 0 0 0 0 0 0 
trait 3 0.357894 0.0499362 0 0 0 0.0830218 0 0 
node 1 3 1 3
node 2 2 1 1
node 3 2 1 1
node 4 2 0 2
node 16 1 0 0
node 27 1 0 0
gene 2 1 4 -1.4081 0 1 -1.4081 1
gene 3 2 4 2.38938 0 2 2.38938 0
gene 1 3 4 1.78968 0 3 1.78968 0
gene 3 2 16 4.67007 0 30 4.67007 1
gene 3 16 4 4.47511 0 31 4.47511 1
gene 1 3 27 -2.30233 0 66 -2.30233 1
gene 1 27 4 2.07973 0 67 2.07973 1
genomeend 136

/* Organism #137 Fitness: 1.23043 Error: 2.89075 */
genomestart 137
trait 1 0.1 0.0510765 0 0 0 0 0 0.0325408 
trait 2 0.2 0 0 0 0 0 0 0 
trait 3 0.357894 0.0499362 0 0 0 0.0830218 0 0 
node 1 3 1 3
node 2 2 1 1
node 3 2 1 1
node 4 2 0 2
node 16 1 0 0
node 27 1 0 0
gene 2 1 4 -5.73024 0 1 -5.73024 1
gene 3 2 4 3.52995 0 2 3.52995 0
gene 1 3 4 3.92742 0 3 3.92742 0
gene 3 2 16 0.555226 0 30 0.555226 1
gene 3 16 4 2.90412 0 31 2.90412 1
gene 1 3 27 3.05671 0 66 3.05671 1
gene 1 27 4 3.47745 0 67 3.47745 1
genomeend 137

/* Organism #138 Fitness: 7.10419 Error: 1.33463 */
genomestart 138
trait 1 0.1 0.0510765 0 0 0 0 0 0.0325408 
trait 2 0.2 0 0 0 0 0 0 0 
trait 3 0.357894 0.0499362 0 0 0 0.0830218 0 0 
node 1 3 1 3
node 2 2 1 1
node 3 2 1 1
node 4 2 0 2
node 16 1 0 0
node 27 1 0 0
gene 2 1 4 -4.28304 0 1 -4.28304 1
gene 3 2 4 2.33369 0 2 2.33369 0
gene 1 3 4 4.58258 0 3 4.58258 0
gene 3 2 16 3.01739 0 30 3.01739 1
gene 3 16 4 2.65148 0 31 2.65148 1
gene 1 3 27 1.22415 0 66 1.22415 1
gene 1 27 4 3.621 0 67 3.621 1
genomeend 138

/* Organism #139 Fitness: 4 Error: 2 */
genomestart 139
trait 1 0.1 0.0510765 0 0 0 0 0 0.0325408 
trait 2 0.2 0 0 0 0 0 0 0 
trait 3 0.357894 0.0499362 0 0 0 0.0830218 0 0 
node 1 3 1 3
node 2 2 1 1
node 3 2 1 1
node 4 2 0 2
node 16 1 0 0
node 27 1 0 0
gene 2 1 4 -6.1701 0 1 -6.1701 1
gene 3 2 4 0.0813173 0 2 0.0813173 0
gene 1 3 4 -2.3748 0 3 -2.3748 0
gene 3 2 16 0.652399 0 30 0.652399 1
gene 3 16 4 0.522445 0 31 0.522445 1
gene 1 3 27 -1.25917 0 66 -1.25917 1
gene 1 27 4 2.74455 0 67 2.74455 1
genomeend 139

/* Organism #140 Fitness: 8.12089 Error: 1.15028 */
genomestart 140
trait 1 0.1 0.0510765 0 0 0 0 0 0.0325408 
trait 2 0.2 0 0 0 0 0 0 0 
trait 3 0.357894 0.0499362 0 0 0 0.0830218 0 0 
node 1 3 1 3
node 2 2 1 1
node 3 2 1 1
node 4 2 0 2
node 16 1 0 0
node 27 1 0 0
gene 2 1 4 -4.28304 0 1 -4.28304 1
gene 3 2 4 2.75328 0 2 2.75328 0
gene 1 3 4 3.25642 0 3 3.25642 0
gene 3 2 16 3.64404 0 30 3.64404 1
gene 3 16 4 2.65148 0 31 2.65148 1
gene 1 3 27 1.22415 0 66 1.22415 1
gene 1 27 4 5.18227 0 67 5.18227 1
genomeend 140

/* Species #15 : (Size 8) (AF 4.06095) (Age 2)  */


/* Organism #141 Fitness: 4.00001 Error: 2 */
genomestart 141
trait 1 0.1 0 0 0 0 0 0 0 
trait 2 0.2 0 0 0 0 0 0 0 
trait 3 0.3 0 0 0 0 0 0 0 
node 1 3 1 3
node 2 2 1 1
node 3 3 1 1
node 4 2 0 2
node 7 1 0 0
node 32 1 0 0
gene 2 1 4 1.71505 0 1 1.71505 1
gene 1 2 4 -6.78006 0 2 -6.78006 1
gene 2 3 4 -4.55525 0 3 -4.55525 0
gene 2 3 7 -3.25935 0 8 -3.25935 0
gene 2 7 4 -4.8781 0 9 -4.8781 1
gene 3 2 7 2.36556 0 49 2.36556 1
gene 2 3 32 1 0 81 0 1
gene 2 32 7 -3.25935 0 82 0 1
genomeend 141

/* Organism #142 Fitness: 3.9989 Error: 2.00027 */
genomestart 142
trait 1 0.1 0 0 0 0 0 0 0 
trait 2 0.2 0 0 0 0 0 0 0 
trait 3 0.3 0 0 0 0 0 0 0 
node 1 3 1 3
node 2 2 1 1
node 3 3 1 1
node 4 2 0 2
node 7 1 0 0
node 32 1 0 0
gene 2 1 4 3.77139 0 1 3.77139 1
gene 1 2 4 -7.43854 0 2 -7.43854 1
gene 2 3 4 -4.77858 0 3 -4.77858 0
gene 2 3 7 -3.87331 0 8 -3.87331 0
gene 2 7 4 -2.92912 0 9 -2.92912 1
gene 3 2 7 -0.366525 0 49 -0.366525 1
gene 2 3 32 1.70102 0 81 1.70102 1
gene 2 32 7 0.207063 0 82 0.207063 1
genomeend 142

/* Organism #143 Fitness: 4 Error: 2 */
genomestart 143
trait 1 0.1 0 0 0 0 0 0 0 
trait 2 0.2 0 0 0 0 0 0 0 
trait 3 0.3 0 0 0 0 0 0 0 
node 1 3 1 3
node 2 2 1 1
node 3 3 1 1
node 4 2 0 2
node 7 3 0 0
node 32 1 0 0
gene 2 1 4 4.0454 0 1 4.0454 1
gene 1 2 4 -8 0 2 -8 1
gene 2 3 4 -3.10166 0 3 -3.10166 0
gene 2 3 7 -2.97543 0 8 -2.97543 0
gene 2 7 4 -7.1528 0 9 -7.1528 1
gene 3 2 7 0.172388 0 49 0.172388 1
gene 2 3 32 2.12771 0 81 2.12771 1
gene 2 32 7 -5.38056 0 82 -5.38056 1
genomeend 143

/* Organism #144 Fitness: 3.98922 Error: 2.0027 */
genomestart 144
trait 1 0.1 0 0 0 0 0 0 0 
trait 2 0.2 0 0 0 0 0 0 0 
trait 3 0.3 0 0 0 0 0 0 0 
node 1 3 1 3
node 2 2 1 1
node 3 3 1 1
node 4 2 0 2
node 7 1 0 0
node 32 1 0 0
gene 2 1 4 1.71505 0 1 1.71505 1
gene 1 2 4 -6.78006 0 2 -6.78006 1
gene 2 3 4 -4.55525 0 3 -4.55525 0
gene 2 3 7 -3.25935 0 8 -3.25935 0
gene 2 7 4 -4.8781 0 9 -4.8781 1
gene 3 2 7 2.36556 0 49 2.36556 1
gene 2 3 32 1 0 81 0 1
gene 2 32 7 -3.25935 0 82 0 1
gene 1 32 4 -0.576835 0 101 -0.576835 1
genomeend 144

/* Organism #145 Fitness: 4 Error: 2 */
genomestart 145
trait 1 0.1 0 0 0 0 0 0 0 
trait 2 0.2 0 0 0 0 0 0 0 
trait 3 0.3 0 0 0 0 0 0 0 
node 1 3 1 3
node 2 2 1 1
node 3 3 1 1
node 4 2 0 2
node 7 1 0 0
node 32 1 0 0
gene 2 1 4 -2.29043 0 1 -2.29043 1
gene 1 2 4 -2.47079 0 2 -2.47079 1
gene 2 3 4 -5.12164 0 3 -5.12164 0
gene 2 3 7 -0.95537 0 8 -0.95537 0
gene 2 7 4 -6.70359 0 9 -6.70359 1
gene 3 2 7 2.34039 0 49 2.34039 1
gene 2 3 32 1 0 81 1 1
gene 2 32 7 -3.10484 0 82 -3.10484 1
genomeend 145

/* Organism #146 Fitness: 4.49939 Error: 1.87882 */
genomestart 146
trait 1 0.1 0 0 0 0 0 0 0 
trait 2 0.2 0 0 0 0 0 0 0 
trait 3 0.3 0 0 0 0 0 0 0 
node 1 3 1 3
node 2 2 1 1
node 3 3 1 1
node 4 2 0 2
node 7 1 0 0
node 32 1 0 0
gene 2 1 4 -0.00776879 0 1 -0.00776879 1
gene 1 2 4 -7.58037 0 2 -7.58037 1
gene 2 3 4 -6.77735 0 3 -6.77735 0
gene 2 3 7 -2.401 0 8 -2.401 0
gene 2 7 4 -4.00267 0 9 -4.00267 1
gene 3 2 7 2.66039 0 49 2.66039 1
gene 2 3 32 1.33795 0 81 1.33795 1
gene 2 32 7 -1.4717 0 82 -1.4717 1
genomeend 146

/* Organism #147 Fitness: 4 Error: 2 */
genomestart 147
trait 1 0.1 0 0 0 0 0 0 0 
trait 2 0.2 0 0 0 0 0 0 0 
trait 3 0.3 0 0 0 0 0 0 0 
node 1 3 1 3
node 2 2 1 1
node 3 3 1 1
node 4 2 0 2
node 7 1 0 0
node 32 1 0 0
gene 2 1 4 2.60804 0 1 2.60804 1
gene 1 2 4 -7.11769 0 2 -7.11769 1
gene 2 3 4 -6.35833 0 3 -6.35833 0
gene 2 3 7 -2.6411 0 8 -2.6411 0
gene 2 7 4 -3.25821 0 9 -3.25821 1
gene 3 2 7 3.75652 0 49 3.75652 1
gene 2 3 32 0.0781145 0 81 0.0781145 1
gene 2 32 7 -3.63319 0 82 -3.63319 1
genomeend 147

/* Organism #148 Fitness: 4.00008 Error: 1.99998 */
genomestart 148
trait 1 0.1 0 0 0 0 0 0 0 
trait 2 0.2 0 0 0 0 0 0 0 
trait 3 0.3 0 0 0 0 0 0 0 
node 1 3 1 3
node 2 2 1 1
node 3 3 1 1
node 4 2 0 2
node 7 1 0 0
node 32 1 0 0
gene 2 1 4 1.71505 0 1 1.71505 1
gene 1 2 4 -8 0 2 -8 1
gene 2 3 4 -3.56949 0 3 -3.56949 0
gene 2 3 7 -5.63607 0 8 -5.63607 0
gene 2 7 4 -7.29508 0 9 -7.29508 1
gene 3 2 7 3.59788 0 49 3.59788 1
gene 2 3 32 2.28894 0 81 2.28894 1
gene 2 32 7 -2.45159 0 82 -2.45159 1
genomeend 148

/* Species #16 : (Size 1) (AF 8.99977) (Age 1)  */


/* Organism #149 Fitness: 8.99977 Error: 1.00004 */
genomestart 149
trait 1 0.1 0.0510765 0 0 0 0 0 0.0325408 
trait 2 0.2 0 0 0 0 0 0 0 
trait 3 0.357894 0.0499362 0 0 0 0.0830218 0 0 
node 1 3 1 3
node 2 2 1 1
node 3 2 1 1
node 4 2 0 2
node 16 1 0 0
node 36 1 0 0
gene 2 1 4 -1.99722 0 1 -1.99722 1
gene 3 2 4 6.04046 0 2 6.04046 1
gene 1 3 4 4.40748 0 3 4.40748 1
gene 1 2 16 1.24006 0 30 1.24006 0
gene 3 16 4 -0.213408 0 31 -0.213408 1
gene 1 2 36 1 0 93 0 1
gene 1 36 16 1.24006 0 94 0 1
genomeend 149
