
/* Species #1 : (Size 44) (AF 41.8409) (Age 7)  */


/* Organism #0 Fitness: 161 Error: 0 */
genomestart 0
trait 1 0.1 0 0 0 0 0 0 0 
trait 2 0.2 0 0 0 0 0 0 0 
trait 3 0.3 0 0 0 0 0 0 0 
node 1 3 1 3
node 2 1 1 1
node 3 3 1 1
node 4 3 1 1
node 5 2 1 1
node 6 1 0 2
node 7 1 0 2
gene 2 1 6 1.80594 0 1 1.80594 1
gene 1 2 6 -0.746714 0 2 -0.746714 1
gene 2 3 6 -1.71115 0 3 -1.71115 1
gene 2 4 6 1.14347 0 4 1.14347 1
gene 1 5 6 -1.56979 0 5 -1.56979 1
gene 3 1 7 -0.649963 0 6 -0.649963 1
gene 3 2 7 0.609456 0 7 0.609456 0
gene 3 3 7 1.04949 0 8 1.04949 1
gene 2 4 7 3.45799 0 9 3.45799 1
gene 3 5 7 2.40187 0 10 2.40187 1
gene 2 6 7 -1.01571 0 11 -1.01571 1
genomeend 0

/* Organism #1 Fitness: 143 Error: 0 */
genomestart 1
trait 1 0.119921 0.00937373 0 0 0.0525396 0.00223149 0 0 
trait 2 0.2 0 0 0 0 0 0 0 
trait 3 0.3 0 0 0 0 0 0 0 
node 1 2 1 3
node 2 2 1 1
node 3 1 1 1
node 4 3 1 1
node 5 3 1 1
node 6 3 0 2
node 7 3 0 2
gene 1 1 6 1.0577 0 1 1.0577 1
gene 2 2 6 -2.06367 0 2 -2.06367 1
gene 2 3 6 1.29936 0 3 1.29936 1
gene 3 4 6 -1.13789 0 4 -1.13789 1
gene 1 5 6 -3.72089 0 5 -3.72089 1
gene 3 1 7 -3.31888 0 6 -3.31888 1
gene 1 2 7 -0.0298301 0 7 -0.0298301 0
gene 3 3 7 -3.28568 0 8 -3.28568 1
gene 3 4 7 3.78472 0 9 3.78472 1
gene 3 5 7 3.62943 0 10 3.62943 1
gene 2 6 7 -1.73828 0 11 -1.73828 1
genomeend 1

/* Organism #2 Fitness: 61 Error: 0 */
genomestart 2
trait 1 0.139841 0.0187475 0 0 0.105079 0.00446298 0 0 
trait 2 0.2 0 0 0 0 0 0 0 
trait 3 0.3 0 0 0 0 0 0 0 
node 1 3 1 3
node 2 1 1 1
node 3 3 1 1
node 4 3 1 1
node 5 2 1 1
node 6 1 0 2
node 7 1 0 2
gene 1 1 6 1.0645 0 1 1.0645 1
gene 2 2 6 -1.25171 0 2 -1.25171 1
gene 2 3 6 -0.702947 0 3 -0.702947 1
gene 3 4 6 -0.31317 0 4 -0.31317 1
gene 1 5 6 2.40415 0 5 2.40415 1
gene 3 1 7 -1.14087 0 6 -1.14087 1
gene 1 2 7 0.316864 0 7 0.316864 1
gene 3 3 7 -1.38818 0 8 -1.38818 1
gene 3 4 7 3.41533 0 9 3.41533 1
gene 3 5 7 5.01681 0 10 5.01681 1
gene 2 6 7 0.841251 0 11 0.841251 1
genomeend 2

/* Organism #3 Fitness: 104 Error: 0 */
genomestart 3
trait 1 0.1 0 0 0 0 0 0 0 
trait 2 0.2 0 0 0 0 0 0 0 
trait 3 0.3 0 0 0 0 0 0 0 
node 1 3 1 3
node 2 1 1 1
node 3 3 1 1
node 4 3 1 1
node 5 2 1 1
node 6 1 0 2
node 7 1 0 2
gene 2 1 6 4.1393 0 1 4.1393 1
gene 1 2 6 -1.15381 0 2 -1.15381 1
gene 2 3 6 -0.52551 0 3 -0.52551 1
gene 2 4 6 1.42414 0 4 1.42414 1
gene 1 5 6 -1.02862 0 5 -1.02862 1
gene 3 1 7 -2.2776 0 6 -2.2776 1
gene 3 2 7 2.21188 0 7 2.21188 0
gene 3 3 7 -0.0628779 0 8 -0.0628779 1
gene 2 4 7 5.51201 0 9 5.51201 1
gene 3 5 7 4.86298 0 10 4.86298 1
gene 2 6 7 -1.01571 0 11 -1.01571 1
genomeend 3

/* Organism #4 Fitness: 6 Error: 0 */
genomestart 4
trait 1 0.1 0 0 0 0 0 0 0 
trait 2 0.2 0 0 0 0 0 0 0 
trait 3 0.3 0 0 0 0 0 0 0 
node 1 2 1 3
node 2 2 1 1
node 3 1 1 1
node 4 3 1 1
node 5 3 1 1
node 6 3 0 2
node 7 3 0 2
gene 1 1 6 -1.0828 0 1 -1.0828 1
gene 2 2 6 -0.633241 0 2 -0.633241 1
gene 2 3 6 0.390188 0 3 0.390188 1
gene 3 4 6 1.18163 0 4 1.18163 1
gene 3 5 6 -4.89262 0 5 -4.89262 1
gene 3 1 7 -2.1115 0 6 -2.1115 1
gene 1 2 7 -2.52618 0 7 -2.52618 0
gene 2 3 7 -3.62673 0 8 -3.62673 1
gene 2 4 7 3.39764 0 9 3.39764 1
gene 1 5 7 2.60839 0 10 2.60839 1
gene 3 7 6 0.90198 0 20 0.90198 1
genomeend 4

/* Organism #5 Fitness: 42 Error: 0 */
genomestart 5
trait 1 0.1 0 0 0 0 0 0 0 
trait 2 0.2 0 0 0 0 0 0 0 
trait 3 0.3 0 0 0 0 0 0 0 
node 1 3 1 3
node 2 1 1 1
node 3 3 1 1
node 4 3 1 1
node 5 2 1 1
node 6 1 0 2
node 7 1 0 2
gene 1 1 6 0.728651 0 1 0.728651 1
gene 2 2 6 -2.69422 0 2 -2.69422 1
gene 2 3 6 1.63006 0 3 1.63006 1
gene 2 4 6 0.43226 0 4 0.43226 1
gene 3 5 6 -1.0411 0 5 -1.0411 1
gene 3 1 7 -0.937624 0 6 -0.937624 1
gene 1 2 7 -3.08772 0 7 -3.08772 1
gene 2 3 7 -1.58408 0 8 -1.58408 1
gene 3 4 7 4.01928 0 9 4.01928 1
gene 1 5 7 3.29976 0 10 3.29976 1
gene 3 7 6 0.90198 0 20 0.90198 1
genomeend 5

/* Organism #6 Fitness: 28 Error: 0 */
genomestart 6
trait 1 0.1 0 0 0 0 0 0 0 
trait 2 0.2 0 0 0 0 0 0 0 
trait 3 0.3 0 0 0 0 0 0 0 
node 1 3 1 3
node 2 1 1 1
node 3 3 1 1
node 4 3 1 1
node 5 2 1 1
node 6 1 0 2
node 7 1 0 2
gene 1 1 6 -0.148473 0 1 -0.148473 1
gene 2 2 6 -2.89711 0 2 -2.89711 1
gene 2 3 6 2.63651 0 3 2.63651 1
gene 2 4 6 1.08133 0 4 1.08133 1
gene 3 5 6 -3.08241 0 5 -3.08241 1
gene 3 1 7 -2.10557 0 6 -2.10557 1
gene 1 2 7 -2.59389 0 7 -2.59389 0
gene 3 3 7 -1.01638 0 8 -1.01638 1
gene 2 4 7 4.02624 0 9 4.02624 1
gene 3 5 7 4.26303 0 10 4.26303 1
gene 2 6 7 1.08195 0 11 1.08195 1
genomeend 6

/* Organism #7 Fitness: 10 Error: 0 */
genomestart 7
trait 1 0.1 0 0 0 0 0 0 0 
trait 2 0.2 0 0 0 0 0 0 0 
trait 3 0.3 0 0 0 0 0 0 0 
node 1 2 1 3
node 2 2 1 1
node 3 1 1 1
node 4 3 1 1
node 5 3 1 1
node 6 3 0 2
node 7 3 0 2
gene 1 1 6 -0.205672 0 1 -0.205672 1
gene 2 2 6 -0.102025 0 2 -0.102025 1
gene 2 3 6 1.39663 0 3 1.39663 1
gene 3 4 6 2.37009 0 4 2.37009 1
gene 3 5 6 -1.61903 0 5 -1.61903 1
gene 3 1 7 0.0411352 0 6 0.0411352 1
gene 1 2 7 -2.16193 0 7 -2.16193 0
gene 1 3 7 -5.22292 0 8 -5.22292 1
gene 3 4 7 5.6354 0 9 5.6354 1
gene 1 5 7 1.92189 0 10 1.92189 1
gene 3 7 6 1.91235 0 20 1.91235 1
genomeend 7

/* Organism #8 Fitness: 13 Error: 0 */
genomestart 8
trait 1 0.119921 0.00937373 0 0 0.0525396 0.00223149 0 0 
trait 2 0.2 0 0 0 0 0 0 0 
trait 3 0.3 0 0 0 0 0 0 0 
node 1 1 1 3
node 2 1 1 1
node 3 3 1 1
node 4 3 1 1
node 5 1 1 1
node 6 1 0 2
node 7 3 0 2
gene 1 1 6 1.89473 0 1 1.89473 1
gene 1 2 6 -0.185974 0 2 -0.185974 1
gene 2 3 6 2.14573 0 3 2.14573 1
gene 2 4 6 1.12782 0 4 1.12782 1
gene 3 5 6 -1.11344 0 5 -1.11344 1
gene 3 1 7 -2.12785 0 6 -2.12785 1
gene 1 2 7 -3.12597 0 7 -3.12597 1
gene 2 3 7 -2.33722 0 8 -2.33722 1
gene 2 4 7 4.84201 0 9 4.84201 1
gene 3 5 7 2.34424 0 10 2.34424 1
gene 3 7 6 1.00067 0 20 1.00067 1
genomeend 8

/* Organism #9 Fitness: 7 Error: 0 */
genomestart 9
trait 1 0.1 0 0 0 0 0 0 0 
trait 2 0.2 0 0 0 0 0 0 0 
trait 3 0.3 0 0 0 0 0 0 0 
node 1 2 1 3
node 2 2 1 1
node 3 1 1 1
node 4 3 1 1
node 5 3 1 1
node 6 3 0 2
node 7 3 0 2
gene 1 1 6 0.994642 0 1 0.994642 1
gene 2 2 6 1.50397 0 2 1.50397 1
gene 2 3 6 -1.55707 0 3 -1.55707 1
gene 2 4 6 0.00677433 0 4 0.00677433 1
gene 3 5 6 -1.64435 0 5 -1.64435 1
gene 3 1 7 2.3666 0 6 2.3666 1
gene 1 2 7 0.853987 0 7 0.853987 0
gene 3 3 7 -0.73005 0 8 -0.73005 1
gene 2 4 7 5.72176 0 9 5.72176 1
gene 3 5 7 1.68883 0 10 1.68883 1
gene 2 6 7 2.43736 0 11 2.43736 1
genomeend 9

/* Organism #10 Fitness: 52 Error: 0 */
genomestart 10
trait 1 0.119921 0.00937373 0 0 0.0525396 0.00223149 0 0 
trait 2 0.2 0 0 0 0 0 0 0 
trait 3 0.3 0 0 0 0 0 0 0 
node 1 2 1 3
node 2 2 1 1
node 3 1 1 1
node 4 3 1 1
node 5 3 1 1
node 6 2 0 2
node 7 3 0 2
gene 2 1 6 0.0214747 0 1 0.0214747 1
gene 2 2 6 0.1491 0 2 0.1491 1
gene 2 3 6 0.909893 0 3 0.909893 1
gene 3 4 6 -1.10377 0 4 -1.10377 1
gene 1 5 6 1.19044 0 5 1.19044 1
gene 3 1 7 0.690612 0 6 0.690612 1
gene 1 2 7 -2.06272 0 7 -2.06272 1
gene 3 3 7 -2.11227 0 8 -2.11227 1
gene 3 4 7 2.73373 0 9 2.73373 1
gene 1 5 7 3.8126 0 10 3.8126 1
gene 3 7 6 0.90198 0 20 0.90198 1
genomeend 10

/* Organism #11 Fitness: 14 Error: 0 */
genomestart 11
trait 1 0.1 0 0 0 0 0 0 0 
trait 2 0.2 0 0 0 0 0 0 0 
trait 3 0.3 0 0 0 0 0 0 0 
node 1 2 1 3
node 2 2 1 1
node 3 1 1 1
node 4 3 1 1
node 5 3 1 1
node 6 2 0 2
node 7 3 0 2
gene 1 1 6 -1.0828 0 1 -1.0828 1
gene 2 2 6 -1.79854 0 2 -1.79854 1
gene 2 3 6 1.1603 0 3 1.1603 1
gene 3 4 6 2.90145 0 4 2.90145 1
gene 3 5 6 1.63995 0 5 1.63995 1
gene 3 1 7 0.224392 0 6 0.224392 1
gene 1 2 7 -1.53853 0 7 -1.53853 0
gene 2 3 7 -2.42146 0 8 -2.42146 1
gene 3 4 7 3.99743 0 9 3.99743 1
gene 1 5 7 4.10382 0 10 4.10382 1
gene 3 7 6 -0.641285 0 20 -0.641285 1
genomeend 11

/* Organism #12 Fitness: 12 Error: 0 */
genomestart 12
trait 1 0.119921 0.00937373 0 0 0.0525396 0.00223149 0 0 
trait 2 0.2 0 0 0 0 0 0 0 
trait 3 0.3 0 0 0 0 0 0 0 
node 1 1 1 3
node 2 1 1 1
node 3 3 1 1
node 4 3 1 1
node 5 1 1 1
node 6 1 0 2
node 7 3 0 2
gene 2 1 6 3.94156 0 1 3.94156 1
gene 1 2 6 -3.15307 0 2 -3.15307 1
gene 2 3 6 0.164421 0 3 0.164421 1
gene 2 4 6 0.88122 0 4 0.88122 1
gene 1 5 6 -3.32569 0 5 -3.32569 1
gene 3 1 7 -2.78359 0 6 -2.78359 1
gene 1 2 7 -2.0297 0 7 -2.0297 0
gene 3 3 7 -0.452997 0 8 -0.452997 1
gene 2 4 7 3.76577 0 9 3.76577 1
gene 3 5 7 3.50724 0 10 3.50724 1
gene 2 6 7 -3.23616 0 11 -3.23616 1
genomeend 12

/* Organism #13 Fitness: 56 Error: 0 */
genomestart 13
trait 1 0.1 0 0 0 0 0 0 0 
trait 2 0.2 0 0 0 0 0 0 0 
trait 3 0.3 0 0 0 0 0 0 0 
node 1 2 1 3
node 2 2 1 1
node 3 1 1 1
node 4 3 1 1
node 5 3 1 1
node 6 3 0 2
node 7 3 0 2
gene 1 1 6 -0.148473 0 1 -0.148473 1
gene 2 2 6 -2.89711 0 2 -2.89711 1
gene 2 3 6 2.63651 0 3 2.63651 1
gene 3 4 6 1.08133 0 4 1.08133 1
gene 1 5 6 -3.08241 0 5 -3.08241 1
gene 3 1 7 -2.10557 0 6 -2.10557 1
gene 1 2 7 -2.59389 0 7 -2.59389 1
gene 3 3 7 -1.01638 0 8 -1.01638 1
gene 2 4 7 4.02624 0 9 4.02624 1
gene 3 5 7 4.26303 0 10 4.26303 1
gene 2 6 7 1.08195 0 11 1.08195 1
genomeend 13

/* Organism #14 Fitness: 21 Error: 0 */
genomestart 14
trait 1 0.1 0 0 0 0 0 0 0 
trait 2 0.2 0 0 0 0 0 0 0 
trait 3 0.3 0 0 0 0 0 0 0 
node 1 2 1 3
node 2 2 1 1
node 3 1 1 1
node 4 3 1 1
node 5 3 1 1
node 6 2 0 2
node 7 3 0 2
gene 1 1 6 -0.565501 0 1 -0.565501 1
gene 2 2 6 -2.48333 0 2 -2.48333 1
gene 2 3 6 0.453479 0 3 0.453479 1
gene 2 4 6 -0.555244 0 4 -0.555244 1
gene 3 5 6 -3.45911 0 5 -3.45911 1
gene 3 1 7 0.418068 0 6 0.418068 1
gene 1 2 7 -2.3968 0 7 -2.3968 0
gene 2 3 7 -0.964274 0 8 -0.964274 1
gene 3 4 7 3.67043 0 9 3.67043 1
gene 3 5 7 3.21515 0 10 3.21515 1
gene 3 7 6 0.895272 0 20 0.895272 1
genomeend 14

/* Organism #15 Fitness: 14 Error: 0 */
genomestart 15
trait 1 0.1 0 0 0 0 0 0 0 
trait 2 0.2 0 0 0 0 0 0 0 
trait 3 0.3 0 0 0 0 0 0 0 
node 1 3 1 3
node 2 1 1 1
node 3 3 1 1
node 4 3 1 1
node 5 2 1 1
node 6 1 0 2
node 7 1 0 2
gene 1 1 6 0.674857 0 1 0.674857 1
gene 2 2 6 -2.88179 0 2 -2.88179 1
gene 2 3 6 1.26428 0 3 1.26428 1
gene 3 4 6 -2.46866 0 4 -2.46866 1
gene 1 5 6 0.586251 0 5 0.586251 1
gene 3 1 7 1.85318 0 6 1.85318 1
gene 1 2 7 -2.25707 0 7 -2.25707 1
gene 3 3 7 0.953469 0 8 0.953469 1
gene 3 4 7 3.37189 0 9 3.37189 1
gene 3 5 7 3.15481 0 10 3.15481 1
gene 3 7 6 1.96365 0 20 1.96365 1
genomeend 15

/* Organism #16 Fitness: 20 Error: 0 */
genomestart 16
trait 1 0.119921 0.00937373 0 0 0.0525396 0.00223149 0 0 
trait 2 0.2 0 0 0 0 0 0 0 
trait 3 0.3 0 0 0 0 0 0 0 
node 1 1 1 3
node 2 1 1 1
node 3 3 1 1
node 4 3 1 1
node 5 1 1 1
node 6 1 0 2
node 7 3 0 2
gene 1 1 6 0.742535 0 1 0.742535 1
gene 1 2 6 1.73179 0 2 1.73179 1
gene 2 3 6 0.107938 0 3 0.107938 1
gene 2 4 6 0.816209 0 4 0.816209 1
gene 1 5 6 -1.34832 0 5 -1.34832 1
gene 3 1 7 -0.00954266 0 6 -0.00954266 1
gene 1 2 7 -0.473817 0 7 -0.473817 0
gene 3 3 7 -2.14456 0 8 -2.14456 1
gene 2 4 7 5.11402 0 9 5.11402 1
gene 3 5 7 0.129721 0 10 0.129721 1
gene 2 6 7 0.708881 0 11 0.708881 1
genomeend 16

/* Organism #17 Fitness: 3 Error: 0 */
genomestart 17
trait 1 0.72456 0 0 0 0.0525396 0.00223149 0 0 
trait 2 0.2 0 0 0 0 0 0 0 
trait 3 0.3 0 0 0 0 0 0 0 
node 1 1 1 3
node 2 1 1 1
node 3 3 1 1
node 4 3 1 1
node 5 1 1 1
node 6 1 0 2
node 7 3 0 2
gene 1 1 6 1.39488 0 1 1.39488 1
gene 2 2 6 -2.98287 0 2 -2.98287 1
gene 2 3 6 -0.720088 0 3 -0.720088 1
gene 3 4 6 -3.15171 0 4 -3.15171 1
gene 1 5 6 -0.204448 0 5 -0.204448 1
gene 3 1 7 -0.25302 0 6 -0.25302 1
gene 1 2 7 0.0291079 0 7 0.0291079 1
gene 3 3 7 -2.87356 0 8 -2.87356 1
gene 3 4 7 2.04523 0 9 2.04523 1
gene 3 5 7 5.23816 0 10 5.23816 1
gene 3 7 6 2.93405 0 20 2.93405 1
genomeend 17

/* Organism #18 Fitness: 249 Error: 0 */
genomestart 18
trait 1 0.1 0 0 0 0 0 0 0 
trait 2 0.2 0 0 0 0 0 0 0 
trait 3 0.3 0 0 0 0 0 0 0 
node 1 2 1 3
node 2 2 1 1
node 3 1 1 1
node 4 3 1 1
node 5 3 1 1
node 6 2 0 2
node 7 3 0 2
gene 1 1 6 1.4291 0 1 1.4291 1
gene 2 2 6 -4.58656 0 2 -4.58656 1
gene 2 3 6 1.8434 0 3 1.8434 1
gene 2 4 6 -3.80631 0 4 -3.80631 1
gene 1 5 6 -1.13853 0 5 -1.13853 1
gene 3 1 7 -2.73482 0 6 -2.73482 1
gene 1 2 7 -2.21521 0 7 -2.21521 1
gene 2 3 7 1.45628 0 8 1.45628 1
gene 3 4 7 0.770564 0 9 0.770564 1
gene 3 5 7 0.857455 0 10 0.857455 1
gene 3 7 6 -1.19036 0 20 -1.19036 1
genomeend 18

/* Organism #19 Fitness: 70 Error: 0 */
genomestart 19
trait 1 0.139841 0.0187475 0 0 0.105079 0.00446298 0 0 
trait 2 0.2 0 0 0 0 0 0 0 
trait 3 0 0 0 0 0 0 0.671658 0 
node 1 3 1 3
node 2 1 1 1
node 3 3 1 1
node 4 3 1 1
node 5 2 1 1
node 6 1 0 2
node 7 1 0 2
gene 2 1 6 -0.953797 0 1 -0.953797 1
gene 2 2 6 0.557811 0 2 0.557811 1
gene 2 3 6 2.18556 0 3 2.18556 1
gene 3 4 6 -3.74261 0 4 -3.74261 1
gene 1 5 6 4.4858 0 5 4.4858 1
gene 3 1 7 0.00354796 0 6 0.00354796 1
gene 1 2 7 -2.53178 0 7 -2.53178 1
gene 3 3 7 -3.04854 0 8 -3.04854 1
gene 3 4 7 -0.242652 0 9 -0.242652 1
gene 3 5 7 5.01681 0 10 5.01681 1
gene 2 6 7 -1.76368 0 11 -1.76368 1
genomeend 19

/* Organism #20 Fitness: 10 Error: 0 */
genomestart 20
trait 1 0.139841 0.0187475 0 0 0.105079 0.00446298 0 0 
trait 2 0.2 0 0 0 0 0 0 0 
trait 3 0.3 0 0 0 0 0 0 0 
node 1 3 1 3
node 2 1 1 1
node 3 3 1 1
node 4 3 1 1
node 5 2 1 1
node 6 1 0 2
node 7 1 0 2
gene 1 1 6 0.499467 0 1 0.499467 1
gene 2 2 6 -1.58412 0 2 -1.58412 1
gene 2 3 6 0.994602 0 3 0.994602 1
gene 3 4 6 -0.0761946 0 4 -0.0761946 1
gene 1 5 6 0.0307833 0 5 0.0307833 1
gene 3 1 7 -2.07477 0 6 -2.07477 1
gene 3 2 7 -0.809731 0 7 -0.809731 1
gene 3 3 7 -0.411228 0 8 -0.411228 1
gene 3 4 7 2.03744 0 9 2.03744 1
gene 3 5 7 2.72393 0 10 2.72393 1
gene 2 6 7 -1.01571 0 11 -1.01571 1
genomeend 20

/* Organism #21 Fitness: 73 Error: 0 */
genomestart 21
trait 1 0.139841 0.0187475 0 0 0.105079 0.00446298 0 0 
trait 2 0.2 0 0 0 0 0 0 0 
trait 3 0.3 0 0 0 0 0 0 0 
node 1 1 1 3
node 2 3 1 1
node 3 3 1 1
node 4 3 1 1
node 5 1 1 1
node 6 1 0 2
node 7 3 0 2
gene 1 1 6 2.11831 0 1 2.11831 1
gene 1 2 6 -3.14609 0 2 -3.14609 1
gene 2 3 6 0.250232 0 3 0.250232 1
gene 2 4 6 -2.39212 0 4 -2.39212 1
gene 1 5 6 -1.41688 0 5 -1.41688 1
gene 3 1 7 -4.41718 0 6 -4.41718 1
gene 1 2 7 -1.4787 0 7 -1.4787 1
gene 3 3 7 -1.0477 0 8 -1.0477 1
gene 2 4 7 3.83248 0 9 3.83248 1
gene 3 5 7 3.58094 0 10 3.58094 1
gene 2 6 7 -2.44902 0 11 -2.44902 1
genomeend 21

/* Organism #22 Fitness: 11 Error: 0 */
genomestart 22
trait 1 0.1 0 0 0 0 0 0 0 
trait 2 0.2 0 0 0 0 0 0 0 
trait 3 0.3 0 0 0 0 0 0 0 
node 1 2 1 3
node 2 2 1 1
node 3 1 1 1
node 4 3 1 1
node 5 3 1 1
node 6 2 0 2
node 7 3 0 2
gene 1 1 6 2.80362 0 1 2.80362 1
gene 2 2 6 2.29892 0 2 2.29892 1
gene 2 3 6 0.0570635 0 3 0.0570635 1
gene 2 4 6 -1.0546 0 4 -1.0546 1
gene 1 5 6 0.938699 0 5 0.938699 1
gene 3 1 7 -2.19359 0 6 -2.19359 1
gene 1 2 7 -1.5324 0 7 -1.5324 0
gene 2 3 7 2.92621 0 8 2.92621 1
gene 3 4 7 0.26804 0 9 0.26804 1
gene 3 5 7 0.857455 0 10 0.857455 1
gene 3 7 6 -2.01339 0 20 -2.01339 1
genomeend 22

/* Organism #23 Fitness: 10 Error: 0 */
genomestart 23
trait 1 0.990757 0.658254 0 0 0.745304 0 0 0 
trait 2 0.2 0 0 0 0 0 0 0 
trait 3 0.3 0 0 0 0 0 0 0 
node 1 2 1 3
node 2 2 1 1
node 3 1 1 1
node 4 3 1 1
node 5 3 1 1
node 6 2 0 2
node 7 3 0 2
gene 1 1 6 3.04328 0 1 3.04328 1
gene 2 2 6 -1.29144 0 2 -1.29144 1
gene 2 3 6 0.114448 0 3 0.114448 1
gene 2 4 6 -0.653896 0 4 -0.653896 1
gene 1 5 6 0.26401 0 5 0.26401 1
gene 3 1 7 -0.899468 0 6 -0.899468 1
gene 1 2 7 -3.48225 0 7 -3.48225 0
gene 2 3 7 -3.80208 0 8 -3.80208 1
gene 3 4 7 2.44403 0 9 2.44403 1
gene 3 5 7 -0.664844 0 10 -0.664844 1
gene 3 7 6 2.4067 0 20 2.4067 1
genomeend 23

/* Organism #24 Fitness: 98 Error: 0 */
genomestart 24
trait 1 0.1 0 0 0 0 0 0 0 
trait 2 0.2 0 0 0 0 0 0 0 
trait 3 0.3 0 0 0 0 0 0 0 
node 1 3 1 3
node 2 1 1 1
node 3 3 1 1
node 4 3 1 1
node 5 2 1 1
node 6 1 0 2
node 7 1 0 2
gene 1 1 6 0.67322 0 1 0.67322 1
gene 1 2 6 -5.52588 0 2 -5.52588 1
gene 2 3 6 1.08107 0 3 1.08107 1
gene 2 4 6 0.981028 0 4 0.981028 1
gene 1 5 6 -0.96482 0 5 -0.96482 1
gene 3 1 7 -3.10084 0 6 -3.10084 1
gene 1 2 7 -5.38496 0 7 -5.38496 1
gene 3 3 7 -0.975029 0 8 -0.975029 1
gene 2 4 7 4.65485 0 9 4.65485 1
gene 3 5 7 4.55294 0 10 4.55294 1
gene 2 6 7 1.20168 0 11 1.20168 1
genomeend 24

/* Organism #25 Fitness: 3 Error: 0 */
genomestart 25
trait 1 0.1 0 0 0 0 0 0 0 
trait 2 0.2 0 0 0 0 0 0 0 
trait 3 0.3 0 0 0 0 0 0 0 
node 1 2 1 3
node 2 2 1 1
node 3 1 1 1
node 4 3 1 1
node 5 3 1 1
node 6 2 0 2
node 7 3 0 2
gene 1 1 6 0.190766 0 1 0.190766 1
gene 2 2 6 -0.0358893 0 2 -0.0358893 1
gene 2 3 6 0.800198 0 3 0.800198 1
gene 3 4 6 0.0770441 0 4 0.0770441 1
gene 3 5 6 -1.00325 0 5 -1.00325 1
gene 3 1 7 -0.234091 0 6 -0.234091 1
gene 1 2 7 -3.82975 0 7 -3.82975 1
gene 2 3 7 -4.2075 0 8 -4.2075 1
gene 3 4 7 1.39089 0 9 1.39089 1
gene 1 5 7 2.60839 0 10 2.60839 1
gene 3 7 6 -0.764875 0 20 -0.764875 1
genomeend 25

/* Organism #26 Fitness: 2 Error: 0 */
genomestart 26
trait 1 0.1 0 0 0 0 0 0 0 
trait 2 0.2 0 0 0 0 0 0 0 
trait 3 0.3 0 0 0 0 0 0 0 
node 1 2 1 3
node 2 2 1 1
node 3 1 1 1
node 4 3 1 1
node 5 3 1 1
node 6 2 0 2
node 7 3 0 2
gene 1 1 6 -1.08897 0 1 -1.08897 1
gene 2 2 6 -4.59483 0 2 -4.59483 1
gene 2 3 6 1.64845 0 3 1.64845 1
gene 2 4 6 -0.572534 0 4 -0.572534 1
gene 1 5 6 1.54597 0 5 1.54597 1
gene 3 1 7 0.112007 0 6 0.112007 1
gene 1 2 7 -3.91571 0 7 -3.91571 0
gene 2 3 7 0.739958 0 8 0.739958 1
gene 3 4 7 3.07832 0 9 3.07832 1
gene 3 5 7 0.857455 0 10 0.857455 1
gene 3 7 6 -0.153537 0 20 -0.153537 1
genomeend 26

/* Organism #27 Fitness: 18 Error: 0 */
genomestart 27
trait 1 0.1 0 0 0 0 0 0 0 
trait 2 0.2 0 0 0 0 0 0 0 
trait 3 0.3 0 0 0 0 0 0 0 
node 1 2 1 3
node 2 2 1 1
node 3 1 1 1
node 4 3 1 1
node 5 3 1 1
node 6 3 0 2
node 7 3 0 2
gene 2 1 6 -0.97067 0 1 -0.97067 1
gene 1 2 6 -3.43643 0 2 -3.43643 1
gene 2 3 6 2.78285 0 3 2.78285 1
gene 3 4 6 1.01192 0 4 1.01192 1
gene 3 5 6 -6.45959 0 5 -6.45959 1
gene 3 1 7 -1.98949 0 6 -1.98949 1
gene 1 2 7 -1.82981 0 7 -1.82981 0
gene 3 3 7 0.485603 0 8 0.485603 1
gene 2 4 7 4.53521 0 9 4.53521 1
gene 3 5 7 2.07859 0 10 2.07859 1
gene 2 6 7 -0.266105 0 11 -0.266105 1
genomeend 27

/* Organism #28 Fitness: 72 Error: 0 */
genomestart 28
trait 1 0.1 0 0 0 0 0 0 0 
trait 2 0.2 0 0 0 0 0 0 0 
trait 3 0.3 0 0 0 0 0 0 0 
node 1 2 1 3
node 2 2 1 1
node 3 1 1 1
node 4 3 1 1
node 5 3 1 1
node 6 2 0 2
node 7 3 0 2
node 21 1 0 0
gene 2 1 6 1.80594 0 1 1.80594 1
gene 1 2 6 -0.746714 0 2 -0.746714 1
gene 2 3 6 0.666957 0 3 0.666957 1
gene 2 4 6 1.14347 0 4 1.14347 1
gene 1 5 6 -1.56979 0 5 -1.56979 0
gene 3 1 7 -2.02333 0 6 -2.02333 1
gene 1 2 7 -1.51153 0 7 -1.51153 0
gene 3 3 7 1.04949 0 8 1.04949 1
gene 2 4 7 3.45799 0 9 3.45799 1
gene 3 5 7 2.40187 0 10 2.40187 1
gene 2 6 7 -1.01571 0 11 -1.01571 1
gene 1 5 21 1 0 51 0 1
gene 1 21 6 -1.56979 0 52 0 1
genomeend 28

/* Organism #29 Fitness: 13 Error: 0 */
genomestart 29
trait 1 0.1 0 0 0 0 0 0 0 
trait 2 0.2 0 0 0 0 0 0 0 
trait 3 0.3 0 0 0 0 0 0 0 
node 1 2 1 3
node 2 2 1 1
node 3 1 1 1
node 4 3 1 1
node 5 3 1 1
node 6 2 0 2
node 7 3 0 2
gene 1 1 6 1.52231 0 1 1.52231 1
gene 2 2 6 -4.13954 0 2 -4.13954 1
gene 2 3 6 -1.10828 0 3 -1.10828 1
gene 2 4 6 -3.56405 0 4 -3.56405 1
gene 1 5 6 -1.6741 0 5 -1.6741 1
gene 3 1 7 0.867689 0 6 0.867689 1
gene 1 2 7 -0.657945 0 7 -0.657945 0
gene 2 3 7 -1.53197 0 8 -1.53197 1
gene 3 4 7 2.20945 0 9 2.20945 1
gene 3 5 7 3.26996 0 10 3.26996 1
gene 3 7 6 1.50608 0 20 1.50608 1
genomeend 29

/* Organism #30 Fitness: 24 Error: 0 */
genomestart 30
trait 1 0.119921 0.00937373 0 0 0.0525396 0.00223149 0 0 
trait 2 0.2 0 0 0 0 0 0 0 
trait 3 0.3 0 0 0 0 0 0 0 
node 1 3 1 3
node 2 1 1 1
node 3 3 1 1
node 4 3 1 1
node 5 2 1 1
node 6 1 0 2
node 7 1 0 2
gene 1 1 6 1.39764 0 1 1.39764 1
gene 2 2 6 -2.83249 0 2 -2.83249 1
gene 2 3 6 -1.24799 0 3 -1.24799 1
gene 3 4 6 -0.380362 0 4 -0.380362 1
gene 1 5 6 -1.02234 0 5 -1.02234 1
gene 3 1 7 -2.07477 0 6 -2.07477 1
gene 1 2 7 0.166392 0 7 0.166392 0
gene 2 3 7 -0.717517 0 8 -0.717517 1
gene 3 4 7 1.12005 0 9 1.12005 1
gene 3 5 7 3.26252 0 10 3.26252 1
gene 3 7 6 -3.02264 0 20 -3.02264 1
genomeend 30

/* Organism #31 Fitness: 4 Error: 0 */
genomestart 31
trait 1 0.154613 0.966904 0 0 0.0525396 0.00223149 0 0 
trait 2 0.2 0 0 0 0 0 0 0 
trait 3 0.3 0 0 0 0 0 0 0 
node 1 1 1 3
node 2 1 1 1
node 3 3 1 1
node 4 3 1 1
node 5 1 1 1
node 6 1 0 2
node 7 3 0 2
gene 1 1 6 -2.07594 0 1 -2.07594 1
gene 1 2 6 -0.746703 0 2 -0.746703 1
gene 2 3 6 1.39183 0 3 1.39183 1
gene 2 4 6 -3.71538 0 4 -3.71538 1
gene 1 5 6 1.40999 0 5 1.40999 1
gene 3 1 7 -1.95378 0 6 -1.95378 1
gene 1 2 7 0.840922 0 7 0.840922 0
gene 3 3 7 3.48085 0 8 3.48085 1
gene 2 4 7 5.87034 0 9 5.87034 1
gene 3 5 7 4.76386 0 10 4.76386 1
gene 2 6 7 -2.16613 0 11 -2.16613 1
genomeend 31

/* Organism #32 Fitness: 5 Error: 0 */
genomestart 32
trait 1 0.139841 0.0187475 0 0 0.105079 0.00446298 0 0 
trait 2 0.2 0 0 0 0 0 0 0 
trait 3 0.3 0 0 0 0 0 0 0 
node 1 3 1 3
node 2 1 1 1
node 3 3 1 1
node 4 3 1 1
node 5 2 1 1
node 6 1 0 2
node 7 1 0 2
gene 1 1 6 -1.52827 0 1 -1.52827 1
gene 2 2 6 -2.14513 0 2 -2.14513 1
gene 2 3 6 2.10804 0 3 2.10804 1
gene 3 4 6 -0.413114 0 4 -0.413114 1
gene 1 5 6 -2.40204 0 5 -2.40204 1
gene 3 1 7 0.319391 0 6 0.319391 1
gene 1 2 7 -2.87905 0 7 -2.87905 1
gene 3 3 7 0.845034 0 8 0.845034 1
gene 3 4 7 -0.267568 0 9 -0.267568 1
gene 3 5 7 2.72393 0 10 2.72393 1
gene 2 6 7 -1.87408 0 11 -1.87408 1
genomeend 32

/* Organism #33 Fitness: 16 Error: 0 */
genomestart 33
trait 1 0.139841 0.0187475 0 0 0.105079 0.00446298 0 0 
trait 2 0.2 0 0 0 0 0 0 0 
trait 3 0.3 0 0 0 0 0 0 0 
node 1 3 1 3
node 2 1 1 1
node 3 3 1 1
node 4 3 1 1
node 5 2 1 1
node 6 1 0 2
node 7 1 0 2
gene 2 1 6 0.662447 0 1 0.662447 1
gene 1 2 6 -3.20012 0 2 -3.20012 1
gene 2 3 6 -0.154195 0 3 -0.154195 1
gene 3 4 6 -1.54466 0 4 -1.54466 1
gene 1 5 6 1.04968 0 5 1.04968 1
gene 3 1 7 -0.554635 0 6 -0.554635 1
gene 1 2 7 -3.98435 0 7 -3.98435 1
gene 3 3 7 1.21718 0 8 1.21718 1
gene 3 4 7 4.11262 0 9 4.11262 1
gene 3 5 7 -1.26395 0 10 -1.26395 1
gene 1 6 7 -0.0237888 0 11 -0.0237888 1
genomeend 33

/* Organism #34 Fitness: 1 Error: 0 */
genomestart 34
trait 1 0.139841 0.0187475 0 0 0.105079 0.00446298 0 0 
trait 2 0.2 0 0 0 0 0 0 0 
trait 3 0.3 0 0 0 0 0 0 0 
node 1 3 1 3
node 2 1 1 1
node 3 3 1 1
node 4 3 1 1
node 5 2 1 1
node 6 1 0 2
node 7 1 0 2
gene 1 1 6 -1.56861 0 1 -1.56861 1
gene 2 2 6 -1.80184 0 2 -1.80184 1
gene 2 3 6 2.16284 0 3 2.16284 1
gene 3 4 6 -2.00816 0 4 -2.00816 1
gene 1 5 6 3.97793 0 5 3.97793 1
gene 3 1 7 -1.00907 0 6 -1.00907 1
gene 1 2 7 -0.479887 0 7 -0.479887 1
gene 3 3 7 -2.80419 0 8 -2.80419 1
gene 3 4 7 0.101446 0 9 0.101446 1
gene 3 5 7 2.20001 0 10 2.20001 1
gene 2 6 7 -3.22496 0 11 -3.22496 1
genomeend 34

/* Organism #35 Fitness: 13 Error: 0 */
genomestart 35
trait 1 0.1 0 0 0 0 0 0 0 
trait 2 0.2 0 0 0 0 0 0 0 
trait 3 0.3 0 0 0 0 0 0 0 
node 1 1 1 3
node 2 2 1 1
node 3 1 1 1
node 4 3 1 1
node 5 3 1 1
node 6 3 0 2
node 7 3 0 2
gene 1 1 6 -1.98452 0 1 -1.98452 1
gene 2 2 6 -1.57646 0 2 -1.57646 1
gene 2 3 6 1.33754 0 3 1.33754 1
gene 3 4 6 1.31172 0 4 1.31172 1
gene 3 5 6 -4.63227 0 5 -4.63227 1
gene 3 1 7 -0.800523 0 6 -0.800523 1
gene 1 2 7 -0.62369 0 7 -0.62369 0
gene 3 3 7 -2.36689 0 8 -2.36689 1
gene 2 4 7 1.09238 0 9 1.09238 1
gene 3 5 7 6.55281 0 10 6.55281 1
gene 3 7 6 -0.641285 0 20 -0.641285 1
genomeend 35

/* Organism #36 Fitness: 31 Error: 0 */
genomestart 36
trait 1 0.119921 0.00937373 0 0 0.0525396 0.00223149 0 0 
trait 2 0.2 0 0 0 0 0 0 0 
trait 3 0.3 0 0 0 0 0 0 0 
node 1 2 1 3
node 2 2 1 1
node 3 1 1 1
node 4 3 1 1
node 5 3 1 1
node 6 3 0 2
node 7 3 0 2
gene 1 1 6 -1.0828 0 1 -1.0828 1
gene 2 2 6 -1.03901 0 2 -1.03901 1
gene 2 3 6 2.40308 0 3 2.40308 1
gene 3 4 6 1.18163 0 4 1.18163 1
gene 3 5 6 -4.89262 0 5 -4.89262 1
gene 3 1 7 -2.1115 0 6 -2.1115 1
gene 1 2 7 -1.59925 0 7 -1.59925 0
gene 3 3 7 -2.49134 0 8 -2.49134 1
gene 3 4 7 2.08374 0 9 2.08374 1
gene 3 5 7 5.01681 0 10 5.01681 1
gene 3 7 6 -0.641285 0 20 -0.641285 1
genomeend 36

/* Organism #37 Fitness: 7 Error: 0 */
genomestart 37
trait 1 0.119921 0.00937373 0 0 0.0525396 0.00223149 0 0 
trait 2 0.2 0 0 0 0 0 0 0 
trait 3 0.3 0 0 0 0 0 0 0 
node 1 2 1 3
node 2 2 1 1
node 3 1 1 1
node 4 3 1 1
node 5 3 1 1
node 6 2 0 2
node 7 3 0 2
gene 2 1 6 0.299729 0 1 0.299729 1
gene 2 2 6 -0.869234 0 2 -0.869234 1
gene 2 3 6 1.04828 0 3 1.04828 1
gene 3 4 6 -2.19158 0 4 -2.19158 1
gene 1 5 6 1.15685 0 5 1.15685 1
gene 3 1 7 -0.433248 0 6 -0.433248 1
gene 1 2 7 -1.55539 0 7 -1.55539 0
gene 2 3 7 -0.0175078 0 8 -0.0175078 1
gene 3 4 7 1.60189 0 9 1.60189 1
gene 3 5 7 2.93713 0 10 2.93713 1
gene 3 7 6 -0.71555 0 20 -0.71555 1
genomeend 37

/* Organism #38 Fitness: 33 Error: 0 */
genomestart 38
trait 1 0.1 0 0 0 0 0 0 0 
trait 2 0.2 0 0 0 0 0 0 0 
trait 3 0.3 0 0 0 0 0 0 0 
node 1 2 1 3
node 2 2 1 1
node 3 1 1 1
node 4 3 1 1
node 5 3 1 1
node 6 3 0 2
node 7 3 0 2
gene 1 1 6 1.5266 0 1 1.5266 1
gene 2 2 6 -2.70517 0 2 -2.70517 1
gene 2 3 6 2.21199 0 3 2.21199 1
gene 3 4 6 1.14094 0 4 1.14094 1
gene 3 5 6 0.155518 0 5 0.155518 1
gene 3 1 7 -3.97145 0 6 -3.97145 1
gene 1 2 7 -1.53853 0 7 -1.53853 0
gene 3 3 7 -2.49134 0 8 -2.49134 1
gene 2 4 7 4.81906 0 9 4.81906 1
gene 3 5 7 4.53492 0 10 4.53492 1
gene 3 7 6 -0.499011 0 20 -0.499011 1
genomeend 38

/* Organism #39 Fitness: 10 Error: 0 */
genomestart 39
trait 1 0.1 0 0 0 0 0 0 0 
trait 2 0.2 0 0 0 0 0 0 0 
trait 3 0.3 0 0 0 0 0 0 0 
node 1 2 1 3
node 2 2 1 1
node 3 1 1 1
node 4 3 1 1
node 5 3 1 1
node 6 3 0 2
node 7 3 0 2
gene 1 1 6 0.78585 0 1 0.78585 1
gene 2 2 6 -1.03901 0 2 -1.03901 1
gene 2 3 6 2.86994 0 3 2.86994 1
gene 2 4 6 0.981028 0 4 0.981028 1
gene 3 5 6 -4.89262 0 5 -4.89262 1
gene 3 1 7 -2.1115 0 6 -2.1115 1
gene 1 2 7 -1.53853 0 7 -1.53853 0
gene 3 3 7 0.458575 0 8 0.458575 1
gene 2 4 7 3.39764 0 9 3.39764 1
gene 3 5 7 3.99114 0 10 3.99114 1
gene 2 6 7 1.08195 0 11 1.08195 1
genomeend 39

/* Organism #40 Fitness: 13 Error: 0 */
genomestart 40
trait 1 0.119921 0.00937373 0 0 0.0525396 0.00223149 0 0 
trait 2 0.2 0 0 0 0 0 0 0 
trait 3 0.3 0 0 0 0 0 0 0 
node 1 3 1 3
node 2 1 1 1
node 3 3 1 1
node 4 3 1 1
node 5 2 1 1
node 6 1 0 2
node 7 1 0 2
gene 2 1 6 1.78196 0 1 1.78196 1
gene 1 2 6 -1.82695 0 2 -1.82695 1
gene 2 3 6 -1.84684 0 3 -1.84684 1
gene 2 4 6 2.38132 0 4 2.38132 1
gene 1 5 6 -1.79724 0 5 -1.79724 1
gene 3 1 7 -2.66915 0 6 -2.66915 1
gene 1 2 7 -2.60444 0 7 -2.60444 0
gene 3 3 7 0.511993 0 8 0.511993 1
gene 2 4 7 1.53109 0 9 1.53109 1
gene 3 5 7 1.52024 0 10 1.52024 1
gene 2 6 7 -0.0294628 0 11 -0.0294628 1
genomeend 40

/* Organism #41 Fitness: 270 Error: 0 */
genomestart 41
trait 1 0.119921 0.00937373 0 0 0.0525396 0.00223149 0 0 
trait 2 0.2 0 0 0 0 0 0 0 
trait 3 0.3 0 0 0 0 0 0 0 
node 1 3 1 3
node 2 1 1 1
node 3 3 1 1
node 4 3 1 1
node 5 2 1 1
node 6 1 0 2
node 7 1 0 2
gene 1 1 6 0.0817519 0 1 0.0817519 1
gene 2 2 6 -0.917679 0 2 -0.917679 1
gene 2 3 6 0.525667 0 3 0.525667 1
gene 2 4 6 -2.43782 0 4 -2.43782 1
gene 1 5 6 0.0307833 0 5 0.0307833 1
gene 3 1 7 -3.11161 0 6 -3.11161 1
gene 1 2 7 0.010081 0 7 0.010081 0
gene 2 3 7 0.562793 0 8 0.562793 1
gene 3 4 7 -0.46071 0 9 -0.46071 1
gene 3 5 7 3.85491 0 10 3.85491 1
gene 3 7 6 0.847291 0 20 0.847291 1
genomeend 41

/* Organism #42 Fitness: 13 Error: 0 */
genomestart 42
trait 1 0.119921 0.00937373 0 0 0.0525396 0.00223149 0 0 
trait 2 0.2 0 0 0 0 0 0 0 
trait 3 0.3 0 0 0 0 0 0 0 
node 1 3 1 3
node 2 1 1 1
node 3 3 1 1
node 4 3 1 1
node 5 2 1 1
node 6 1 0 2
node 7 1 0 2
gene 2 1 6 2.5552 0 1 2.5552 1
gene 1 2 6 -2.63503 0 2 -2.63503 1
gene 2 3 6 0.646433 0 3 0.646433 1
gene 2 4 6 0.46788 0 4 0.46788 1
gene 1 5 6 -1.56979 0 5 -1.56979 1
gene 3 1 7 -2.55559 0 6 -2.55559 1
gene 3 2 7 -0.332441 0 7 -0.332441 0
gene 3 3 7 -0.317892 0 8 -0.317892 1
gene 2 4 7 1.06699 0 9 1.06699 1
gene 3 5 7 2.26798 0 10 2.26798 1
gene 2 6 7 -0.279937 0 11 -0.279937 1
genomeend 42

/* Organism #43 Fitness: 5 Error: 0 */
genomestart 43
trait 1 0.119921 0.00937373 0 0 0.0525396 0.00223149 0 0 
trait 2 0.2 0 0 0 0 0 0 0 
trait 3 0.3 0 0 0 0 0 0 0 
node 1 3 1 3
node 2 1 1 1
node 3 3 1 1
node 4 3 1 1
node 5 3 1 1
node 6 1 0 2
node 7 1 0 2
gene 1 1 6 -0.60343 0 1 -0.60343 1
gene 1 2 6 -5.52116 0 2 -5.52116 1
gene 2 3 6 1.4296 0 3 1.4296 1
gene 3 4 6 -4.16887 0 4 -4.16887 1
gene 1 5 6 -2.03731 0 5 -2.03731 1
gene 3 1 7 1.81031 0 6 1.81031 1
gene 1 2 7 -1.58891 0 7 -1.58891 1
gene 3 3 7 0.14536 0 8 0.14536 1
gene 3 4 7 2.15524 0 9 2.15524 1
gene 3 5 7 3.91578 0 10 3.91578 1
gene 2 6 7 1.2779 0 11 1.2779 1
genomeend 43

/* Species #2 : (Size 22) (AF 4566.41) (Age 5)  */


/* Organism #44 Fitness: 10 Error: 0 */
genomestart 44
trait 1 0.1 0 0 0 0 0 0 0 
trait 2 0.2 0 0 0 0 0 0 0 
trait 3 0.3 0 0 0 0 0 0 0 
node 1 1 1 3
node 2 1 1 1
node 3 3 1 1
node 4 3 1 1
node 5 1 1 1
node 6 1 0 2
node 7 3 0 2
node 9 1 0 0
gene 1 1 6 1.42424 0 1 1.42424 1
gene 2 2 6 -1.96696 0 2 -1.96696 1
gene 2 3 6 1.68666 0 3 1.68666 1
gene 3 4 6 -0.964554 0 4 -0.964554 1
gene 3 5 6 -2.14194 0 5 -2.14194 1
gene 3 1 7 1.71401 0 6 1.71401 1
gene 1 2 7 1.9471 0 7 1.9471 0
gene 2 3 7 0.911153 0 8 0.911153 1
gene 2 4 7 0.138315 0 9 0.138315 1
gene 3 5 7 3.25309 0 10 3.25309 1
gene 2 6 7 -3.36519 0 11 -3.36519 1
gene 1 2 9 0.448987 0 16 0.448987 1
gene 1 9 7 2.10486 0 17 2.10486 1
gene 3 3 9 -0.22651 0 25 -0.22651 1
gene 1 1 9 -2.16405 0 30 -2.16405 1
genomeend 44

/* Organism #45 Fitness: 6 Error: 0 */
genomestart 45
trait 1 0.1 0 0 0 0 0 0 0 
trait 2 0.2 0 0 0 0 0 0 0 
trait 3 0.3 0 0 0 0 0 0 0 
node 1 1 1 3
node 2 1 1 1
node 3 3 1 1
node 4 3 1 1
node 5 1 1 1
node 6 1 0 2
node 7 3 0 2
node 9 1 0 0
gene 1 1 6 -0.690127 0 1 -0.690127 1
gene 2 2 6 1.43051 0 2 1.43051 1
gene 2 3 6 0.465406 0 3 0.465406 1
gene 3 4 6 -0.881287 0 4 -0.881287 1
gene 3 5 6 0.0265276 0 5 0.0265276 1
gene 3 1 7 -2.26974 0 6 -2.26974 1
gene 1 2 7 3.24079 0 7 3.24079 0
gene 2 3 7 0.288247 0 8 0.288247 1
gene 2 4 7 1.85121 0 9 1.85121 1
gene 3 5 7 -1.13561 0 10 -1.13561 1
gene 2 6 7 1.83508 0 11 1.83508 1
gene 1 2 9 0.860255 0 16 0.860255 1
gene 1 9 7 1.94761 0 17 1.94761 1
gene 3 3 9 -1.79642 0 25 -1.79642 1
gene 3 4 9 -0.694059 0 44 -0.694059 1
genomeend 45

/* Organism #46 Fitness: 13 Error: 0 */
genomestart 46
trait 1 0.1 0 0 0 0 0 0 0 
trait 2 0.2 0 0 0 0 0 0 0 
trait 3 0.3 0 0 0 0 0 0 0 
node 1 1 1 3
node 2 1 1 1
node 3 3 1 1
node 4 2 1 1
node 5 1 1 1
node 6 1 0 2
node 7 3 0 2
node 9 1 0 0
gene 1 1 6 -5.25338 0 1 -5.25338 1
gene 2 2 6 -4.17161 0 2 -4.17161 1
gene 2 3 6 3.3273 0 3 3.3273 1
gene 3 4 6 0.345882 0 4 0.345882 1
gene 3 5 6 -2.5834 0 5 -2.5834 1
gene 3 1 7 2.40665 0 6 2.40665 1
gene 1 2 7 -3.8889 0 7 -3.8889 0
gene 2 3 7 -2.0863 0 8 -2.0863 1
gene 2 4 7 1.22502 0 9 1.22502 1
gene 3 5 7 3.81529 0 10 3.81529 1
gene 2 6 7 -3.36519 0 11 -3.36519 1
gene 1 2 9 2.54852 0 16 2.54852 1
gene 1 9 7 2.33655 0 17 2.33655 1
gene 3 3 9 -3.28819 0 25 -3.28819 1
gene 1 1 9 0.301216 0 30 0.301216 1
genomeend 46

/* Organism #47 Fitness: 18 Error: 0 */
genomestart 47
trait 1 0.1 0 0 0 0 0 0 0 
trait 2 0.2 0 0 0 0 0 0 0 
trait 3 0.3 0 0 0 0 0 0 0 
node 1 1 1 3
node 2 1 1 1
node 3 3 1 1
node 4 3 1 1
node 5 1 1 1
node 6 2 0 2
node 7 3 0 2
node 9 1 0 0
gene 1 1 6 -0.0612593 0 1 -0.0612593 1
gene 2 2 6 2.61372 0 2 2.61372 1
gene 2 3 6 2.58322 0 3 2.58322 1
gene 3 4 6 1.17849 0 4 1.17849 1
gene 3 5 6 0.82005 0 5 0.82005 1
gene 3 1 7 -0.100891 0 6 -0.100891 1
gene 3 2 7 -1.04579 0 7 -1.04579 0
gene 2 3 7 2.23152 0 8 2.23152 1
gene 2 4 7 1.08773 0 9 1.08773 1
gene 3 5 7 2.1338 0 10 2.1338 1
gene 2 6 7 -0.76601 0 11 -0.76601 1
gene 1 2 9 -1.02223 0 16 -1.02223 1
gene 1 9 7 2.15787 0 17 2.15787 1
gene 3 3 9 0.247725 0 25 0.247725 1
gene 3 4 9 -1.89098 0 44 -1.89098 1
genomeend 47

/* Organism #48 Fitness: 100001 Error: 0 */
/* ##------$ WINNER 48 SPECIES #2 $------## */
genomestart 48
trait 1 0.1 0 0 0 0 0 0 0 
trait 2 0.2 0 0 0 0 0 0 0 
trait 3 0.3 0 0 0 0 0 0 0 
node 1 1 1 3
node 2 1 1 1
node 3 3 1 1
node 4 3 1 1
node 5 1 1 1
node 6 1 0 2
node 7 3 0 2
node 9 1 0 0
gene 1 1 6 1.48618 0 1 1.48618 1
gene 2 2 6 -2.43731 0 2 -2.43731 1
gene 2 3 6 0.420376 0 3 0.420376 1
gene 3 4 6 -0.414699 0 4 -0.414699 1
gene 3 5 6 0.0608495 0 5 0.0608495 1
gene 3 1 7 1.72127 0 6 1.72127 1
gene 1 2 7 1.2974 0 7 1.2974 0
gene 2 3 7 2.9105 0 8 2.9105 1
gene 2 4 7 1.01221 0 9 1.01221 1
gene 3 5 7 3.67864 0 10 3.67864 1
gene 2 6 7 -4.33613 0 11 -4.33613 1
gene 1 2 9 0.398117 0 16 0.398117 1
gene 1 9 7 1.85203 0 17 1.85203 1
gene 3 3 9 0.033573 0 25 0.033573 1
gene 1 1 9 -2.16405 0 30 -2.16405 1
genomeend 48

/* Organism #49 Fitness: 7 Error: 0 */
genomestart 49
trait 1 0.1 0 0 0 0 0 0 0 
trait 2 0.770484 0 0 0 0.0235513 0 0 0 
trait 3 0.3 0 0 0 0 0 0 0 
node 1 1 1 3
node 2 1 1 1
node 3 3 1 1
node 4 3 1 1
node 5 1 1 1
node 6 1 0 2
node 7 3 0 2
node 9 1 0 0
gene 1 1 6 -2.37013 0 1 -2.37013 1
gene 2 2 6 1.45611 0 2 1.45611 1
gene 2 3 6 -2.28395 0 3 -2.28395 1
gene 3 4 6 1.69984 0 4 1.69984 1
gene 3 5 6 -1.90495 0 5 -1.90495 1
gene 3 1 7 -2.7536 0 6 -2.7536 1
gene 1 2 7 -0.119905 0 7 -0.119905 0
gene 2 3 7 0.531243 0 8 0.531243 1
gene 2 4 7 -1.03464 0 9 -1.03464 1
gene 3 5 7 -2.03362 0 10 -2.03362 1
gene 2 6 7 -2.56732 0 11 -2.56732 1
gene 1 2 9 -0.118767 0 16 -0.118767 1
gene 1 9 7 -1.52115 0 17 -1.52115 1
gene 3 3 9 -3.16151 0 25 -3.16151 1
gene 1 1 9 -1.69037 0 30 -1.69037 1
genomeend 49

/* Organism #50 Fitness: 9 Error: 0 */
genomestart 50
trait 1 0.1 0 0 0 0 0 0 0 
trait 2 0.2 0 0 0 0 0 0 0 
trait 3 0.3 0 0 0 0 0 0 0 
node 1 1 1 3
node 2 1 1 1
node 3 3 1 1
node 4 3 1 1
node 5 1 1 1
node 6 1 0 2
node 7 3 0 2
node 9 1 0 0
gene 1 1 6 0.800556 0 1 0.800556 1
gene 2 2 6 1.37897 0 2 1.37897 1
gene 2 3 6 1.09208 0 3 1.09208 1
gene 3 4 6 -0.302717 0 4 -0.302717 1
gene 3 5 6 -2.22024 0 5 -2.22024 1
gene 3 1 7 -3.76344 0 6 -3.76344 1
gene 1 2 7 2.60936 0 7 2.60936 0
gene 2 3 7 0.383137 0 8 0.383137 1
gene 2 4 7 -2.66783 0 9 -2.66783 1
gene 3 5 7 -0.581527 0 10 -0.581527 1
gene 2 6 7 -3.30985 0 11 -3.30985 1
gene 1 2 9 1.16539 0 16 1.16539 1
gene 1 9 7 4.44456 0 17 4.44456 1
gene 3 3 9 2.22475 0 25 2.22475 1
gene 1 1 9 -0.0437362 0 30 -0.0437362 1
genomeend 50

/* Organism #51 Fitness: 10 Error: 0 */
genomestart 51
trait 1 0.1 0 0 0 0 0 0 0 
trait 2 0.2 0 0 0 0 0 0 0 
trait 3 0.3 0 0 0 0 0 0 0 
node 1 1 1 3
node 2 1 1 1
node 3 3 1 1
node 4 3 1 1
node 5 1 1 1
node 6 1 0 2
node 7 3 0 2
node 9 1 0 0
gene 1 1 6 -0.973251 0 1 -0.973251 1
gene 2 2 6 0.125816 0 2 0.125816 1
gene 2 3 6 4.18327 0 3 4.18327 1
gene 3 4 6 -0.459654 0 4 -0.459654 1
gene 3 5 6 -0.172786 0 5 -0.172786 1
gene 3 1 7 -1.99418 0 6 -1.99418 1
gene 1 2 7 -1.61119 0 7 -1.61119 0
gene 2 3 7 1.34644 0 8 1.34644 1
gene 2 4 7 -2.78797 0 9 -2.78797 1
gene 3 5 7 0.244043 0 10 0.244043 1
gene 2 6 7 2.38213 0 11 2.38213 1
gene 1 2 9 0.580242 0 16 0.580242 1
gene 1 9 7 -3.16886 0 17 -3.16886 1
gene 3 3 9 -0.652869 0 25 -0.652869 1
gene 1 1 9 0.449332 0 30 0.449332 1
genomeend 51

/* Organism #52 Fitness: 2 Error: 0 */
genomestart 52
trait 1 0.1 0 0 0 0 0 0 0 
trait 2 0.2 0 0 0 0 0 0 0 
trait 3 0.3 0 0 0 0 0 0 0 
node 1 1 1 3
node 2 1 1 1
node 3 3 1 1
node 4 3 1 1
node 5 1 1 1
node 6 1 0 2
node 7 3 0 2
node 9 1 0 0
gene 1 1 6 1.42424 0 1 1.42424 1
gene 2 2 6 -1.96696 0 2 -1.96696 1
gene 2 3 6 1.68666 0 3 1.68666 1
gene 3 4 6 -0.964554 0 4 -0.964554 1
gene 3 5 6 -0.7905 0 5 -0.7905 1
gene 3 1 7 1.71401 0 6 1.71401 1
gene 1 2 7 1.9471 0 7 1.9471 0
gene 2 3 7 0.635142 0 8 0.635142 1
gene 2 4 7 0.138315 0 9 0.138315 1
gene 3 5 7 0.973986 0 10 0.973986 1
gene 2 6 7 -0.551721 0 11 0 1
gene 1 2 9 0.448987 0 16 0.448987 1
gene 1 9 7 2.10486 0 17 2.10486 1
gene 3 3 9 -0.652869 0 25 0 1
gene 1 1 9 -0.357035 0 30 -0.357035 1
genomeend 52

/* Organism #53 Fitness: 162 Error: 0 */
genomestart 53
trait 1 0.1 0 0 0 0 0 0 0 
trait 2 0.2 0 0 0 0 0 0 0 
trait 3 0.3 0 0 0 0 0 0 0 
node 1 1 1 3
node 2 1 1 1
node 3 3 1 1
node 4 3 1 1
node 5 1 1 1
node 6 1 0 2
node 7 3 0 2
node 9 1 0 0
gene 1 1 6 -1.67101 0 1 -1.67101 1
gene 2 2 6 0.254494 0 2 0.254494 1
gene 2 3 6 1.05184 0 3 1.05184 1
gene 3 4 6 -2.43609 0 4 -2.43609 1
gene 3 5 6 -0.89327 0 5 -0.89327 1
gene 3 1 7 -4.2013 0 6 -4.2013 1
gene 3 2 7 -1.15154 0 7 -1.15154 0
gene 2 3 7 2.46503 0 8 2.46503 1
gene 2 4 7 0.631171 0 9 0.631171 1
gene 3 5 7 3.76438 0 10 3.76438 1
gene 2 6 7 1.00005 0 11 1.00005 1
gene 1 2 9 -2.0123 0 16 -2.0123 1
gene 1 9 7 -1.16656 0 17 -1.16656 1
gene 3 3 9 -1.63771 0 25 -1.63771 1
gene 1 1 9 0.497516 0 30 0.497516 1
genomeend 53

/* Organism #54 Fitness: 74 Error: 0 */
genomestart 54
trait 1 0.1 0 0.560212 0 0 0 0 0 
trait 2 0.2 0 0 0 0 0 0 0 
trait 3 0.3 0 0 0 0 0 0 0 
node 1 1 1 3
node 2 1 1 1
node 3 3 1 1
node 4 3 1 1
node 5 1 1 1
node 6 1 0 2
node 7 3 0 2
node 9 1 0 0
gene 1 1 6 1.94978 0 1 1.94978 1
gene 2 2 6 0.0827804 0 2 0.0827804 1
gene 2 3 6 2.13346 0 3 2.13346 1
gene 3 4 6 -0.813816 0 4 -0.813816 1
gene 3 5 6 -1.8105 0 5 -1.8105 1
gene 3 1 7 2.65478 0 6 2.65478 1
gene 1 2 7 -0.394195 0 7 -0.394195 0
gene 2 3 7 0.695827 0 8 0.695827 1
gene 2 4 7 1.37219 0 9 1.37219 1
gene 3 5 7 -0.475221 0 10 -0.475221 1
gene 2 6 7 -4.33548 0 11 -4.33548 1
gene 1 2 9 0.604147 0 16 0.604147 1
gene 1 9 7 3.25546 0 17 3.25546 1
gene 3 3 9 2.1794 0 25 2.1794 1
gene 1 1 9 0.22152 0 30 0.22152 1
genomeend 54

/* Organism #55 Fitness: 10 Error: 0 */
genomestart 55
trait 1 0.1 0 0 0 0 0 0 0 
trait 2 0.2 0 0 0 0 0 0 0 
trait 3 0.3 0 0 0 0 0 0 0 
node 1 1 1 3
node 2 1 1 1
node 3 3 1 1
node 4 3 1 1
node 5 1 1 1
node 6 1 0 2
node 7 3 0 2
node 9 1 0 0
gene 1 1 6 -1.14585 0 1 -1.14585 1
gene 2 2 6 -0.828253 0 2 -0.828253 1
gene 2 3 6 -1.01476 0 3 -1.01476 1
gene 3 4 6 -0.154491 0 4 -0.154491 1
gene 3 5 6 0.830688 0 5 0.830688 1
gene 3 1 7 -0.112767 0 6 -0.112767 1
gene 1 2 7 1.89873 0 7 1.89873 0
gene 2 3 7 -1.11613 0 8 -1.11613 1
gene 2 4 7 0.377532 0 9 0.377532 1
gene 3 5 7 1.45789 0 10 1.45789 1
gene 2 6 7 -0.760783 0 11 -0.760783 1
gene 1 2 9 2.76907 0 16 2.76907 1
gene 2 9 7 -2.33781 0 17 -2.33781 1
gene 3 3 9 0.537641 0 25 0.537641 1
gene 1 1 9 -2.01914 0 30 -2.01914 1
genomeend 55

/* Organism #56 Fitness: 25 Error: 0 */
genomestart 56
trait 1 0.1 0 0 0 0 0 0 0 
trait 2 0.2 0 0 0 0 0 0 0 
trait 3 0.3 0 0 0 0 0 0 0 
node 1 1 1 3
node 2 1 1 1
node 3 3 1 1
node 4 3 1 1
node 5 1 1 1
node 6 1 0 2
node 7 3 0 2
node 9 1 0 0
gene 1 1 6 1.53104 0 1 1.53104 1
gene 2 2 6 -0.845393 0 2 -0.845393 1
gene 2 3 6 0.414636 0 3 0.414636 1
gene 3 4 6 -0.747425 0 4 -0.747425 1
gene 3 5 6 -0.948237 0 5 -0.948237 1
gene 3 1 7 -0.519795 0 6 -0.519795 1
gene 3 2 7 0.846437 0 7 0.846437 0
gene 2 3 7 1.73136 0 8 1.73136 1
gene 2 4 7 -0.329423 0 9 -0.329423 1
gene 3 5 7 2.3426 0 10 2.3426 1
gene 2 6 7 -2.06299 0 11 -2.06299 1
gene 1 2 9 -0.26593 0 16 -0.26593 1
gene 1 9 7 1.97169 0 17 1.97169 1
gene 3 3 9 -0.754141 0 25 -0.754141 1
gene 1 1 9 -1.26054 0 30 -1.26054 1
gene 3 5 9 0.858573 0 55 0.858573 1
genomeend 56

/* Organism #57 Fitness: 9 Error: 0 */
genomestart 57
trait 1 0.1 0 0 0 0 0 0 0 
trait 2 0.2 0 0 0 0 0 0 0 
trait 3 0.3 0 0 0 0 0 0 0 
node 1 1 1 3
node 2 1 1 1
node 3 3 1 1
node 4 3 1 1
node 5 1 1 1
node 6 1 0 2
node 7 3 0 2
node 9 1 0 0
gene 1 1 6 0.822966 0 1 0.822966 1
gene 2 2 6 1.63173 0 2 1.63173 1
gene 2 3 6 1.21564 0 3 1.21564 1
gene 3 4 6 -0.757915 0 4 -0.757915 1
gene 3 5 6 -2.10037 0 5 -2.10037 1
gene 3 1 7 -2.7536 0 6 -2.7536 1
gene 3 2 7 -1.2654 0 7 -1.2654 0
gene 2 3 7 1.27839 0 8 1.27839 1
gene 2 4 7 -0.386423 0 9 -0.386423 1
gene 3 5 7 1.43211 0 10 1.43211 1
gene 2 6 7 -1.94532 0 11 -1.94532 1
gene 1 2 9 -0.0106508 0 16 -0.0106508 1
gene 1 9 7 0.192923 0 17 0.192923 1
gene 3 3 9 -2.83753 0 25 -2.83753 1
gene 1 1 9 1.98864 0 30 1.98864 1
genomeend 57

/* Organism #58 Fitness: 5 Error: 0 */
genomestart 58
trait 1 0.1 0 0 0 0 0 0 0 
trait 2 0.2 0 0 0 0 0 0 0 
trait 3 0.3 0 0 0 0 0 0 0 
node 1 1 1 3
node 2 1 1 1
node 3 3 1 1
node 4 3 1 1
node 5 1 1 1
node 6 1 0 2
node 7 3 0 2
node 9 1 0 0
gene 1 1 6 -3.18697 0 1 -3.18697 1
gene 2 2 6 0.042571 0 2 0.042571 1
gene 2 3 6 0.560611 0 3 0.560611 1
gene 3 4 6 2.80028 0 4 2.80028 1
gene 3 5 6 -2.0346 0 5 -2.0346 1
gene 3 1 7 -3.45509 0 6 -3.45509 1
gene 1 2 7 4.11483 0 7 4.11483 1
gene 2 3 7 2.14564 0 8 2.14564 1
gene 2 4 7 -2.50137 0 9 -2.50137 1
gene 3 5 7 -0.177606 0 10 -0.177606 1
gene 2 6 7 -2.95435 0 11 -2.95435 1
gene 1 2 9 -0.635918 0 16 -0.635918 1
gene 1 9 7 2.10171 0 17 2.10171 1
gene 3 3 9 -2.05898 0 25 -2.05898 1
gene 3 4 9 0.674193 0 44 0.674193 1
genomeend 58

/* Organism #59 Fitness: 15 Error: 0 */
genomestart 59
trait 1 0.1 0 0 0 0 0 0 0 
trait 2 0.2 0 0 0 0 0 0 0 
trait 3 0.3 0 0 0 0 0 0 0 
node 1 1 1 3
node 2 1 1 1
node 3 3 1 1
node 4 3 1 1
node 5 1 1 1
node 6 2 0 2
node 7 3 0 2
node 9 1 0 0
gene 1 1 6 2.64039 0 1 2.64039 1
gene 2 2 6 2.47203 0 2 2.47203 1
gene 2 3 6 1.29823 0 3 1.29823 1
gene 3 4 6 1.29614 0 4 1.29614 1
gene 3 5 6 -3.08754 0 5 -3.08754 1
gene 3 1 7 -0.41604 0 6 -0.41604 1
gene 1 2 7 1.93518 0 7 1.93518 1
gene 2 3 7 -1.09465 0 8 -1.09465 1
gene 2 4 7 -3.80766 0 9 -3.80766 1
gene 3 5 7 2.9878 0 10 2.9878 1
gene 2 6 7 -2.11892 0 11 -2.11892 1
gene 1 2 9 -1.18855 0 16 -1.18855 1
gene 1 9 7 2.33827 0 17 2.33827 1
gene 3 3 9 -0.900963 0 25 -0.900963 1
gene 3 4 9 -2.05595 0 44 -2.05595 1
genomeend 59

/* Organism #60 Fitness: 16 Error: 0 */
genomestart 60
trait 1 0.1 0 0 0 0 0 0 0 
trait 2 0.2 0 0 0 0 0 0 0 
trait 3 0.3 0 0 0 0 0 0 0 
node 1 1 1 3
node 2 1 1 1
node 3 3 1 1
node 4 3 1 1
node 5 1 1 1
node 6 1 0 2
node 7 3 0 2
node 9 1 0 0
gene 1 1 6 -2.7218 0 1 -2.7218 1
gene 2 2 6 1.10208 0 2 1.10208 1
gene 2 3 6 0.640378 0 3 0.640378 1
gene 3 4 6 2.23432 0 4 2.23432 1
gene 3 5 6 -2.00666 0 5 -2.00666 1
gene 3 1 7 -1.44371 0 6 -1.44371 1
gene 1 2 7 -0.251883 0 7 -0.251883 0
gene 2 3 7 -0.125932 0 8 -0.125932 1
gene 2 4 7 -0.260651 0 9 -0.260651 1
gene 3 5 7 -0.104378 0 10 -0.104378 1
gene 2 6 7 0.384622 0 11 0.384622 1
gene 1 2 9 2.80571 0 16 2.80571 1
gene 1 9 7 1.65025 0 17 1.65025 1
gene 3 3 9 1.21676 0 25 1.21676 1
gene 1 1 9 -0.357035 0 30 -0.357035 1
genomeend 60

/* Organism #61 Fitness: 10 Error: 0 */
genomestart 61
trait 1 0.1 0 0 0 0 0 0 0 
trait 2 0.2 0 0 0 0 0 0 0 
trait 3 0.3 0 0 0 0 0 0 0 
node 1 1 1 3
node 2 1 1 1
node 3 3 1 1
node 4 3 1 1
node 5 1 1 1
node 6 1 0 2
node 7 3 0 2
node 9 1 0 0
gene 1 1 6 -0.0560129 0 1 -0.0560129 1
gene 2 2 6 0.980314 0 2 0.980314 1
gene 2 3 6 0.940415 0 3 0.940415 1
gene 3 4 6 1.92564 0 4 1.92564 1
gene 3 5 6 -1.03582 0 5 -1.03582 1
gene 3 1 7 -3.67716 0 6 -3.67716 1
gene 1 2 7 -0.168704 0 7 -0.168704 0
gene 2 3 7 0.50753 0 8 0.50753 1
gene 2 4 7 -1.80743 0 9 -1.80743 1
gene 3 5 7 1.44021 0 10 1.44021 1
gene 2 6 7 0.351624 0 11 0.351624 1
gene 1 2 9 -1.24804 0 16 -1.24804 1
gene 1 9 7 3.58422 0 17 3.58422 1
gene 3 3 9 0.925741 0 25 0.925741 1
gene 1 1 9 -0.179888 0 30 -0.179888 1
genomeend 61

/* Organism #62 Fitness: 25 Error: 0 */
genomestart 62
trait 1 0.1 0 0 0 0 0 0 0 
trait 2 0.2 0 0 0 0 0 0 0 
trait 3 0.3 0 0 0 0 0 0 0 
node 1 1 1 3
node 2 1 1 1
node 3 3 1 1
node 4 3 1 1
node 5 1 1 1
node 6 1 0 2
node 7 3 0 2
node 9 1 0 0
gene 1 1 6 1.63514 0 1 1.63514 1
gene 2 2 6 0.938921 0 2 0.938921 1
gene 2 3 6 2.25652 0 3 2.25652 1
gene 3 4 6 -0.964554 0 4 -0.964554 1
gene 3 5 6 -2.65216 0 5 -2.65216 1
gene 3 1 7 -0.779276 0 6 -0.779276 1
gene 1 2 7 2.25633 0 7 2.25633 0
gene 2 3 7 0.911153 0 8 0.911153 1
gene 2 4 7 0.138315 0 9 0.138315 1
gene 3 5 7 0.82355 0 10 0.82355 1
gene 2 6 7 -3.36519 0 11 -3.36519 1
gene 1 2 9 0.448987 0 16 0.448987 1
gene 1 9 7 2.10486 0 17 2.10486 1
gene 3 3 9 -0.22651 0 25 -0.22651 1
gene 1 1 9 -2.16405 0 30 -2.16405 1
genomeend 62

/* Organism #63 Fitness: 11 Error: 0 */
genomestart 63
trait 1 0 0.645312 0 0 0 0 0 0 
trait 2 0.2 0 0 0 0 0 0 0 
trait 3 0.3 0 0 0 0 0 0 0 
node 1 1 1 3
node 2 1 1 1
node 3 3 1 1
node 4 3 1 1
node 5 1 1 1
node 6 1 0 2
node 7 3 0 2
node 9 1 0 0
gene 1 1 6 -2.65706 0 1 -2.65706 1
gene 2 2 6 -2.34441 0 2 -2.34441 1
gene 2 3 6 4.08176 0 3 4.08176 1
gene 3 4 6 1.36794 0 4 1.36794 1
gene 3 5 6 -1.42531 0 5 -1.42531 1
gene 3 1 7 3.42263 0 6 3.42263 1
gene 1 2 7 -2.60302 0 7 -2.60302 0
gene 2 3 7 2.82005 0 8 2.82005 1
gene 2 4 7 -0.25327 0 9 -0.25327 1
gene 3 5 7 3.86485 0 10 3.86485 1
gene 2 6 7 -0.55808 0 11 -0.55808 1
gene 1 2 9 -1.52846 0 16 -1.52846 1
gene 1 9 7 2.64611 0 17 2.64611 1
gene 3 3 9 -2.47638 0 25 -2.47638 1
gene 1 1 9 0.00607068 0 30 0.00607068 1
genomeend 63

/* Organism #64 Fitness: 11 Error: 0 */
genomestart 64
trait 1 0.1 0 0 0 0 0 0 0 
trait 2 0.2 0 0 0 0 0 0 0 
trait 3 0.3 0 0 0 0 0 0 0 
node 1 1 1 3
node 2 1 1 1
node 3 3 1 1
node 4 3 1 1
node 5 1 1 1
node 6 1 0 2
node 7 3 0 2
node 9 1 0 0
gene 1 1 6 -5.14062 0 1 -5.14062 1
gene 2 2 6 -2.23929 0 2 -2.23929 1
gene 2 3 6 2.32404 0 3 2.32404 1
gene 3 4 6 -1.03779 0 4 -1.03779 1
gene 3 5 6 0.603481 0 5 0.603481 1
gene 3 1 7 -5.2737 0 6 -5.2737 1
gene 1 2 7 -1.38591 0 7 -1.38591 0
gene 2 3 7 -1.30152 0 8 -1.30152 1
gene 2 4 7 2.12716 0 9 2.12716 1
gene 3 5 7 4.31824 0 10 4.31824 1
gene 2 6 7 1.94137 0 11 1.94137 1
gene 1 2 9 0.586158 0 16 0.586158 1
gene 1 9 7 -1.42154 0 17 -1.42154 1
gene 3 3 9 -3.74896 0 25 -3.74896 1
gene 1 1 9 1.92882 0 30 1.92882 1
genomeend 64

/* Organism #65 Fitness: 12 Error: 0 */
genomestart 65
trait 1 0.1 0 0 0 0 0 0 0 
trait 2 0.2 0 0 0 0 0 0 0 
trait 3 0.3 0 0 0 0 0 0 0 
node 1 1 1 3
node 2 1 1 1
node 3 3 1 1
node 4 3 1 1
node 5 1 1 1
node 6 2 0 2
node 7 3 0 2
node 9 1 0 0
gene 1 1 6 -0.615872 0 1 -0.615872 1
gene 2 2 6 0.507584 0 2 0.507584 1
gene 2 3 6 2.6088 0 3 2.6088 1
gene 3 4 6 0.892872 0 4 0.892872 1
gene 3 5 6 -1.72133 0 5 -1.72133 1
gene 3 1 7 -2.26483 0 6 -2.26483 1
gene 1 2 7 1.06821 0 7 1.06821 0
gene 2 3 7 0.631014 0 8 0.631014 1
gene 2 4 7 -1.41815 0 9 -1.41815 1
gene 3 5 7 1.39278 0 10 1.39278 1
gene 2 6 7 -0.157272 0 11 -0.157272 1
gene 1 2 9 1.0827 0 16 0.582697 1
gene 1 9 7 0.141382 0 17 0.141382 1
gene 3 3 9 -0.439689 0 25 -0.113255 1
gene 1 1 9 -0.357035 0 30 -0.357035 1
genomeend 65

/* Species #3 : (Size 29) (AF 29.3793) (Age 4)  */


/* Organism #66 Fitness: 199 Error: 0 */
genomestart 66
trait 1 0.1 0 0 0 0 0 0 0 
trait 2 0.2 0 0 0 0 0 0 0 
trait 3 0.3 0 0 0 0 0 0 0 
node 1 1 1 3
node 2 1 1 1
node 3 3 1 1
node 4 1 1 1
node 5 1 1 1
node 6 3 0 2
node 7 1 0 2
node 11 1 0 0
gene 3 1 6 1.97938 0 1 1.97938 1
gene 2 2 6 -0.932036 0 2 -0.932036 1
gene 2 3 6 -1.27716 0 3 -1.27716 1
gene 3 4 6 -1.13158 0 4 -1.13158 0
gene 3 5 6 -3.73078 0 5 -3.73078 1
gene 3 1 7 -0.525453 0 6 -0.525453 1
gene 1 2 7 -1.679 0 7 -1.679 1
gene 2 3 7 -0.375219 0 8 -0.375219 1
gene 1 4 7 -0.363144 0 9 -0.363144 1
gene 3 5 7 -0.673844 0 10 -0.673844 1
gene 3 4 11 1 0 21 1 1
gene 3 11 6 -2.42044 0 22 -2.42044 1
gene 1 11 7 -0.767888 0 32 -0.767888 1
genomeend 66

/* Organism #67 Fitness: 15 Error: 0 */
genomestart 67
trait 1 0.1 0 0 0 0 0 0 0 
trait 2 0.8 0 0 0 0 0 0 0.579262 
trait 3 0.3 0 0 0 0 0 0 0 
node 1 1 1 3
node 2 1 1 1
node 3 3 1 1
node 4 1 1 1
node 5 1 1 1
node 6 3 0 2
node 7 1 0 2
node 11 1 0 0
gene 3 1 6 0.440123 0 1 0.440123 1
gene 2 2 6 -0.760749 0 2 -0.760749 1
gene 2 3 6 2.69098 0 3 2.69098 1
gene 3 4 6 -1.26032 0 4 -1.26032 0
gene 3 5 6 -2.27266 0 5 -2.27266 1
gene 3 1 7 1.61281 0 6 1.61281 1
gene 1 2 7 -4.87082 0 7 -4.87082 1
gene 2 3 7 -4.91312 0 8 -4.91312 1
gene 1 4 7 3.14086 0 9 3.14086 1
gene 3 5 7 -1.83449 0 10 -1.83449 1
gene 2 4 11 -0.468654 0 21 -0.468654 1
gene 3 11 6 -2.53595 0 22 -2.53595 1
genomeend 67

/* Organism #68 Fitness: 11 Error: 0 */
genomestart 68
trait 1 0.1 0 0 0 0 0 0 0 
trait 2 0.6 0 0 0 0 0 0 0.386175 
trait 3 0.3 0 0 0 0 0 0 0 
node 1 1 1 3
node 2 1 1 1
node 3 3 1 1
node 4 1 1 1
node 5 1 1 1
node 6 3 0 2
node 7 1 0 2
node 11 1 0 0
gene 3 1 6 0.0452567 0 1 0.0452567 1
gene 2 2 6 -0.0325669 0 2 -0.0325669 1
gene 2 3 6 1.10632 0 3 1.10632 1
gene 3 4 6 -1.99973 0 4 -1.99973 0
gene 3 5 6 -3.61873 0 5 -3.61873 1
gene 3 1 7 -1.15709 0 6 -1.15709 1
gene 1 2 7 -1.90407 0 7 -1.90407 1
gene 2 3 7 -2.54189 0 8 -2.54189 1
gene 1 4 7 0.112104 0 9 0.112104 1
gene 3 5 7 0.463998 0 10 0.463998 1
gene 3 4 11 1.38901 0 21 1.13901 1
gene 3 11 6 -1.67171 0 22 -1.51502 1
genomeend 68

/* Organism #69 Fitness: 8 Error: 0 */
genomestart 69
trait 1 0.1 0 0 0 0 0 0 0 
trait 2 0.8 0 0 0 0 0 0 0.579262 
trait 3 0.3 0 0 0 0 0 0 0 
node 1 1 1 3
node 2 1 1 1
node 3 3 1 1
node 4 1 1 1
node 5 1 1 1
node 6 3 0 2
node 7 1 0 2
node 11 1 0 0
gene 3 1 6 1.19613 0 1 1.19613 1
gene 2 2 6 -1.16005 0 2 -1.16005 1
gene 1 3 6 -2.04108 0 3 -2.04108 1
gene 3 4 6 -2.92538 0 4 -2.92538 0
gene 3 5 6 -3.25126 0 5 -3.25126 1
gene 3 1 7 -1.98573 0 6 -1.98573 1
gene 1 2 7 -3.20697 0 7 -3.20697 1
gene 2 3 7 -1.69404 0 8 -1.69404 1
gene 1 4 7 0.962287 0 9 0.962287 1
gene 3 5 7 -2.83057 0 10 -2.83057 1
gene 3 4 11 -0.440411 0 21 -0.440411 1
gene 3 11 6 -5.20686 0 22 -5.20686 1
genomeend 69

/* Organism #70 Fitness: 7 Error: 0 */
genomestart 70
trait 1 0.1 0 0 0 0 0 0 0 
trait 2 0.8 0 0 0 0 0 0 0.579262 
trait 3 0.3 0 0 0 0 0 0 0 
node 1 1 1 3
node 2 1 1 1
node 3 3 1 1
node 4 1 1 1
node 5 1 1 1
node 6 3 0 2
node 7 1 0 2
node 11 1 0 0
gene 3 1 6 -2.64475 0 1 -2.64475 1
gene 2 2 6 -1.71359 0 2 -1.71359 1
gene 2 3 6 3.73966 0 3 3.73966 1
gene 3 4 6 -1.08107 0 4 -1.08107 0
gene 3 5 6 -5.46791 0 5 -5.46791 1
gene 3 1 7 -0.973248 0 6 -0.973248 1
gene 1 2 7 -1.41481 0 7 -1.41481 1
gene 2 3 7 -2.20657 0 8 -2.20657 1
gene 1 4 7 -1.78284 0 9 -1.78284 1
gene 3 5 7 1.47756 0 10 1.47756 1
gene 3 4 11 -1.61123 0 21 -1.61123 1
gene 3 11 6 -2.91347 0 22 -2.91347 1
genomeend 70

/* Organism #71 Fitness: 11 Error: 0 */
genomestart 71
trait 1 0.1 0 0 0 0 0 0 0 
trait 2 1 0 0 0 0 0 0 0.77235 
trait 3 0.3 0 0 0 0 0 0 0 
node 1 1 1 3
node 2 1 1 1
node 3 3 1 1
node 4 1 1 1
node 5 1 1 1
node 6 3 0 2
node 7 1 0 2
node 11 1 0 0
gene 3 1 6 1.6295 0 1 1.6295 1
gene 2 2 6 0.601171 0 2 0.601171 1
gene 2 3 6 3.48885 0 3 3.48885 1
gene 3 4 6 -3.39508 0 4 -3.39508 0
gene 3 5 6 -2.78293 0 5 -2.78293 1
gene 3 1 7 -2.2649 0 6 -2.2649 1
gene 1 2 7 -3.48975 0 7 -3.48975 1
gene 2 3 7 -7.18288 0 8 -7.18288 1
gene 1 4 7 1.77064 0 9 1.77064 1
gene 3 5 7 -3.946 0 10 -3.946 1
gene 3 4 11 1.311 0 21 1.311 1
gene 3 11 6 -1.04921 0 22 -1.04921 1
genomeend 71

/* Organism #72 Fitness: 5 Error: 0 */
genomestart 72
trait 1 0.1 0 0 0 0 0 0 0 
trait 2 0.2 0 0 0 0 0 0 0 
trait 3 0.3 0 0 0 0 0 0 0 
node 1 1 1 3
node 2 1 1 1
node 3 3 1 1
node 4 1 1 1
node 5 1 1 1
node 6 3 0 2
node 7 1 0 2
node 11 1 0 0
gene 3 1 6 1.02672 0 1 1.02672 1
gene 2 2 6 0.826704 0 2 0.826704 1
gene 2 3 6 -4.0922 0 3 -4.0922 1
gene 3 4 6 -0.378042 0 4 -0.378042 0
gene 3 5 6 -6.23444 0 5 -6.23444 1
gene 3 1 7 -1.24559 0 6 -1.24559 1
gene 1 2 7 -1.79926 0 7 -1.79926 1
gene 2 3 7 -1.08959 0 8 -1.08959 1
gene 1 4 7 3.20518 0 9 3.20518 1
gene 3 5 7 0.741434 0 10 0.741434 1
gene 3 4 11 -2.50434 0 21 -2.50434 1
gene 3 11 6 3.06095 0 22 3.06095 1
genomeend 72

/* Organism #73 Fitness: 13 Error: 0 */
genomestart 73
trait 1 0.1 0 0 0 0 0 0 0 
trait 2 0.6 0 0 0 0 0 0 0.386175 
trait 3 0.3 0 0 0 0 0 0 0 
node 1 1 1 3
node 2 1 1 1
node 3 1 1 1
node 4 1 1 1
node 5 1 1 1
node 6 3 0 2
node 7 3 0 2
node 11 1 0 0
gene 3 1 6 -1.85672 0 1 -1.85672 1
gene 2 2 6 -1.6944 0 2 -1.6944 1
gene 2 3 6 1.27348 0 3 1.27348 1
gene 3 4 6 -1.70534 0 4 -1.70534 0
gene 3 5 6 0.221484 0 5 0.221484 1
gene 3 1 7 -1.94632 0 6 -1.94632 1
gene 1 2 7 0.234791 0 7 0.234791 1
gene 2 3 7 -4.09304 0 8 -4.09304 1
gene 1 4 7 3.30864 0 9 3.30864 1
gene 3 5 7 -0.0118698 0 10 -0.0118698 1
gene 3 4 11 4.0482 0 21 4.0482 1
gene 3 11 6 2.14886 0 22 2.14886 1
genomeend 73

/* Organism #74 Fitness: 22 Error: 0 */
genomestart 74
trait 1 0.1 0 0 0 0 0 0 0 
trait 2 0.6 0 0 0 0 0 0 0.386175 
trait 3 0.3 0 0 0 0 0 0 0 
node 1 1 1 3
node 2 1 1 1
node 3 3 1 1
node 4 1 1 1
node 5 1 1 1
node 6 3 0 2
node 7 1 0 2
node 11 1 0 0
gene 3 1 6 -1.59228 0 1 -1.59228 1
gene 2 2 6 -1.20044 0 2 -1.20044 1
gene 2 3 6 2.52977 0 3 2.52977 1
gene 3 4 6 1.72032 0 4 1.72032 0
gene 3 5 6 -6.7986 0 5 -6.7986 1
gene 3 1 7 3.99935 0 6 3.99935 1
gene 1 2 7 -4.87328 0 7 -4.87328 1
gene 2 3 7 -3.04527 0 8 -3.04527 1
gene 1 4 7 -0.416991 0 9 -0.416991 1
gene 3 5 7 -2.29442 0 10 -2.29442 1
gene 2 4 11 -0.468654 0 21 -0.468654 1
gene 3 11 6 -1.0236 0 22 -1.0236 1
genomeend 74

/* Organism #75 Fitness: 19 Error: 0 */
genomestart 75
trait 1 0.1 0 0 0 0 0 0 0 
trait 2 0.4 0 0.113623 0.854463 0 0 0.881962 0.193087 
trait 3 0.3 0 0 0 0 0 0 0 
node 1 1 1 3
node 2 1 1 1
node 3 3 1 1
node 4 1 1 1
node 5 1 1 1
node 6 3 0 2
node 7 3 0 2
node 11 1 0 0
gene 3 1 6 0.190445 0 1 0.190445 1
gene 2 2 6 1.27055 0 2 1.27055 1
gene 2 3 6 1.22696 0 3 1.22696 1
gene 3 4 6 -2.26804 0 4 -2.26804 0
gene 3 5 6 -4.53979 0 5 -4.53979 1
gene 3 1 7 -1.52468 0 6 -1.52468 1
gene 1 2 7 -2.13599 0 7 -2.13599 1
gene 2 3 7 -2.04583 0 8 -2.04583 1
gene 1 4 7 2.67354 0 9 2.67354 1
gene 3 5 7 1.70275 0 10 1.70275 1
gene 3 4 11 1.94596 0 21 1.94596 1
gene 3 11 6 2.14886 0 22 2.14886 1
genomeend 75

/* Organism #76 Fitness: 53 Error: 0 */
genomestart 76
trait 1 0.1 0 0 0 0 0 0 0 
trait 2 0.2 0 0 0 0 0 0 0 
trait 3 0.3 0 0 0 0 0 0 0 
node 1 1 1 3
node 2 1 1 1
node 3 3 1 1
node 4 1 1 1
node 5 1 1 1
node 6 3 0 2
node 7 1 0 2
node 11 1 0 0
gene 3 1 6 1.23396 0 1 1.23396 1
gene 2 2 6 2.42727 0 2 2.42727 1
gene 2 3 6 -2.13795 0 3 -2.13795 1
gene 3 4 6 -2.09409 0 4 -2.09409 0
gene 3 5 6 -0.331988 0 5 -0.331988 1
gene 3 1 7 0.840363 0 6 0.840363 1
gene 1 2 7 -4.29455 0 7 -4.29455 1
gene 2 3 7 -2.79795 0 8 -2.79795 1
gene 1 4 7 2.31473 0 9 2.31473 1
gene 3 5 7 1.4797 0 10 1.4797 1
gene 3 4 11 1.55304 0 21 1.55304 1
gene 3 11 6 1.03119 0 22 1.03119 1
genomeend 76

/* Organism #77 Fitness: 12 Error: 0 */
genomestart 77
trait 1 0.1 0 0 0 0 0 0 0 
trait 2 0.4 0 0 0 0 0 0 0.193087 
trait 3 0.3 0 0 0 0 0 0 0 
node 1 1 1 3
node 2 1 1 1
node 3 3 1 1
node 4 1 1 1
node 5 1 1 1
node 6 3 0 2
node 7 1 0 2
node 11 1 0 0
gene 3 1 6 1.1082 0 1 1.1082 1
gene 2 2 6 4.42452 0 2 4.42452 1
gene 2 3 6 -3.89183 0 3 -3.89183 1
gene 3 4 6 -2.28255 0 4 -2.28255 1
gene 3 5 6 -3.16181 0 5 -3.16181 1
gene 3 1 7 0.569459 0 6 0.569459 1
gene 1 2 7 -4.02089 0 7 -4.02089 1
gene 2 3 7 -0.142883 0 8 -0.142883 1
gene 1 4 7 1.70447 0 9 1.70447 1
gene 3 5 7 -2.43964 0 10 -2.43964 1
gene 3 4 11 -1.59147 0 21 -1.59147 1
gene 3 11 6 0.91603 0 22 0.91603 1
genomeend 77

/* Organism #78 Fitness: 13 Error: 0 */
genomestart 78
trait 1 0.1 0 0 0 0 0 0 0 
trait 2 0.2 0 0 0 0 0 0 0 
trait 3 0.3 0 0 0 0 0 0 0 
node 1 1 1 3
node 2 1 1 1
node 3 3 1 1
node 4 1 1 1
node 5 1 1 1
node 6 3 0 2
node 7 1 0 2
node 11 1 0 0
gene 3 1 6 0.818776 0 1 0.818776 1
gene 2 2 6 4.23256 0 2 4.23256 1
gene 2 3 6 -2.86504 0 3 -2.86504 1
gene 3 4 6 -0.354 0 4 -0.354 0
gene 3 5 6 -1.2496 0 5 -1.2496 1
gene 3 1 7 0.59538 0 6 0.59538 1
gene 1 2 7 -0.51558 0 7 -0.51558 1
gene 2 3 7 -0.456573 0 8 -0.456573 1
gene 1 4 7 -0.672155 0 9 -0.672155 1
gene 3 5 7 -1.11843 0 10 -1.11843 1
gene 3 4 11 -0.430226 0 21 -0.430226 1
gene 3 11 6 0.826809 0 22 0.826809 1
genomeend 78

/* Organism #79 Fitness: 12 Error: 0 */
genomestart 79
trait 1 0.1 0 0 0 0 0 0 0 
trait 2 0.2 0 0 0 0 0 0 0 
trait 3 0.3 0 0 0 0 0 0 0 
node 1 1 1 3
node 2 1 1 1
node 3 3 1 1
node 4 1 1 1
node 5 1 1 1
node 6 3 0 2
node 7 1 0 2
node 11 1 0 0
gene 3 1 6 1.93784 0 1 1.93784 1
gene 2 2 6 1.97658 0 2 1.97658 1
gene 2 3 6 -2.85039 0 3 -2.85039 1
gene 3 4 6 -1.31709 0 4 -1.31709 1
gene 3 5 6 -2.69701 0 5 -2.69701 1
gene 3 1 7 0.282215 0 6 0.282215 1
gene 1 2 7 -3.31962 0 7 -3.31962 1
gene 2 3 7 -2.52851 0 8 -2.52851 1
gene 1 4 7 1.31256 0 9 1.31256 1
gene 3 5 7 0.732361 0 10 0.732361 1
gene 3 4 11 2.28274 0 21 2.28274 1
gene 3 11 6 0.420249 0 22 0.420249 0
genomeend 79

/* Organism #80 Fitness: 32 Error: 0 */
genomestart 80
trait 1 0.1 0 0 0 0 0 0 0 
trait 2 0.4 0 0 0 0 0 0 0.193087 
trait 3 0.3 0 0 0 0 0 0 0 
node 1 1 1 3
node 2 1 1 1
node 3 3 1 1
node 4 1 1 1
node 5 1 1 1
node 6 3 0 2
node 7 1 0 2
node 11 1 0 0
gene 3 1 6 0.833209 0 1 0.833209 1
gene 2 2 6 0.254899 0 2 0.254899 1
gene 2 3 6 0.0363234 0 3 0.0363234 1
gene 3 4 6 -0.313269 0 4 -0.313269 1
gene 3 5 6 -4.61444 0 5 -4.61444 1
gene 3 1 7 0.0440632 0 6 0.0440632 1
gene 1 2 7 -2.351 0 7 -2.351 1
gene 2 3 7 -1.38974 0 8 -1.38974 1
gene 1 4 7 2.06134 0 9 2.06134 1
gene 3 5 7 -1.83221 0 10 -1.83221 1
gene 2 4 11 0.191627 0 21 0.191627 1
gene 3 11 6 -1.33104 0 22 -1.33104 1
genomeend 80

/* Organism #81 Fitness: 22 Error: 0 */
genomestart 81
trait 1 0.1 0 0 0 0 0 0 0 
trait 2 1 0 0 0 0 0 0 0.77235 
trait 3 0 0 0 0 0 0 0 0 
node 1 1 1 3
node 2 1 1 1
node 3 3 1 1
node 4 1 1 1
node 5 1 1 1
node 6 3 0 2
node 7 1 0 2
node 11 1 0 0
gene 3 1 6 2.92626 0 1 2.92626 1
gene 2 2 6 1.44941 0 2 1.44941 1
gene 2 3 6 1.60274 0 3 1.60274 1
gene 3 4 6 -0.590696 0 4 -0.590696 0
gene 3 5 6 -3.70326 0 5 -3.70326 1
gene 3 1 7 1.44206 0 6 1.44206 1
gene 1 2 7 -7.1684 0 7 -7.1684 1
gene 2 3 7 -5.96843 0 8 -5.96843 1
gene 1 4 7 1.84367 0 9 1.84367 1
gene 3 5 7 -1.08242 0 10 -1.08242 1
gene 3 4 11 -0.0495026 0 21 -0.0495026 1
gene 3 11 6 0.304749 0 22 0.304749 1
genomeend 81

/* Organism #82 Fitness: 7 Error: 0 */
genomestart 82
trait 1 0.1 0 0 0 0 0 0 0 
trait 2 0.2 0 0 0 0 0 0 0 
trait 3 0.3 0 0 0 0 0 0 0 
node 1 1 1 3
node 2 1 1 1
node 3 3 1 1
node 4 1 1 1
node 5 1 1 1
node 6 3 0 2
node 7 1 0 2
node 11 1 0 0
gene 3 1 6 0.247372 0 1 0.247372 1
gene 2 2 6 0.581329 0 2 0.581329 1
gene 2 3 6 -4.03043 0 3 -4.03043 1
gene 3 4 6 2.37792 0 4 2.37792 0
gene 3 5 6 -1.72612 0 5 -1.72612 1
gene 3 1 7 -1.13666 0 6 -1.13666 1
gene 1 2 7 -4.66249 0 7 -4.66249 1
gene 2 3 7 1.28893 0 8 1.28893 1
gene 1 4 7 3.60981 0 9 3.60981 1
gene 3 5 7 0.145323 0 10 0.145323 1
gene 3 4 11 -2.70112 0 21 -2.70112 1
gene 3 11 6 2.97549 0 22 2.97549 1
genomeend 82

/* Organism #83 Fitness: 4 Error: 0 */
genomestart 83
trait 1 0.1 0 0 0 0 0 0 0 
trait 2 0.307292 0.890445 0 0 0 0 0.95796 1 
trait 3 0.3 0 0 0 0 0 0 0 
node 1 1 1 3
node 2 1 1 1
node 3 3 1 1
node 4 1 1 1
node 5 1 1 1
node 6 3 0 2
node 7 1 0 2
node 11 1 0 0
gene 3 1 6 1.00589 0 1 1.00589 1
gene 2 2 6 -3.45978 0 2 -3.45978 1
gene 2 3 6 0.125042 0 3 0.125042 1
gene 3 4 6 -3.35505 0 4 -3.35505 0
gene 3 5 6 -3.14143 0 5 -3.14143 1
gene 3 1 7 -1.62825 0 6 -1.62825 1
gene 1 2 7 -3.18036 0 7 -3.18036 1
gene 2 3 7 -3.72034 0 8 -3.72034 1
gene 1 4 7 -1.04882 0 9 -1.04882 1
gene 3 5 7 0.290409 0 10 0.290409 1
gene 3 4 11 3.36356 0 21 3.36356 1
gene 3 11 6 -0.261104 0 22 -0.261104 1
gene 1 11 7 -2.37695 0 32 -2.37695 1
genomeend 83

/* Organism #84 Fitness: 66 Error: 0 */
genomestart 84
trait 1 0.1 0 0 0 0 0 0 0 
trait 2 0.4 0 0 0 0 0 0 0.193087 
trait 3 0.3 0 0 0 0 0 0 0 
node 1 1 1 3
node 2 1 1 1
node 3 3 1 1
node 4 1 1 1
node 5 1 1 1
node 6 3 0 2
node 7 1 0 2
node 11 1 0 0
gene 3 1 6 -0.117673 0 1 -0.117673 1
gene 2 2 6 0.83326 0 2 0.83326 1
gene 2 3 6 0.120689 0 3 0.120689 1
gene 3 4 6 0.420224 0 4 0.420224 0
gene 3 5 6 -4.78056 0 5 -4.78056 1
gene 3 1 7 0.467204 0 6 0.467204 1
gene 1 2 7 -3.1527 0 7 -3.1527 1
gene 2 3 7 -0.817291 0 8 -0.817291 1
gene 1 4 7 2.02187 0 9 2.02187 1
gene 3 5 7 -0.804616 0 10 -0.804616 1
gene 2 4 11 -0.407107 0 21 -0.407107 1
gene 3 11 6 0.156253 0 22 0.156253 1
genomeend 84

/* Organism #85 Fitness: 176 Error: 0 */
genomestart 85
trait 1 0.1 0 0 0 0 0 0 0 
trait 2 0.4 0 0 0 0 0 0 0.193087 
trait 3 0.3 0 0 0 0 0 0 0 
node 1 1 1 3
node 2 1 1 1
node 3 3 1 1
node 4 1 1 1
node 5 1 1 1
node 6 3 0 2
node 7 3 0 2
node 11 1 0 0
gene 3 1 6 1.89293 0 1 1.89293 1
gene 2 2 6 2.03451 0 2 2.03451 1
gene 2 3 6 0.392851 0 3 0.392851 1
gene 3 4 6 -2.82798 0 4 -2.82798 0
gene 3 5 6 -3.53244 0 5 -3.53244 1
gene 3 1 7 0.827008 0 6 0.827008 1
gene 1 2 7 -0.250738 0 7 -0.250738 1
gene 2 3 7 -0.592187 0 8 -0.592187 1
gene 1 4 7 2.46225 0 9 2.46225 1
gene 3 5 7 -0.353239 0 10 -0.353239 1
gene 3 4 11 1.55586 0 21 1.55586 1
gene 3 11 6 2.19163 0 22 2.19163 0
genomeend 85

/* Organism #86 Fitness: 7 Error: 0 */
genomestart 86
trait 1 0.1 0 0 0 0 0 0 0 
trait 2 0.4 0 0 0 0 0 0 0.193087 
trait 3 0.3 0 0 0 0 0 0 0 
node 1 1 1 3
node 2 1 1 1
node 3 3 1 1
node 4 1 1 1
node 5 1 1 1
node 6 3 0 2
node 7 1 0 2
node 11 1 0 0
node 21 1 0 0
gene 3 1 6 0.748331 0 1 0.748331 1
gene 2 2 6 -0.846392 0 2 -0.846392 1
gene 2 3 6 0.706909 0 3 0.706909 1
gene 3 4 6 0.167813 0 4 0.167813 1
gene 3 5 6 -4.20993 0 5 -4.20993 0
gene 3 1 7 0.543677 0 6 0.543677 1
gene 1 2 7 -2.53779 0 7 -2.53779 1
gene 2 3 7 -0.554438 0 8 -0.554438 1
gene 1 4 7 0.543001 0 9 0.543001 1
gene 3 5 7 -1.25417 0 10 -1.25417 1
gene 3 4 11 0.265673 0 21 0.265673 1
gene 3 11 6 -1.72202 0 22 -1.72202 1
gene 1 11 7 -0.767888 0 32 -0.767888 1
gene 3 5 21 1 0 51 0 1
gene 3 21 6 -4.20993 0 52 0 1
genomeend 86

/* Organism #87 Fitness: 10 Error: 0 */
genomestart 87
trait 1 0.1 0 0 0 0 0 0 0 
trait 2 1 0 0 0 0 0 0 0.77235 
trait 3 0.3 0 0 0 0 0 0 0 
node 1 1 1 3
node 2 1 1 1
node 3 3 1 1
node 4 1 1 1
node 5 1 1 1
node 6 3 0 2
node 7 1 0 2
node 11 1 0 0
gene 3 1 6 2.89063 0 1 2.89063 1
gene 2 2 6 3.04475 0 2 3.04475 1
gene 2 3 6 2.01801 0 3 2.01801 1
gene 3 4 6 1.02011 0 4 1.02011 0
gene 3 5 6 1.07547 0 5 1.07547 1
gene 3 1 7 -2.6201 0 6 -2.6201 1
gene 1 2 7 -5.41281 0 7 -5.41281 1
gene 2 3 7 -3.17259 0 8 -3.17259 1
gene 1 4 7 3.14086 0 9 3.14086 1
gene 3 5 7 0.0102316 0 10 0.0102316 1
gene 3 4 11 -1.13155 0 21 -1.13155 1
gene 3 11 6 -1.54374 0 22 -1.54374 1
genomeend 87

/* Organism #88 Fitness: 16 Error: 0 */
genomestart 88
trait 1 0.1 0 0 0 0 0 0 0 
trait 2 0.6 0 0 0 0 0 0 0.386175 
trait 3 0.3 0 0 0 0 0 0 0 
node 1 1 1 3
node 2 1 1 1
node 3 3 1 1
node 4 1 1 1
node 5 1 1 1
node 6 3 0 2
node 7 1 0 2
node 11 1 0 0
gene 3 1 6 2.14914 0 1 2.14914 1
gene 2 2 6 -1.74148 0 2 -1.74148 1
gene 2 3 6 -0.13974 0 3 -0.13974 1
gene 3 4 6 -4.48717 0 4 -4.48717 0
gene 3 5 6 -1.26159 0 5 -1.26159 1
gene 3 1 7 -2.40409 0 6 -2.40409 1
gene 1 2 7 0.434619 0 7 0.434619 1
gene 2 3 7 -1.27048 0 8 -1.27048 1
gene 1 4 7 -0.695176 0 9 -0.695176 1
gene 3 5 7 -1.82992 0 10 -1.82992 1
gene 3 4 11 0.908668 0 21 0.908668 1
gene 3 11 6 -2.30282 0 22 -2.30282 1
genomeend 88

/* Organism #89 Fitness: 80 Error: 0 */
genomestart 89
trait 1 0.1 0 0 0 0 0 0 0 
trait 2 0.6 0 0 0 0 0 0 0.386175 
trait 3 0.3 0 0 0 0 0 0 0 
node 1 1 1 3
node 2 1 1 1
node 3 3 1 1
node 4 1 1 1
node 5 1 1 1
node 6 3 0 2
node 7 1 0 2
node 11 1 0 0
gene 3 1 6 1.97938 0 1 1.97938 1
gene 2 2 6 -1.98706 0 2 -1.98706 1
gene 2 3 6 -1.27716 0 3 -1.27716 1
gene 3 4 6 -2.72142 0 4 -2.72142 0
gene 3 5 6 -3.73078 0 5 -3.73078 1
gene 3 1 7 -0.525453 0 6 -0.525453 1
gene 1 2 7 -1.679 0 7 -1.679 1
gene 2 3 7 -3.99323 0 8 -3.99323 1
gene 1 4 7 -0.16382 0 9 -0.16382 1
gene 3 5 7 1.66775 0 10 1.66775 1
gene 3 4 11 1.94596 0 21 1.94596 1
gene 3 11 6 -3.82331 0 22 -3.82331 1
gene 1 11 7 -0.767888 0 32 -0.767888 1
gene 3 3 11 -0.836782 0 58 -0.836782 1
genomeend 89

/* Organism #90 Fitness: 16 Error: 0 */
genomestart 90
trait 1 0.1 0 0 0 0 0 0 0 
trait 2 0.4 0 0 0 0 0 0 0.193087 
trait 3 0.3 0 0 0 0 0 0 0 
node 1 1 1 3
node 2 1 1 1
node 3 3 1 1
node 4 1 1 1
node 5 1 1 1
node 6 3 0 2
node 7 1 0 2
node 11 1 0 0
gene 3 1 6 -0.468757 0 1 -0.468757 1
gene 2 2 6 0.3169 0 2 0.3169 1
gene 2 3 6 1.22549 0 3 1.22549 1
gene 3 4 6 -4.05479 0 4 -4.05479 0
gene 3 5 6 -4.26449 0 5 -4.26449 1
gene 3 1 7 0.0568631 0 6 0.0568631 1
gene 1 2 7 -0.167955 0 7 -0.167955 1
gene 2 3 7 -4.0125 0 8 -4.0125 1
gene 1 4 7 1.21232 0 9 1.21232 1
gene 3 5 7 1.20839 0 10 1.20839 1
gene 3 4 11 1.87638 0 21 1.87638 1
gene 3 11 6 -2.53808 0 22 -2.53808 1
gene 1 11 7 -0.0967129 0 32 -0.0967129 1
genomeend 90

/* Organism #91 Fitness: 5 Error: 0 */
genomestart 91
trait 1 0.1 0 0 0 0 0 0 0 
trait 2 1 0 0 0 0 0 0 0.77235 
trait 3 0.3 0 0 0 0 0 0 0 
node 1 1 1 3
node 2 1 1 1
node 3 3 1 1
node 4 1 1 1
node 5 1 1 1
node 6 3 0 2
node 7 1 0 2
node 11 1 0 0
gene 3 1 6 -2.49052 0 1 -2.49052 1
gene 2 2 6 -3.6782 0 2 -3.6782 1
gene 2 3 6 5.0448 0 3 5.0448 1
gene 3 4 6 -2.69943 0 4 -2.69943 0
gene 3 5 6 -0.987246 0 5 -0.987246 1
gene 3 1 7 -4.51886 0 6 -4.51886 1
gene 1 2 7 -2.49383 0 7 -2.49383 1
gene 2 3 7 -2.2422 0 8 -2.2422 1
gene 1 4 7 -0.16382 0 9 -0.16382 1
gene 3 5 7 2.92242 0 10 2.92242 1
gene 3 4 11 0.825056 0 21 0.825056 1
gene 3 11 6 -1.96608 0 22 -1.96608 1
genomeend 91

/* Organism #92 Fitness: 3 Error: 0 */
genomestart 92
trait 1 0.1 0 0 0 0 0 0 0 
trait 2 0.6 0 0 0 0 0 0 0.386175 
trait 3 0.3 0 0 0 0 0 0 0 
node 1 1 1 3
node 2 1 1 1
node 3 3 1 1
node 4 1 1 1
node 5 1 1 1
node 6 3 0 2
node 7 1 0 2
node 11 1 0 0
gene 3 1 6 2.14914 0 1 2.14914 1
gene 2 2 6 -1.98706 0 2 -1.98706 1
gene 2 3 6 3.21043 0 3 3.21043 1
gene 3 4 6 -2.09375 0 4 -2.09375 0
gene 3 5 6 -3.25126 0 5 -3.25126 1
gene 3 1 7 -1.52468 0 6 -1.52468 1
gene 1 2 7 -1.30543 0 7 -1.30543 1
gene 2 3 7 -3.99323 0 8 -3.99323 1
gene 1 4 7 2.67354 0 9 2.67354 1
gene 3 5 7 1.66775 0 10 1.66775 1
gene 3 4 11 1.94596 0 21 1.94596 1
gene 3 11 6 -1.63847 0 22 -1.63847 1
genomeend 92

/* Organism #93 Fitness: 5 Error: 0 */
genomestart 93
trait 1 0.1 0 0 0 0 0 0 0 
trait 2 0.8 0 0 0 0 0 0 0.579262 
trait 3 0.3 0 0 0 0 0 0 0 
node 1 1 1 3
node 2 1 1 1
node 3 3 1 1
node 4 1 1 1
node 5 1 1 1
node 6 3 0 2
node 7 1 0 2
node 11 1 0 0
gene 3 1 6 0.00451037 0 1 0.00451037 1
gene 2 2 6 -2.57722 0 2 -2.57722 1
gene 2 3 6 2.21869 0 3 2.21869 1
gene 3 4 6 -2.49473 0 4 -2.49473 1
gene 3 5 6 -4.02473 0 5 -4.02473 1
gene 3 1 7 -0.13177 0 6 -0.13177 1
gene 1 2 7 -2.67148 0 7 -2.67148 1
gene 2 3 7 -3.91155 0 8 -3.91155 1
gene 1 4 7 0.961026 0 9 0.961026 1
gene 3 5 7 1.68525 0 10 1.68525 1
gene 3 4 11 1.94596 0 21 1.94596 1
gene 3 11 6 -0.837221 0 22 -0.837221 1
genomeend 93

/* Organism #94 Fitness: 3 Error: 0 */
genomestart 94
trait 1 0.1 0 0 0 0 0 0 0 
trait 2 0.6 0 0 0 0 0 0 0.386175 
trait 3 0.3 0 0 0 0 0 0 0 
node 1 1 1 3
node 2 2 1 1
node 3 3 1 1
node 4 1 1 1
node 5 1 1 1
node 6 3 0 2
node 7 3 0 2
node 11 1 0 0
gene 3 1 6 -0.94168 0 1 -0.94168 1
gene 2 2 6 0.181348 0 2 0.181348 1
gene 2 3 6 2.43406 0 3 2.43406 1
gene 3 4 6 -1.10066 0 4 -1.10066 0
gene 3 5 6 -2.4637 0 5 -2.4637 1
gene 3 1 7 3.41676 0 6 3.41676 1
gene 1 2 7 -4.04506 0 7 -4.04506 1
gene 2 3 7 -1.52668 0 8 -1.52668 1
gene 1 4 7 3.04121 0 9 3.04121 1
gene 3 5 7 3.34255 0 10 3.34255 1
gene 3 4 11 3.44617 0 21 3.44617 1
gene 3 11 6 2.14886 0 22 2.14886 1
genomeend 94

/* Species #4 : (Size 45) (AF 21.7556) (Age 4)  */


/* Organism #95 Fitness: 293 Error: 0 */
genomestart 95
trait 1 0.259365 0.0749898 0 0 0.420317 0.0178519 0 0 
trait 2 0.2 0 0 0 0 0 0 0 
trait 3 0.3 0 0 0 0 0 0 0 
node 1 1 1 3
node 2 1 1 1
node 3 3 1 1
node 4 3 1 1
node 5 1 1 1
node 6 1 0 2
node 7 3 0 2
node 12 1 0 0
gene 2 1 6 -0.540598 0 1 -0.540598 1
gene 2 2 6 1.05191 0 2 1.05191 1
gene 2 3 6 -1.03182 0 3 -1.03182 1
gene 2 4 6 1.62003 0 4 1.62003 1
gene 2 5 6 -0.49674 0 5 -0.49674 1
gene 3 1 7 -0.528621 0 6 -0.528621 1
gene 1 2 7 -1.28107 0 7 -1.28107 0
gene 3 3 7 -1.65947 0 8 -1.65947 1
gene 3 4 7 3.35568 0 9 3.35568 1
gene 3 5 7 4.43421 0 10 4.43421 1
gene 1 2 12 2.39425 0 23 2.39425 1
gene 1 12 7 -2.71391 0 24 -2.71391 1
genomeend 95

/* Organism #96 Fitness: 20 Error: 0 */
genomestart 96
trait 1 0.259365 0.0749898 0 0 0.420317 0.0178519 0 0 
trait 2 0.2 0 0 0 0 0 0 0 
trait 3 0.3 0 0 0 0 0 0 0 
node 1 1 1 3
node 2 1 1 1
node 3 3 1 1
node 4 3 1 1
node 5 1 1 1
node 6 1 0 2
node 7 3 0 2
node 12 1 0 0
gene 2 1 6 -5.87255 0 1 -5.87255 1
gene 2 2 6 2.17507 0 2 2.17507 1
gene 1 3 6 2.69704 0 3 2.69704 1
gene 2 4 6 2.20263 0 4 2.20263 1
gene 2 5 6 0.0919518 0 5 0.0919518 1
gene 3 1 7 -1.32853 0 6 -1.32853 1
gene 1 2 7 0.721151 0 7 0.721151 0
gene 3 3 7 -5.96089 0 8 -5.96089 1
gene 3 4 7 5.64919 0 9 5.64919 1
gene 3 5 7 4.35152 0 10 4.35152 1
gene 1 2 12 1.4173 0 23 1.4173 1
gene 1 12 7 -0.624305 0 24 -0.624305 1
genomeend 96

/* Organism #97 Fitness: 3 Error: 0 */
genomestart 97
trait 1 0.259365 0.0749898 0 0 0.420317 0.0178519 0 0 
trait 2 0.2 0 0 0 0 0 0 0 
trait 3 0.3 0 0 0 0 0 0 0 
node 1 1 1 3
node 2 1 1 1
node 3 3 1 1
node 4 3 1 1
node 5 1 1 1
node 6 1 0 2
node 7 3 0 2
node 12 1 0 0
gene 2 1 6 -0.137905 0 1 -0.137905 1
gene 2 2 6 1.07506 0 2 1.07506 1
gene 1 3 6 4.55923 0 3 4.55923 1
gene 2 4 6 1.86854 0 4 1.86854 1
gene 2 5 6 2.07986 0 5 2.07986 1
gene 3 1 7 -1.45096 0 6 -1.45096 1
gene 1 2 7 1.83056 0 7 1.83056 0
gene 3 3 7 -0.726379 0 8 -0.726379 1
gene 3 4 7 1.59432 0 9 1.59432 1
gene 3 5 7 5.90551 0 10 5.90551 1
gene 1 2 12 0.283588 0 23 0.283588 1
gene 1 12 7 1.90606 0 24 1.90606 1
genomeend 97

/* Organism #98 Fitness: 19 Error: 0 */
genomestart 98
trait 1 0.259365 0.0749898 0 0 0.420317 0.0178519 0 0 
trait 2 0.2 0 0 0 0 0 0 0 
trait 3 0.3 0 0 0 0 0 0 0 
node 1 1 1 3
node 2 1 1 1
node 3 3 1 1
node 4 3 1 1
node 5 1 1 1
node 6 1 0 2
node 7 3 0 2
node 12 2 0 0
gene 2 1 6 -0.528536 0 1 -0.528536 1
gene 2 2 6 -0.117975 0 2 -0.117975 1
gene 1 3 6 6.23985 0 3 6.23985 1
gene 2 4 6 2.67352 0 4 2.67352 1
gene 2 5 6 -2.5009 0 5 -2.5009 1
gene 3 1 7 2.07481 0 6 2.07481 1
gene 1 2 7 -2.49277 0 7 -2.49277 0
gene 3 3 7 -3.12855 0 8 -3.12855 1
gene 3 4 7 1.56647 0 9 1.56647 1
gene 3 5 7 3.36999 0 10 3.36999 1
gene 1 2 12 -1.40323 0 23 -1.40323 1
gene 1 12 7 -3.52161 0 24 -3.52161 1
genomeend 98

/* Organism #99 Fitness: 4 Error: 0 */
genomestart 99
trait 1 0.259365 0.0749898 0 0 0.420317 0.0178519 0 0 
trait 2 0.2 0 0 0 0 0 0 0 
trait 3 0.3 0 0 0 0 0 0 0 
node 1 1 1 3
node 2 1 1 1
node 3 3 1 1
node 4 3 1 1
node 5 1 1 1
node 6 1 0 2
node 7 3 0 2
node 12 1 0 0
gene 2 1 6 -0.233974 0 1 -0.233974 1
gene 2 2 6 1.70325 0 2 1.70325 1
gene 1 3 6 4.08975 0 3 4.08975 1
gene 2 4 6 0.812498 0 4 0.812498 1
gene 2 5 6 -2.37583 0 5 -2.37583 1
gene 3 1 7 -1.02476 0 6 -1.02476 1
gene 1 2 7 3.60061 0 7 3.60061 0
gene 3 3 7 2.29772 0 8 2.29772 1
gene 3 4 7 -1.19483 0 9 -1.19483 1
gene 3 5 7 2.66571 0 10 2.66571 1
gene 1 2 12 0.131957 0 23 0.131957 1
gene 1 12 7 0.204355 0 24 0.204355 1
genomeend 99

/* Organism #100 Fitness: 10 Error: 0 */
genomestart 100
trait 1 0.259365 0.0749898 0 0 0.420317 0.0178519 0 0 
trait 2 0.2 0 0 0 0 0 0 0 
trait 3 0.3 0 0 0 0 0 0 0 
node 1 1 1 3
node 2 1 1 1
node 3 3 1 1
node 4 3 1 1
node 5 1 1 1
node 6 1 0 2
node 7 3 0 2
node 12 1 0 0
gene 2 1 6 -0.41504 0 1 -0.41504 1
gene 2 2 6 -1.49291 0 2 -1.49291 1
gene 1 3 6 4.45218 0 3 4.45218 1
gene 2 4 6 4.15623 0 4 4.15623 1
gene 2 5 6 -3.41472 0 5 -3.41472 1
gene 3 1 7 -2.75972 0 6 -2.75972 1
gene 1 2 7 0.403332 0 7 0.403332 0
gene 3 3 7 -0.446964 0 8 -0.446964 1
gene 3 4 7 0.798666 0 9 0.798666 1
gene 3 5 7 4.08711 0 10 4.08711 1
gene 1 2 12 1.5202 0 23 1.5202 1
gene 1 12 7 2.42838 0 24 2.42838 1
genomeend 100

/* Organism #101 Fitness: 47 Error: 0 */
genomestart 101
trait 1 0.259365 0.0749898 0 0 0.420317 0.0178519 0 0 
trait 2 0.2 0 0 0 0 0 0 0 
trait 3 0.3 0 0 0 0 0 0 0 
node 1 1 1 3
node 2 1 1 1
node 3 3 1 1
node 4 3 1 1
node 5 1 1 1
node 6 1 0 2
node 7 3 0 2
node 12 1 0 0
gene 2 1 6 1.64114 0 1 1.64114 1
gene 2 2 6 -2.41565 0 2 -2.41565 1
gene 1 3 6 4.08975 0 3 4.08975 1
gene 2 4 6 3.16874 0 4 3.16874 1
gene 2 5 6 -0.428327 0 5 -0.428327 1
gene 3 1 7 1.04502 0 6 1.04502 1
gene 1 2 7 -0.347537 0 7 -0.347537 0
gene 3 3 7 -0.386295 0 8 -0.386295 1
gene 3 4 7 0.241695 0 9 0.241695 1
gene 3 5 7 4.26087 0 10 4.26087 1
gene 1 2 12 -0.0665167 0 23 -0.0665167 1
gene 1 12 7 -1.99043 0 24 -1.99043 1
genomeend 101

/* Organism #102 Fitness: 19 Error: 0 */
genomestart 102
trait 1 0.259365 0.0749898 0 0 0.420317 0.0178519 0 0 
trait 2 0.2 0 0 0 0 0 0 0 
trait 3 0.3 0 0 0 0 0 0 0 
node 1 1 1 3
node 2 1 1 1
node 3 3 1 1
node 4 3 1 1
node 5 1 1 1
node 6 1 0 2
node 7 3 0 2
node 12 1 0 0
gene 2 1 6 -5.6144 0 1 -5.6144 1
gene 2 2 6 3.1863 0 2 3.1863 1
gene 1 3 6 1.25775 0 3 1.25775 1
gene 2 4 6 2.80612 0 4 2.80612 1
gene 2 5 6 -1.39148 0 5 -1.39148 1
gene 3 1 7 -0.991127 0 6 -0.991127 1
gene 1 2 7 1.51578 0 7 1.51578 0
gene 3 3 7 -6.0397 0 8 -6.0397 1
gene 3 4 7 0.897784 0 9 0.897784 1
gene 3 5 7 1.305 0 10 1.305 1
gene 1 2 12 0.931105 0 23 0.931105 1
gene 1 12 7 0.482791 0 24 0.482791 1
genomeend 102

/* Organism #103 Fitness: 9 Error: 0 */
genomestart 103
trait 1 0.259365 0.0749898 0 0 0.420317 0.0178519 0 0 
trait 2 0.2 0 0 0 0 0 0 0 
trait 3 0.3 0 0 0 0 0 0 0 
node 1 1 1 3
node 2 1 1 1
node 3 3 1 1
node 4 3 1 1
node 5 1 1 1
node 6 1 0 2
node 7 3 0 2
node 12 1 0 0
gene 2 1 6 -1.31758 0 1 -1.31758 1
gene 2 2 6 -0.490415 0 2 -0.490415 1
gene 1 3 6 6.20547 0 3 6.20547 1
gene 2 4 6 2.43741 0 4 2.43741 1
gene 2 5 6 -1.24455 0 5 -1.24455 1
gene 3 1 7 -0.980168 0 6 -0.980168 1
gene 1 2 7 -1.56205 0 7 -1.56205 0
gene 3 3 7 -4.50856 0 8 -4.50856 1
gene 3 4 7 4.62675 0 9 4.62675 1
gene 3 5 7 1.7585 0 10 1.7585 1
gene 1 2 12 -0.0509991 0 23 -0.0509991 1
gene 1 12 7 0.0573721 0 24 0.0573721 1
genomeend 103

/* Organism #104 Fitness: 1 Error: 0 */
genomestart 104
trait 1 0.259365 0.0749898 0 0 0.420317 0.0178519 0 0 
trait 2 0.2 0 0 0 0 0 0 0 
trait 3 0.3 0 0 0 0 0 0 0 
node 1 1 1 3
node 2 1 1 1
node 3 3 1 1
node 4 3 1 1
node 5 1 1 1
node 6 1 0 2
node 7 1 0 2
node 12 1 0 0
gene 2 1 6 0.878881 0 1 0.878881 1
gene 2 2 6 2.18949 0 2 2.18949 1
gene 1 3 6 3.66074 0 3 3.66074 1
gene 2 4 6 1.04719 0 4 1.04719 1
gene 2 5 6 0.179497 0 5 0.179497 1
gene 3 1 7 -0.913367 0 6 -0.913367 1
gene 1 2 7 0.630957 0 7 0.630957 0
gene 3 3 7 -1.51079 0 8 -1.51079 1
gene 3 4 7 2.6553 0 9 2.6553 1
gene 3 5 7 0.0966568 0 10 0.0966568 1
gene 1 2 12 1.68062 0 23 1.68062 1
gene 1 12 7 0.0877495 0 24 0.0877495 1
genomeend 104

/* Organism #105 Fitness: 4 Error: 0 */
genomestart 105
trait 1 0.259365 0.0749898 0 0 0.420317 0.0178519 0 0 
trait 2 0.2 0 0 0 0 0 0 0 
trait 3 0.3 0 0 0 0 0 0 0 
node 1 1 1 3
node 2 1 1 1
node 3 3 1 1
node 4 3 1 1
node 5 1 1 1
node 6 1 0 2
node 7 3 0 2
node 12 1 0 0
gene 2 1 6 -2.54527 0 1 -2.54527 1
gene 2 2 6 2.93455 0 2 2.93455 1
gene 1 3 6 0.492343 0 3 0.492343 1
gene 2 4 6 1.51829 0 4 1.51829 1
gene 2 5 6 -0.467305 0 5 -0.467305 1
gene 3 1 7 -0.00315059 0 6 -0.00315059 1
gene 1 2 7 -1.13963 0 7 -1.13963 0
gene 3 3 7 -2.56231 0 8 -2.56231 1
gene 3 4 7 3.06915 0 9 3.06915 1
gene 3 5 7 1.58877 0 10 1.58877 1
gene 1 2 12 2.17123 0 23 2.17123 1
gene 1 12 7 -0.571795 0 24 -0.571795 1
genomeend 105

/* Organism #106 Fitness: 17 Error: 0 */
genomestart 106
trait 1 0.259365 0.0749898 0 0 0.420317 0.0178519 0 0 
trait 2 0.2 0 0 0 0 0 0 0 
trait 3 0.3 0 0 0 0 0 0 0 
node 1 1 1 3
node 2 1 1 1
node 3 3 1 1
node 4 3 1 1
node 5 1 1 1
node 6 1 0 2
node 7 3 0 2
node 12 1 0 0
gene 2 1 6 -0.595769 0 1 -0.595769 1
gene 2 2 6 1.20253 0 2 1.20253 1
gene 1 3 6 3.19513 0 3 3.19513 1
gene 2 4 6 2.0461 0 4 2.0461 1
gene 2 5 6 -0.815036 0 5 -0.815036 1
gene 3 1 7 -0.709386 0 6 -0.709386 1
gene 1 2 7 0.365808 0 7 0.365808 0
gene 3 3 7 -0.603 0 8 -0.603 1
gene 3 4 7 3.19331 0 9 3.19331 1
gene 3 5 7 2.76498 0 10 2.76498 1
gene 1 2 12 1.10797 0 23 1.10797 1
gene 1 12 7 1.1396 0 24 1.1396 1
gene 2 4 12 -0.263818 0 59 -0.263818 1
genomeend 106

/* Organism #107 Fitness: 4 Error: 0 */
genomestart 107
trait 1 0.259365 0.0749898 0 0 0.420317 0.0178519 0 0 
trait 2 0.2 0 0 0 0 0 0 0 
trait 3 0.3 0 0 0 0 0 0 0 
node 1 1 1 3
node 2 1 1 1
node 3 3 1 1
node 4 3 1 1
node 5 1 1 1
node 6 1 0 2
node 7 3 0 2
node 12 2 0 0
gene 2 1 6 -0.929161 0 1 -0.929161 1
gene 2 2 6 0.936043 0 2 0.936043 1
gene 1 3 6 4.18799 0 3 4.18799 1
gene 2 4 6 4.86007 0 4 4.86007 1
gene 2 5 6 -0.080858 0 5 -0.080858 1
gene 3 1 7 -2.83562 0 6 -2.83562 1
gene 1 2 7 -2.44486 0 7 -2.44486 0
gene 3 3 7 -1.09131 0 8 -1.09131 1
gene 3 4 7 0.939819 0 9 0.939819 1
gene 3 5 7 1.26126 0 10 1.26126 1
gene 1 2 12 2.74439 0 23 2.74439 1
gene 1 12 7 2.05757 0 24 2.05757 1
genomeend 107

/* Organism #108 Fitness: 6 Error: 0 */
genomestart 108
trait 1 0.259365 0.0749898 0 0 0.420317 0.0178519 0 0 
trait 2 0.2 0 0 0 0 0 0 0 
trait 3 0.3 0 0 0 0 0 0 0 
node 1 1 1 3
node 2 1 1 1
node 3 3 1 1
node 4 3 1 1
node 5 1 1 1
node 6 1 0 2
node 7 3 0 2
node 12 1 0 0
gene 2 1 6 -2.45293 0 1 -2.45293 1
gene 2 2 6 0.164579 0 2 0.164579 1
gene 1 3 6 4.65603 0 3 4.65603 1
gene 2 4 6 3.8607 0 4 3.8607 1
gene 2 5 6 2.89479 0 5 2.89479 1
gene 3 1 7 -2.44371 0 6 -2.44371 1
gene 1 2 7 0.874845 0 7 0.874845 0
gene 3 3 7 -1.97594 0 8 -1.97594 1
gene 3 4 7 2.05408 0 9 2.05408 1
gene 3 5 7 6.57383 0 10 6.57383 1
gene 1 2 12 -0.201337 0 23 -0.201337 1
gene 1 12 7 0.562864 0 24 0.562864 1
genomeend 108

/* Organism #109 Fitness: 43 Error: 0 */
genomestart 109
trait 1 0.259365 0.0749898 0 0 0.420317 0.0178519 0 0 
trait 2 0.2 0 0 0 0 0 0 0 
trait 3 0.3 0 0 0 0 0 0 0 
node 1 1 1 3
node 2 1 1 1
node 3 3 1 1
node 4 3 1 1
node 5 1 1 1
node 6 1 0 2
node 7 3 0 2
node 12 2 0 0
gene 2 1 6 -3.08455 0 1 -3.08455 1
gene 2 2 6 -0.905374 0 2 -0.905374 1
gene 1 3 6 2.90686 0 3 2.90686 1
gene 2 4 6 3.4602 0 4 3.4602 1
gene 2 5 6 -0.127977 0 5 -0.127977 1
gene 3 1 7 -1.38525 0 6 -1.38525 1
gene 1 2 7 -1.15848 0 7 -1.15848 0
gene 3 3 7 -3.86098 0 8 -3.86098 1
gene 3 4 7 3.738 0 9 3.738 1
gene 3 5 7 4.1546 0 10 4.1546 1
gene 1 2 12 1.78799 0 23 1.78799 1
gene 1 12 7 0.16679 0 24 0.16679 1
genomeend 109

/* Organism #110 Fitness: 11 Error: 0 */
genomestart 110
trait 1 0.259365 0.0749898 0 0 0.420317 0.0178519 0 0 
trait 2 0.2 0 0 0 0 0 0 0 
trait 3 0.3 0 0 0 0 0 0 0 
node 1 1 1 3
node 2 1 1 1
node 3 3 1 1
node 4 3 1 1
node 5 1 1 1
node 6 1 0 2
node 7 3 0 2
node 12 1 0 0
gene 2 1 6 -4.28901 0 1 -4.28901 1
gene 2 2 6 0.658686 0 2 0.658686 1
gene 1 3 6 5.51056 0 3 5.51056 1
gene 2 4 6 4.35793 0 4 4.35793 1
gene 2 5 6 2.27182 0 5 2.27182 1
gene 3 1 7 0.821021 0 6 0.821021 1
gene 1 2 7 2.33357 0 7 2.33357 0
gene 3 3 7 -1.35966 0 8 -1.35966 1
gene 3 4 7 1.75453 0 9 1.75453 1
gene 3 5 7 -0.951712 0 10 -0.951712 1
gene 1 2 12 0.295814 0 23 0.295814 1
gene 1 12 7 1.22193 0 24 1.22193 1
genomeend 110

/* Organism #111 Fitness: 14 Error: 0 */
genomestart 111
trait 1 0.259365 0.0749898 0 0 0.420317 0.0178519 0 0 
trait 2 0.2 0 0 0 0 0 0 0 
trait 3 0.3 0 0 0 0 0 0 0 
node 1 1 1 3
node 2 1 1 1
node 3 3 1 1
node 4 3 1 1
node 5 1 1 1
node 6 1 0 2
node 7 3 0 2
node 12 1 0 0
gene 2 1 6 -3.77189 0 1 -3.77189 1
gene 2 2 6 1.32818 0 2 1.32818 1
gene 1 3 6 0.864698 0 3 0.864698 1
gene 2 4 6 2.33119 0 4 2.33119 1
gene 2 5 6 0.259057 0 5 0.259057 1
gene 3 1 7 1.35365 0 6 1.35365 1
gene 1 2 7 0.509811 0 7 0.509811 0
gene 3 3 7 -3.57609 0 8 -3.57609 1
gene 3 4 7 1.69989 0 9 1.69989 1
gene 3 5 7 3.56628 0 10 3.56628 1
gene 1 2 12 1.62924 0 23 1.62924 1
gene 1 12 7 -0.001412 0 24 -0.001412 1
genomeend 111

/* Organism #112 Fitness: 59 Error: 0 */
genomestart 112
trait 1 0.259365 0.0749898 0 0 0.420317 0.0178519 0 0 
trait 2 0.2 0 0 0 0 0 0 0 
trait 3 0.3 0 0 0 0 0 0 0 
node 1 1 1 3
node 2 1 1 1
node 3 3 1 1
node 4 3 1 1
node 5 1 1 1
node 6 1 0 2
node 7 3 0 2
node 12 2 0 0
gene 2 1 6 -6.94072 0 1 -6.94072 1
gene 2 2 6 1.96525 0 2 1.96525 1
gene 1 3 6 4.34013 0 3 4.34013 1
gene 2 4 6 4.16062 0 4 4.16062 1
gene 2 5 6 0.223169 0 5 0.223169 1
gene 3 1 7 -2.67642 0 6 -2.67642 1
gene 1 2 7 -2.26178 0 7 -2.26178 0
gene 3 3 7 -2.2212 0 8 -2.2212 1
gene 3 4 7 4.1578 0 9 4.1578 1
gene 3 5 7 3.51001 0 10 3.51001 1
gene 1 2 12 5.42788 0 23 5.42788 1
gene 1 12 7 0.444527 0 24 0.444527 1
genomeend 112

/* Organism #113 Fitness: 10 Error: 0 */
genomestart 113
trait 1 0.259365 0.0749898 0 0 0.420317 0.0178519 0 0 
trait 2 0.2 0 0 0 0 0 0 0 
trait 3 0.3 0 0 0 0 0 0 0 
node 1 1 1 3
node 2 1 1 1
node 3 3 1 1
node 4 3 1 1
node 5 1 1 1
node 6 1 0 2
node 7 3 0 2
node 12 1 0 0
gene 2 1 6 -6.22656 0 1 -6.22656 1
gene 2 2 6 -0.32455 0 2 -0.32455 1
gene 1 3 6 2.1127 0 3 2.1127 1
gene 2 4 6 1.28983 0 4 1.28983 1
gene 2 5 6 1.49606 0 5 1.49606 1
gene 3 1 7 -0.85434 0 6 -0.85434 1
gene 1 2 7 2.90082 0 7 2.90082 1
gene 3 3 7 0.0089197 0 8 0.0089197 1
gene 3 4 7 3.76775 0 9 3.76775 1
gene 3 5 7 4.56651 0 10 4.56651 1
gene 1 2 12 1.91353 0 23 1.91353 1
gene 1 12 7 1.99811 0 24 1.99811 1
genomeend 113

/* Organism #114 Fitness: 12 Error: 0 */
genomestart 114
trait 1 0.259365 0.0749898 0 0 0.420317 0.0178519 0 0 
trait 2 0.2 0 0 0 0 0 0 0 
trait 3 0.3 0 0 0 0 0 0 0 
node 1 1 1 3
node 2 1 1 1
node 3 3 1 1
node 4 3 1 1
node 5 1 1 1
node 6 1 0 2
node 7 3 0 2
node 12 1 0 0
gene 2 1 6 -0.952865 0 1 -0.952865 1
gene 2 2 6 -2.23786 0 2 -2.23786 1
gene 2 3 6 -2.97891 0 3 -2.97891 1
gene 2 4 6 0.455008 0 4 0.455008 1
gene 2 5 6 1.51872 0 5 1.51872 1
gene 3 1 7 0.100291 0 6 0.100291 1
gene 1 2 7 0.8429 0 7 0.8429 0
gene 3 3 7 1.32372 0 8 1.32372 1
gene 3 4 7 4.92741 0 9 4.92741 1
gene 3 5 7 -1.54538 0 10 -1.54538 1
gene 1 2 12 1.51983 0 23 1.51983 1
gene 1 12 7 -4.77717 0 24 -4.77717 1
genomeend 114

/* Organism #115 Fitness: 65 Error: 0 */
genomestart 115
trait 1 0 0 0.60025 0 0.420317 0.741983 0 0 
trait 2 0.2 0 0 0 0 0 0 0 
trait 3 0.3 0 0 0 0 0 0 0 
node 1 1 1 3
node 2 1 1 1
node 3 3 1 1
node 4 3 1 1
node 5 1 1 1
node 6 1 0 2
node 7 3 0 2
node 12 1 0 0
gene 2 1 6 -2.77574 0 1 -2.77574 1
gene 2 2 6 1.43272 0 2 1.43272 1
gene 2 3 6 -1.97031 0 3 -1.97031 1
gene 2 4 6 4.69009 0 4 4.69009 1
gene 2 5 6 0.306132 0 5 0.306132 1
gene 3 1 7 -0.445967 0 6 -0.445967 1
gene 1 2 7 0.743894 0 7 0.743894 0
gene 3 3 7 -2.27542 0 8 -2.27542 1
gene 3 4 7 3.35568 0 9 3.35568 1
gene 3 5 7 3.47774 0 10 3.47774 1
gene 1 2 12 2.50375 0 23 2.50375 1
gene 1 12 7 -2.06751 0 24 -2.06751 1
genomeend 115

/* Organism #116 Fitness: 15 Error: 0 */
genomestart 116
trait 1 0.259365 0.0749898 0 0 0.420317 0.0178519 0 0 
trait 2 0.2 0 0 0 0 0 0 0 
trait 3 0.3 0 0 0 0 0 0 0 
node 1 1 1 3
node 2 1 1 1
node 3 3 1 1
node 4 3 1 1
node 5 1 1 1
node 6 1 0 2
node 7 3 0 2
node 12 2 0 0
gene 2 1 6 -0.964682 0 1 -0.964682 1
gene 2 2 6 1.4969 0 2 1.4969 1
gene 1 3 6 3.74094 0 3 3.74094 1
gene 2 4 6 4.65827 0 4 4.65827 1
gene 2 5 6 3.65358 0 5 3.65358 1
gene 3 1 7 1.48753 0 6 1.48753 1
gene 1 2 7 -3.01689 0 7 -3.01689 0
gene 3 3 7 -1.98086 0 8 -1.98086 1
gene 3 4 7 2.76821 0 9 2.76821 1
gene 3 5 7 -0.158502 0 10 -0.158502 1
gene 1 2 12 -2.39994 0 23 -2.39994 1
gene 1 12 7 -2.39883 0 24 -2.39883 1
genomeend 116

/* Organism #117 Fitness: 5 Error: 0 */
genomestart 117
trait 1 0.259365 0.0749898 0 0 0.420317 0.0178519 0 0 
trait 2 0.2 0 0 0 0 0 0 0 
trait 3 0.3 0 0 0 0 0 0 0 
node 1 1 1 3
node 2 1 1 1
node 3 3 1 1
node 4 3 1 1
node 5 1 1 1
node 6 1 0 2
node 7 3 0 2
node 12 1 0 0
gene 2 1 6 -2.66079 0 1 -2.66079 1
gene 2 2 6 2.03497 0 2 2.03497 1
gene 1 3 6 2.44452 0 3 2.44452 1
gene 2 4 6 1.71511 0 4 1.71511 1
gene 2 5 6 -1.81443 0 5 -1.81443 1
gene 3 1 7 1.79752 0 6 1.79752 1
gene 1 2 7 -2.13433 0 7 -2.13433 1
gene 3 3 7 -3.99345 0 8 -3.99345 1
gene 3 4 7 0.106295 0 9 0.106295 1
gene 3 5 7 3.45861 0 10 3.45861 1
gene 1 2 12 2.3757 0 23 2.3757 1
gene 1 12 7 2.71311 0 24 2.71311 1
genomeend 117

/* Organism #118 Fitness: 4 Error: 0 */
genomestart 118
trait 1 0.259365 0.0749898 0 0 0.420317 0.0178519 0 0 
trait 2 0.2 0 0 0 0 0 0 0 
trait 3 0.3 0 0 0 0 0 0 0 
node 1 1 1 3
node 2 1 1 1
node 3 3 1 1
node 4 3 1 1
node 5 1 1 1
node 6 1 0 2
node 7 3 0 2
node 12 1 0 0
gene 2 1 6 -3.19391 0 1 -3.19391 1
gene 2 2 6 -2.01132 0 2 -2.01132 1
gene 1 3 6 4.28677 0 3 4.28677 1
gene 2 4 6 0.925207 0 4 0.925207 1
gene 2 5 6 0.152379 0 5 0.152379 1
gene 3 1 7 3.32617 0 6 3.32617 1
gene 1 2 7 -0.191968 0 7 -0.191968 0
gene 3 3 7 0.994411 0 8 0.994411 1
gene 3 4 7 3.99108 0 9 3.99108 1
gene 3 5 7 7.07359 0 10 7.07359 1
gene 1 2 12 2.58755 0 23 2.58755 1
gene 1 12 7 -0.148201 0 24 -0.148201 1
genomeend 118

/* Organism #119 Fitness: 8 Error: 0 */
genomestart 119
trait 1 0.259365 0.0749898 0 0 0.420317 0.0178519 0 0 
trait 2 0.2 0 0 0 0 0 0 0 
trait 3 0.3 0 0 0 0 0 0 0 
node 1 1 1 3
node 2 1 1 1
node 3 3 1 1
node 4 3 1 1
node 5 1 1 1
node 6 1 0 2
node 7 3 0 2
node 12 1 0 0
gene 2 1 6 -5.58083 0 1 -5.58083 1
gene 2 2 6 0.682159 0 2 0.682159 1
gene 1 3 6 4.65603 0 3 4.65603 1
gene 2 4 6 1.91932 0 4 1.91932 1
gene 2 5 6 0.616633 0 5 0.616633 1
gene 3 1 7 0.0321867 0 6 0.0321867 1
gene 1 2 7 0.874845 0 7 0.874845 0
gene 3 3 7 -2.2212 0 8 -2.2212 1
gene 3 4 7 4.44599 0 9 4.44599 1
gene 3 5 7 4.76095 0 10 4.76095 1
gene 1 2 12 2.08398 0 23 2.08398 1
gene 1 12 7 0.373143 0 24 0.373143 1
genomeend 119

/* Organism #120 Fitness: 21 Error: 0 */
genomestart 120
trait 1 0.259365 0.0749898 0 0 0.420317 0.0178519 0 0 
trait 2 0.2 0 0 0 0 0 0 0 
trait 3 0.3 0 0 0 0 0 0 0 
node 1 1 1 3
node 2 1 1 1
node 3 3 1 1
node 4 3 1 1
node 5 1 1 1
node 6 1 0 2
node 7 3 0 2
node 12 2 0 0
gene 2 1 6 -0.588276 0 1 -0.588276 1
gene 2 2 6 -0.117975 0 2 -0.117975 1
gene 1 3 6 4.63925 0 3 4.63925 1
gene 2 4 6 2.67352 0 4 2.67352 1
gene 2 5 6 -1.58942 0 5 -1.58942 1
gene 3 1 7 -0.33979 0 6 -0.33979 1
gene 1 2 7 -3.31415 0 7 -3.31415 0
gene 3 3 7 -2.58813 0 8 -2.58813 1
gene 3 4 7 2.95889 0 9 2.95889 1
gene 3 5 7 1.54571 0 10 1.54571 1
gene 1 2 12 3.4801 0 23 3.4801 1
gene 1 12 7 -2.3322 0 24 -2.3322 1
gene 3 1 12 0.442849 0 60 0.442849 1
genomeend 120

/* Organism #121 Fitness: 12 Error: 0 */
genomestart 121
trait 1 0.259365 0.0749898 0 0 0.420317 0.0178519 0 0 
trait 2 0.2 0 0 0 0 0 0 0 
trait 3 0.3 0 0 0 0 0 0 0 
node 1 1 1 3
node 2 1 1 1
node 3 3 1 1
node 4 3 1 1
node 5 1 1 1
node 6 1 0 2
node 7 3 0 2
node 12 2 0 0
gene 2 1 6 1.31484 0 1 1.31484 1
gene 2 2 6 0.392258 0 2 0.392258 1
gene 1 3 6 -0.656901 0 3 -0.656901 1
gene 2 4 6 3.86316 0 4 3.86316 1
gene 2 5 6 2.27302 0 5 2.27302 1
gene 3 1 7 -0.0721669 0 6 -0.0721669 1
gene 1 2 7 2.46318 0 7 2.46318 0
gene 3 3 7 -2.58813 0 8 -2.58813 1
gene 3 4 7 -1.12624 0 9 -1.12624 1
gene 3 5 7 -0.509592 0 10 -0.509592 1
gene 1 2 12 4.37977 0 23 4.37977 1
gene 1 12 7 -2.66527 0 24 -2.66527 1
genomeend 121

/* Organism #122 Fitness: 20 Error: 0 */
genomestart 122
trait 1 0.259365 0.0749898 0 0 0.420317 0.0178519 0 0 
trait 2 0.2 0 0 0 0 0 0 0 
trait 3 0.3 0 0 0 0 0 0 0 
node 1 1 1 3
node 2 1 1 1
node 3 3 1 1
node 4 3 1 1
node 5 1 1 1
node 6 1 0 2
node 7 3 0 2
node 12 1 0 0
gene 2 1 6 -3.81605 0 1 -3.81605 1
gene 2 2 6 1.22935 0 2 1.22935 1
gene 1 3 6 2.93828 0 3 2.93828 1
gene 2 4 6 3.33911 0 4 3.33911 1
gene 2 5 6 1.36627 0 5 1.36627 1
gene 3 1 7 -0.449688 0 6 -0.449688 1
gene 1 2 7 0.924749 0 7 0.924749 0
gene 3 3 7 -2.76305 0 8 -2.76305 1
gene 3 4 7 4.67975 0 9 4.67975 1
gene 3 5 7 1.37543 0 10 1.37543 1
gene 1 2 12 0.922729 0 23 0.922729 1
gene 1 12 7 -2.29495 0 24 -2.29495 1
genomeend 122

/* Organism #123 Fitness: 15 Error: 0 */
genomestart 123
trait 1 0.259365 0.0749898 0 0 0.420317 0.0178519 0 0 
trait 2 0.2 0 0 0 0 0 0 0 
trait 3 0.3 0 0 0 0 0 0 0 
node 1 1 1 3
node 2 1 1 1
node 3 3 1 1
node 4 3 1 1
node 5 1 1 1
node 6 1 0 2
node 7 3 0 2
node 12 1 0 0
gene 2 1 6 -4.77993 0 1 -4.77993 1
gene 2 2 6 -1.30144 0 2 -1.30144 1
gene 1 3 6 6.92842 0 3 6.92842 1
gene 2 4 6 3.34775 0 4 3.34775 1
gene 2 5 6 -1.65986 0 5 -1.65986 1
gene 1 1 7 0.6844 0 6 0.6844 1
gene 1 2 7 0.122774 0 7 0.122774 0
gene 3 3 7 -1.14858 0 8 -1.14858 1
gene 3 4 7 4.17527 0 9 4.17527 1
gene 3 5 7 2.40355 0 10 2.40355 1
gene 1 2 12 2.46967 0 23 2.46967 1
gene 1 12 7 2.87175 0 24 2.87175 1
genomeend 123

/* Organism #124 Fitness: 18 Error: 0 */
genomestart 124
trait 1 0.259365 0.0749898 0 0 0.420317 0.0178519 0 0 
trait 2 0.2 0 0 0 0 0 0 0 
trait 3 0.3 0 0 0 0 0 0 0 
node 1 1 1 3
node 2 1 1 1
node 3 3 1 1
node 4 3 1 1
node 5 1 1 1
node 6 1 0 2
node 7 3 0 2
node 12 2 0 0
gene 2 1 6 -0.696153 0 1 -0.696153 1
gene 2 2 6 0.313373 0 2 0.313373 1
gene 1 3 6 5.39733 0 3 5.39733 1
gene 2 4 6 3.12794 0 4 3.12794 1
gene 2 5 6 -1.69164 0 5 -1.69164 1
gene 3 1 7 -1.01567 0 6 -1.01567 1
gene 1 2 7 -5.12721 0 7 -5.12721 0
gene 3 3 7 -2.08834 0 8 -2.08834 1
gene 3 4 7 3.10613 0 9 3.10613 1
gene 3 5 7 1.84662 0 10 1.84662 1
gene 1 2 12 3.4801 0 23 3.4801 1
gene 1 12 7 -0.35842 0 24 -0.35842 1
genomeend 124

/* Organism #125 Fitness: 13 Error: 0 */
genomestart 125
trait 1 0.259365 0.0749898 0 0 0.420317 0.0178519 0 0 
trait 2 0.2 0 0 0 0 0 0 0 
trait 3 0.3 0 0 0 0 0 0 0 
node 1 1 1 3
node 2 1 1 1
node 3 3 1 1
node 4 3 1 1
node 5 1 1 1
node 6 1 0 2
node 7 3 0 2
node 12 1 0 0
gene 2 1 6 -6.63135 0 1 -6.63135 1
gene 2 2 6 1.4519 0 2 1.4519 1
gene 2 3 6 0.156481 0 3 0.156481 1
gene 2 4 6 0.837745 0 4 0.837745 1
gene 2 5 6 0.207458 0 5 0.207458 1
gene 3 1 7 0.389465 0 6 0.389465 1
gene 1 2 7 -3.52441 0 7 -3.52441 0
gene 3 3 7 -3.38474 0 8 -3.38474 1
gene 3 4 7 4.79169 0 9 4.79169 1
gene 3 5 7 6.05258 0 10 6.05258 1
gene 1 2 12 -0.306665 0 23 -0.306665 1
gene 1 12 7 -4.19333 0 24 -4.19333 1
genomeend 125

/* Organism #126 Fitness: 27 Error: 0 */
genomestart 126
trait 1 0.259365 0.0749898 0 0 0.420317 0.0178519 0 0 
trait 2 0.2 0 0 0 0 0 0 0 
trait 3 0.3 0 0 0 0 0 0 0 
node 1 1 1 3
node 2 1 1 1
node 3 3 1 1
node 4 3 1 1
node 5 1 1 1
node 6 1 0 2
node 7 3 0 2
node 12 1 0 0
gene 2 1 6 -7.84171 0 1 -7.84171 1
gene 2 2 6 0.682159 0 2 0.682159 1
gene 1 3 6 4.1083 0 3 4.1083 1
gene 2 4 6 5.27701 0 4 5.27701 1
gene 2 5 6 0.474684 0 5 0.474684 1
gene 3 1 7 -2.82517 0 6 -2.82517 1
gene 1 2 7 -0.298112 0 7 -0.298112 0
gene 3 3 7 -2.76866 0 8 -2.76866 1
gene 3 4 7 3.19903 0 9 3.19903 1
gene 3 5 7 2.71341 0 10 2.71341 1
gene 1 2 12 -1.02954 0 23 -1.02954 1
gene 1 12 7 0.852852 0 24 0.852852 1
genomeend 126

/* Organism #127 Fitness: 8 Error: 0 */
genomestart 127
trait 1 0.259365 0.0749898 0 0 0.420317 0.0178519 0 0 
trait 2 0.2 0 0 0 0 0 0 0 
trait 3 0.3 0 0 0 0 0 0 0 
node 1 1 1 3
node 2 1 1 1
node 3 3 1 1
node 4 3 1 1
node 5 1 1 1
node 6 1 0 2
node 7 3 0 2
node 12 1 0 0
gene 2 1 6 -5.03814 0 1 -5.03814 1
gene 2 2 6 3.0801 0 2 3.0801 1
gene 1 3 6 -2.42082 0 3 -2.42082 1
gene 2 4 6 0.387373 0 4 0.387373 1
gene 2 5 6 0.600021 0 5 0.600021 1
gene 3 1 7 2.00384 0 6 2.00384 1
gene 1 2 7 -2.82105 0 7 -2.82105 1
gene 3 3 7 -3.02024 0 8 -3.02024 1
gene 3 4 7 3.22063 0 9 3.22063 1
gene 3 5 7 -1.32996 0 10 -1.32996 1
gene 1 2 12 2.13023 0 23 2.13023 1
gene 1 12 7 0.207912 0 24 0.207912 1
genomeend 127

/* Organism #128 Fitness: 28 Error: 0 */
genomestart 128
trait 1 0.259365 0.0749898 0 0 0.420317 0.0178519 0 0 
trait 2 0.2 0 0 0 0 0 0 0 
trait 3 0.3 0 0 0 0 0 0 0 
node 1 1 1 3
node 2 1 1 1
node 3 3 1 1
node 4 3 1 1
node 5 1 1 1
node 6 1 0 2
node 7 3 0 2
node 12 1 0 0
gene 2 1 6 -4.82451 0 1 -4.82451 1
gene 2 2 6 1.39114 0 2 1.39114 1
gene 1 3 6 -0.584788 0 3 -0.584788 1
gene 2 4 6 3.99565 0 4 3.99565 1
gene 2 5 6 -0.118044 0 5 -0.118044 1
gene 3 1 7 -0.683137 0 6 -0.683137 1
gene 1 2 7 -0.965109 0 7 -0.965109 0
gene 3 3 7 -3.17977 0 8 -3.17977 1
gene 3 4 7 1.85282 0 9 1.85282 1
gene 3 5 7 5.13496 0 10 5.13496 1
gene 1 2 12 2.1474 0 23 2.1474 1
gene 1 12 7 -0.382271 0 24 -0.382271 1
genomeend 128

/* Organism #129 Fitness: 8 Error: 0 */
genomestart 129
trait 1 0.259365 0.0749898 0 0 0.420317 0.0178519 0 0 
trait 2 0.2 0 0 0 0 0 0 0 
trait 3 0.3 0 0 0 0 0 0 0 
node 1 1 1 3
node 2 1 1 1
node 3 3 1 1
node 4 3 1 1
node 5 1 1 1
node 6 1 0 2
node 7 3 0 2
node 12 1 0 0
gene 2 1 6 -4.18963 0 1 -4.18963 1
gene 2 2 6 -0.516704 0 2 -0.516704 1
gene 1 3 6 5.67664 0 3 5.67664 1
gene 2 4 6 3.68191 0 4 3.68191 1
gene 2 5 6 0.165092 0 5 0.165092 1
gene 3 1 7 -3.76289 0 6 -3.76289 1
gene 1 2 7 -0.917343 0 7 -0.917343 0
gene 3 3 7 -4.23627 0 8 -4.23627 1
gene 3 4 7 3.09233 0 9 3.09233 1
gene 3 5 7 2.36632 0 10 2.36632 1
gene 1 2 12 1.25512 0 23 1.25512 1
gene 1 12 7 2.48231 0 24 2.48231 1
genomeend 129

/* Organism #130 Fitness: 7 Error: 0 */
genomestart 130
trait 1 0.259365 0.0749898 0 0 0.420317 0.0178519 0 0 
trait 2 0.2 0 0 0 0 0 0 0 
trait 3 0.3 0 0 0 0 0 0 0 
node 1 1 1 3
node 2 1 1 1
node 3 3 1 1
node 4 3 1 1
node 5 1 1 1
node 6 1 0 2
node 7 3 0 2
node 12 1 0 0
gene 2 1 6 -5.12246 0 1 -5.12246 1
gene 2 2 6 2.80144 0 2 2.80144 1
gene 1 3 6 3.31706 0 3 3.31706 1
gene 2 4 6 4.30514 0 4 4.30514 1
gene 2 5 6 -0.103159 0 5 -0.103159 1
gene 3 1 7 -3.0334 0 6 -3.0334 1
gene 1 2 7 2.36492 0 7 2.36492 0
gene 3 3 7 -2.93961 0 8 -2.93961 1
gene 3 4 7 4.47014 0 9 4.47014 1
gene 3 5 7 2.35639 0 10 2.35639 1
gene 1 2 12 -0.90365 0 23 -0.90365 1
gene 1 12 7 4.50895 0 24 4.50895 1
genomeend 130

/* Organism #131 Fitness: 37 Error: 0 */
genomestart 131
trait 1 0.259365 0.0749898 0 0 0.420317 0.0178519 0 0 
trait 2 0.2 0 0 0 0 0 0 0 
trait 3 0.3 0 0 0 0 0 0 0 
node 1 1 1 3
node 2 1 1 1
node 3 3 1 1
node 4 3 1 1
node 5 1 1 1
node 6 1 0 2
node 7 3 0 2
node 12 1 0 0
gene 2 1 6 -4.51819 0 1 -4.51819 1
gene 2 2 6 2.78899 0 2 2.78899 1
gene 1 3 6 2.30051 0 3 2.30051 1
gene 2 4 6 1.91932 0 4 1.91932 1
gene 2 5 6 -0.734387 0 5 -0.734387 1
gene 3 1 7 -0.0384879 0 6 -0.0384879 1
gene 1 2 7 -1.30618 0 7 -1.30618 0
gene 3 3 7 -5.22159 0 8 -5.22159 1
gene 3 4 7 1.69232 0 9 1.69232 1
gene 3 5 7 2.76049 0 10 2.76049 1
gene 1 2 12 2.08398 0 23 2.08398 1
gene 1 12 7 -1.51673 0 24 -1.51673 1
genomeend 131

/* Organism #132 Fitness: 6 Error: 0 */
genomestart 132
trait 1 0.259365 0.0749898 0 0 0.420317 0.0178519 0 0 
trait 2 0.2 0 0 0 0 0 0 0 
trait 3 0.3 0 0 0 0 0 0 0 
node 1 1 1 3
node 2 1 1 1
node 3 3 1 1
node 4 3 1 1
node 5 1 1 1
node 6 1 0 2
node 7 3 0 2
node 12 1 0 0
gene 2 1 6 -5.04951 0 1 -5.04951 1
gene 2 2 6 1.88113 0 2 1.88113 1
gene 1 3 6 1.6701 0 3 1.6701 1
gene 2 4 6 2.46034 0 4 2.46034 1
gene 2 5 6 -0.0588769 0 5 -0.0588769 1
gene 3 1 7 -0.683509 0 6 -0.683509 1
gene 1 2 7 -0.0491157 0 7 -0.0491157 0
gene 3 3 7 -3.72139 0 8 -3.72139 1
gene 3 4 7 2.60011 0 9 2.60011 1
gene 3 5 7 3.76072 0 10 3.76072 1
gene 1 2 12 1.29918 0 23 1.29918 1
gene 1 12 7 0.482791 0 24 0.482791 1
genomeend 132

/* Organism #133 Fitness: 2 Error: 0 */
genomestart 133
trait 1 0.259365 0.0749898 0 0 0.420317 0.0178519 0 0 
trait 2 0.2 0 0 0 0 0 0 0 
trait 3 0.3 0 0 0 0 0 0 0 
node 1 1 1 3
node 2 1 1 1
node 3 3 1 1
node 4 3 1 1
node 5 1 1 1
node 6 1 0 2
node 7 3 0 2
node 12 1 0 0
gene 2 1 6 -2.15555 0 1 -2.15555 1
gene 2 2 6 1.88278 0 2 1.88278 1
gene 1 3 6 3.64258 0 3 3.64258 1
gene 2 4 6 5.92539 0 4 5.92539 1
gene 2 5 6 0.188826 0 5 0.188826 1
gene 3 1 7 -2.40593 0 6 -2.40593 1
gene 1 2 7 0.172757 0 7 0.172757 0
gene 3 3 7 -2.4062 0 8 -2.4062 1
gene 3 4 7 4.79235 0 9 4.79235 1
gene 3 5 7 2.4016 0 10 2.4016 1
gene 1 2 12 -0.483932 0 23 -0.483932 1
gene 1 12 7 1.95242 0 24 1.95242 1
genomeend 133

/* Organism #134 Fitness: 4 Error: 0 */
genomestart 134
trait 1 0.259365 0.0749898 0 0 0.420317 0.0178519 0 0 
trait 2 0.2 0 0 0 0 0 0 0 
trait 3 0.3 0 0 0 0 0 0 0 
node 1 1 1 3
node 2 1 1 1
node 3 3 1 1
node 4 3 1 1
node 5 1 1 1
node 6 1 0 2
node 7 3 0 2
node 12 1 0 0
gene 2 1 6 -7.33496 0 1 -7.33496 1
gene 2 2 6 1.18343 0 2 1.18343 1
gene 1 3 6 5.85314 0 3 5.85314 1
gene 2 4 6 3.89592 0 4 3.89592 1
gene 2 5 6 -1.09092 0 5 -1.09092 1
gene 3 1 7 -2.46236 0 6 -2.46236 1
gene 1 2 7 0.450542 0 7 0.450542 0
gene 3 3 7 -4.28105 0 8 -4.28105 1
gene 3 4 7 1.13188 0 9 1.13188 1
gene 3 5 7 3.51541 0 10 3.51541 1
gene 1 2 12 0.339888 0 23 0.339888 1
gene 1 12 7 2.48231 0 24 2.48231 1
genomeend 134

/* Organism #135 Fitness: 17 Error: 0 */
genomestart 135
trait 1 0.259365 0.0749898 0 0 0.420317 0.0178519 0 0 
trait 2 0.2 0 0 0 0 0 0 0 
trait 3 0.3 0 0 0 0 0 0 0 
node 1 1 1 3
node 2 1 1 1
node 3 3 1 1
node 4 3 1 1
node 5 1 1 1
node 6 1 0 2
node 7 3 0 2
node 12 1 0 0
gene 2 1 6 -6.91286 0 1 -6.91286 1
gene 2 2 6 0.682159 0 2 0.682159 1
gene 1 3 6 4.65603 0 3 4.65603 1
gene 2 4 6 4.47236 0 4 4.47236 1
gene 2 5 6 0.00506072 0 5 0.00506072 1
gene 2 1 7 -0.59204 0 6 -0.59204 1
gene 1 2 7 2.62018 0 7 2.62018 0
gene 3 3 7 -2.84203 0 8 -2.84203 1
gene 3 4 7 -0.630167 0 9 -0.630167 1
gene 3 5 7 5.8924 0 10 5.8924 1
gene 1 2 12 -2.44725 0 23 -2.44725 1
gene 1 12 7 1.05489 0 24 1.05489 1
genomeend 135

/* Organism #136 Fitness: 1 Error: 0 */
genomestart 136
trait 1 0.259365 0.0749898 0 0 0.420317 0.0178519 0 0 
trait 2 0.2 0 0 0 0 0 0 0 
trait 3 0.3 0 0 0 0 0 0 0 
node 1 1 1 3
node 2 1 1 1
node 3 3 1 1
node 4 3 1 1
node 5 1 1 1
node 6 1 0 2
node 7 3 0 2
node 12 1 0 0
gene 2 1 6 0.840536 0 1 0.840536 1
gene 2 2 6 3.32127 0 2 3.32127 1
gene 2 3 6 -2.38347 0 3 -2.38347 1
gene 2 4 6 -0.488242 0 4 -0.488242 1
gene 2 5 6 -0.0910728 0 5 -0.0910728 1
gene 3 1 7 -2.70748 0 6 -2.70748 1
gene 1 2 7 0.51668 0 7 0.51668 0
gene 3 3 7 -1.60771 0 8 -1.60771 1
gene 3 4 7 4.80812 0 9 4.80812 1
gene 3 5 7 3.98739 0 10 3.98739 1
gene 1 2 12 1.79847 0 23 1.79847 1
gene 1 12 7 -2.71391 0 24 -2.71391 1
genomeend 136

/* Organism #137 Fitness: 24 Error: 0 */
genomestart 137
trait 1 0.259365 0.0749898 0 0 0.420317 0.0178519 0 0 
trait 2 0.2 0 0 0 0 0 0 0 
trait 3 0.3 0 0 0 0 0 0 0 
node 1 1 1 3
node 2 1 1 1
node 3 3 1 1
node 4 3 1 1
node 5 1 1 1
node 6 1 0 2
node 7 3 0 2
node 12 1 0 0
gene 2 1 6 1.32852 0 1 1.32852 1
gene 2 2 6 -0.383202 0 2 -0.383202 1
gene 1 3 6 1.0306 0 3 1.0306 1
gene 2 4 6 -0.753704 0 4 -0.753704 1
gene 2 5 6 2.12949 0 5 2.12949 1
gene 3 1 7 -2.28873 0 6 -2.28873 1
gene 1 2 7 -3.22495 0 7 -3.22495 0
gene 3 3 7 -6.38904 0 8 -6.38904 1
gene 3 4 7 0.635816 0 9 0.635816 1
gene 3 5 7 3.32402 0 10 3.32402 1
gene 1 2 12 -0.474576 0 23 -0.474576 1
gene 1 12 7 0.0161848 0 24 0.0161848 1
genomeend 137

/* Organism #138 Fitness: 2 Error: 0 */
genomestart 138
trait 1 0.259365 0.0749898 0 0 0.420317 0.0178519 0 0 
trait 2 0.2 0 0 0 0 0 0 0 
trait 3 0.3 0 0 0 0 0 0 0 
node 1 1 1 3
node 2 1 1 1
node 3 3 1 1
node 4 3 1 1
node 5 1 1 1
node 6 1 0 2
node 7 3 0 2
node 12 1 0 0
gene 2 1 6 0.534201 0 1 0.534201 1
gene 2 2 6 1.25891 0 2 1.25891 1
gene 2 3 6 -1.8294 0 3 -1.8294 1
gene 2 4 6 1.0679 0 4 1.0679 1
gene 2 5 6 -0.562864 0 5 -0.562864 1
gene 3 1 7 -1.83179 0 6 -1.83179 1
gene 1 2 7 -2.46481 0 7 -2.46481 0
gene 3 3 7 -3.02447 0 8 -3.02447 1
gene 3 4 7 1.85683 0 9 1.85683 1
gene 3 5 7 4.55483 0 10 4.55483 1
gene 1 2 12 0.918197 0 23 0.918197 1
gene 1 12 7 -3.13333 0 24 -3.13333 1
genomeend 138

/* Organism #139 Fitness: 7 Error: 0 */
genomestart 139
trait 1 0.259365 0 0 0 0 0.0178519 0 0 
trait 2 0.2 0 0 0 0 0 0 0 
trait 3 0.3 0 0 0 0 0 0 0 
node 1 1 1 3
node 2 1 1 1
node 3 3 1 1
node 4 3 1 1
node 5 1 1 1
node 6 1 0 2
node 7 3 0 2
node 12 1 0 0
gene 2 1 6 -2.32229 0 1 -2.32229 1
gene 2 2 6 0.838083 0 2 0.838083 1
gene 1 3 6 3.77273 0 3 3.77273 1
gene 2 4 6 -0.142611 0 4 -0.142611 1
gene 2 5 6 -1.34658 0 5 -1.34658 1
gene 3 1 7 0.346514 0 6 0.346514 1
gene 1 2 7 0.77707 0 7 0.77707 0
gene 3 3 7 2.59596 0 8 2.59596 1
gene 3 4 7 6.09474 0 9 6.09474 1
gene 3 5 7 -1.14233 0 10 -1.14233 1
gene 1 2 12 0.53159 0 23 0.53159 1
gene 1 12 7 -0.856276 0 24 -0.856276 1
genomeend 139

/* Species #5 : (Size 3) (AF 13) (Age 1)  */


/* Organism #140 Fitness: 19 Error: 0 */
genomestart 140
trait 1 0.1 0 0 0 0 0 0 0 
trait 2 0.2 0 0 0 0 0 0 0 
trait 3 0.3 0 0 0 0 0 0 0 
node 1 2 1 3
node 2 2 1 1
node 3 1 1 1
node 4 3 1 1
node 5 3 1 1
node 6 3 0 2
node 7 3 0 2
gene 1 1 6 -1.31959 0 1 -1.31959 1
gene 2 2 6 -0.853684 0 2 -0.853684 1
gene 2 3 6 3.91543 0 3 3.91543 1
gene 3 4 6 2.71121 0 4 2.71121 1
gene 3 5 6 -6.35273 0 5 -6.35273 1
gene 3 1 7 -2.64047 0 6 -2.64047 1
gene 1 2 7 -1.40967 0 7 -1.40967 0
gene 3 3 7 -0.185701 0 8 -0.185701 1
gene 2 4 7 1.99905 0 9 1.99905 1
gene 3 5 7 6.11885 0 10 6.11885 1
gene 3 7 6 2.3056 0 20 2.3056 1
genomeend 140

/* Organism #141 Fitness: 3 Error: 0 */
genomestart 141
trait 1 0.1 0 0 0 0 0 0 0 
trait 2 0.2 0 0 0 0 0 0 0 
trait 3 0.3 0 0 0 0 0 0 0 
node 1 2 1 3
node 2 2 1 1
node 3 1 1 1
node 4 3 1 1
node 5 3 1 1
node 6 2 0 2
node 7 3 0 2
gene 1 1 6 0.671451 0 1 0.671451 1
gene 2 2 6 -2.98371 0 2 -2.98371 1
gene 2 3 6 1.75884 0 3 1.75884 1
gene 3 4 6 -1.96346 0 4 -1.96346 1
gene 3 5 6 -0.810001 0 5 -0.810001 1
gene 3 1 7 -1.11208 0 6 -1.11208 1
gene 1 2 7 -4.13815 0 7 -4.13815 1
gene 2 3 7 -5.31983 0 8 -5.31983 1
gene 3 4 7 -1.81668 0 9 -1.81668 1
gene 1 5 7 2.06693 0 10 2.06693 1
gene 3 7 6 1.75068 0 20 1.75068 1
genomeend 141

/* Organism #142 Fitness: 17 Error: 0 */
genomestart 142
trait 1 0.119921 0.00937373 0 0 0.0525396 0.00223149 0 0 
trait 2 0.2 0 0 0 0 0 0 0 
trait 3 0.3 0 0 0 0 0 0 0 
node 1 3 1 3
node 2 1 1 1
node 3 3 1 1
node 4 3 1 1
node 5 2 1 1
node 6 1 0 2
node 7 1 0 2
node 21 1 0 0
gene 2 1 6 0.299729 0 1 0.299729 1
gene 2 2 6 -0.869234 0 2 -0.869234 1
gene 2 3 6 1.04828 0 3 1.04828 1
gene 3 4 6 -2.19158 0 4 -2.19158 1
gene 1 5 6 1.15685 0 5 1.15685 0
gene 3 1 7 -0.433248 0 6 -0.433248 1
gene 1 2 7 -1.55539 0 7 -1.55539 1
gene 2 3 7 -0.0175078 0 8 -0.0175078 1
gene 3 4 7 1.60189 0 9 1.60189 1
gene 3 5 7 2.93713 0 10 2.93713 1
gene 3 7 6 -0.71555 0 20 -0.71555 1
gene 1 5 21 1 0 51 0 1
gene 1 21 6 1.15685 0 52 0 1
genomeend 142

/* Species #6 : (Size 1) (AF 6) (Age 1)  */


/* Organism #143 Fitness: 6 Error: 0 */
genomestart 143
trait 1 0.1 0 0 0 0 0 0 0 
trait 2 0.2 0 0 0 0 0 0 0 
trait 3 0.3 0 0 0 0 0 0 0 
node 1 1 1 3
node 2 3 1 1
node 3 3 1 1
node 4 3 1 1
node 5 1 1 1
node 6 2 0 2
node 7 3 0 2
node 9 1 0 0
gene 1 1 6 -1.9853 0 1 -1.9853 1
gene 2 2 6 2.47568 0 2 2.47568 1
gene 2 3 6 0.088169 0 3 0.088169 1
gene 3 4 6 0.58988 0 4 0.58988 1
gene 3 5 6 -1.72133 0 5 -1.72133 1
gene 3 1 7 -3.40585 0 6 -3.40585 1
gene 1 2 7 -1.92982 0 7 -1.92982 0
gene 2 3 7 -1.86255 0 8 -1.86255 1
gene 2 4 7 -2.21943 0 9 -2.21943 1
gene 3 5 7 1.41502 0 10 1.41502 1
gene 2 6 7 -0.0409439 0 11 -0.0409439 1
gene 1 2 9 3.92857 0 16 3.92857 1
gene 1 9 7 -1.43298 0 17 -1.43298 1
gene 3 3 9 0.00285935 0 25 0.00285935 1
gene 3 4 9 0.0608337 0 44 0.0608337 1
genomeend 143

